network unknown {
}
variable BMI {
    type discrete [ 7 ] { 0, 1, 2, 3, 4, 5, 6 };
}
variable Diabetes_binary {
    type discrete [ 2 ] { 0, 1 };
}
variable DiffWalk {
    type discrete [ 2 ] { 0, 1 };
}
variable GenHlth {
    type discrete [ 3 ] { 0, 1, 2 };
}
variable HighBP {
    type discrete [ 2 ] { 0, 1 };
}
variable HighChol {
    type discrete [ 2 ] { 0, 1 };
}
variable Sex {
    type discrete [ 2 ] { 0, 1 };
}
probability ( BMI | DiffWalk, GenHlth, HighBP, HighChol, Sex ) {
    ( 0, 0, 0, 0, 0 ) 0.021690140845070423, 0.5606572769953052, 0.2777777777777778, 0.09568075117370892, 0.028043818466353676, 0.009546165884194054, 0.0066040688575899845;
    ( 0, 0, 0, 0, 1 ) 0.006474262526786121, 0.41061414307208316, 0.4197784160853508, 0.12250946063010076, 0.02845028039939817, 0.00683900971139379, 0.005334427574887156;
    ( 0, 0, 0, 1, 0 ) 0.01113778204512722, 0.48343734997599613, 0.34325492078732595, 0.11541046567450793, 0.03254920787325972, 0.007969275084013442, 0.006240998559769563;
    ( 0, 0, 0, 1, 1 ) 0.002793296089385475, 0.3271799854262813, 0.4913772164197231, 0.1407578333738159, 0.027447170269613796, 0.0057080398348311875, 0.004736458586349283;
    ( 0, 0, 1, 0, 0 ) 0.011341896693085543, 0.3669035255534299, 0.36225744738999727, 0.1668488658103307, 0.05889587318939601, 0.021863897239682975, 0.011888494124077617;
    ( 0, 0, 1, 0, 1 ) 0.003411513859275053, 0.24534470504619757, 0.4496090973702914, 0.21393034825870647, 0.06240227434257285, 0.017199715707178393, 0.00810234541577825;
    ( 0, 0, 1, 1, 0 ) 0.0086521562795728, 0.33405434635663106, 0.4023252670001352, 0.1769636339056374, 0.057726105177774774, 0.013383804244964175, 0.006894687035284575;
    ( 0, 0, 1, 1, 1 ) 0.0026760734703807324, 0.22904756112395086, 0.49312735676924946, 0.20569273810971903, 0.05254835178202165, 0.010582654178323806, 0.006325264566354458;
    ( 0, 1, 0, 0, 0 ) 0.022572891629219355, 0.3826941164175985, 0.31340787961124467, 0.16072734873027483, 0.07252586477165848, 0.029992684711046085, 0.018079214128958094;
    ( 0, 1, 0, 0, 1 ) 0.007691304914613479, 0.31417025159692347, 0.4026854386651023, 0.1827662625472559, 0.06531091122409073, 0.01564333202972233, 0.011732499022291749;
    ( 0, 1, 0, 1, 0 ) 0.018542475204829666, 0.32772746873652436, 0.35877533419577406, 0.1841310909874946, 0.07115135834411385, 0.02695127210004312, 0.012721000431220354;
    ( 0, 1, 0, 1, 1 ) 0.004135246898564826, 0.24276331792751155, 0.44271466796399905, 0.22378983215762588, 0.06056920457309657, 0.017027487229384578, 0.009000243249817562;
    ( 0, 1, 1, 0, 0 ) 0.01382667964946446, 0.2525803310613437, 0.32268743914313536, 0.22512171372930867, 0.10944498539435249, 0.05082765335929893, 0.025511197663096397;
    ( 0, 1, 1, 0, 1 ) 0.0033719704952581667, 0.18714436248682825, 0.38461538461538464, 0.25732349841938884, 0.10495258166491044, 0.040463645943097995, 0.022128556375131718;
    ( 0, 1, 1, 1, 0 ) 0.007215619694397283, 0.24476513865308433, 0.37181663837011886, 0.2212790039615167, 0.09818902093944538, 0.0365025466893039, 0.02023203169213356;
    ( 0, 1, 1, 1, 1 ) 0.0019037258634756595, 0.17718248572205603, 0.41474027740005437, 0.2642099537666576, 0.10212129453358716, 0.027332064182757684, 0.012510198531411477;
    ( 0, 2, 0, 0, 0 ) 0.04369369369369369, 0.38288288288288286, 0.2653153153153153, 0.16261261261261262, 0.07972972972972973, 0.03873873873873874, 0.02702702702702703;
    ( 0, 2, 0, 0, 1 ) 0.01829988193624557, 0.34238488783943327, 0.3476977567886659, 0.1717827626918536, 0.0690672963400236, 0.02833530106257379, 0.02243211334120425;
    ( 0, 2, 0, 1, 0 ) 0.023859649122807018, 0.3375438596491228, 0.32421052631578945, 0.17614035087719299, 0.08912280701754385, 0.02736842105263158, 0.02175438596491228;
    ( 0, 2, 0, 1, 1 ) 0.008687258687258687, 0.29343629343629346, 0.3967181467181467, 0.19787644787644787, 0.06467181467181467, 0.0222007722007722, 0.016409266409266408;
    ( 0, 2, 1, 0, 0 ) 0.0205761316872428, 0.2716049382716049, 0.2827748383303939, 0.20987654320987653, 0.11405055849500294, 0.05584950029394474, 0.04526748971193416;
    ( 0, 2, 1, 0, 1 ) 0.009598080383923215, 0.22195560887822435, 0.3473305338932214, 0.22255548890221954, 0.1289742051589682, 0.04619076184763048, 0.023395320935812838;
    ( 0, 2, 1, 1, 0 ) 0.016823687752355317, 0.24932705248990578, 0.3294078061911171, 0.218371467025572, 0.10397039030955585, 0.04946164199192463, 0.03263795423956931;
    ( 0, 2, 1, 1, 1 ) 0.005794449527294907, 0.1973162549557792, 0.37816407441293076, 0.2442817932296432, 0.11497407746264104, 0.036596523330283626, 0.022872827081427266;
    ( 1, 0, 0, 0, 0 ) 0.016648168701442843, 0.31520532741398444, 0.3551609322974473, 0.17869034406215317, 0.08990011098779134, 0.033296337402885685, 0.011098779134295227;
    ( 1, 0, 0, 0, 1 ) 0.010438413361169102, 0.33402922755741127, 0.3674321503131524, 0.19206680584551147, 0.0709812108559499, 0.014613778705636743, 0.010438413361169102;
    ( 1, 0, 0, 1, 0 ) 0.009363295880149813, 0.2696629213483146, 0.39325842696629215, 0.1891385767790262, 0.09363295880149813, 0.016853932584269662, 0.028089887640449437;
    ( 1, 0, 0, 1, 1 ) 0.014705882352941176, 0.27941176470588236, 0.4007352941176471, 0.22058823529411764, 0.058823529411764705, 0.022058823529411766, 0.003676470588235294;
    ( 1, 0, 1, 0, 0 ) 0.012162162162162163, 0.20945945945945946, 0.30405405405405406, 0.23243243243243245, 0.12432432432432433, 0.08108108108108109, 0.03648648648648649;
    ( 1, 0, 1, 0, 1 ) 0.00228310502283105, 0.1917808219178082, 0.3835616438356164, 0.22602739726027396, 0.1278538812785388, 0.0365296803652968, 0.0319634703196347;
    ( 1, 0, 1, 1, 0 ) 0.011458333333333333, 0.19375, 0.35, 0.23645833333333333, 0.11875, 0.059375, 0.030208333333333334;
    ( 1, 0, 1, 1, 1 ) 0.00322061191626409, 0.19001610305958133, 0.38164251207729466, 0.27053140096618356, 0.1111111111111111, 0.027375201288244767, 0.01610305958132045;
    ( 1, 1, 0, 0, 0 ) 0.03303964757709251, 0.28487518355359764, 0.2709251101321586, 0.18795888399412627, 0.11380323054331865, 0.049926578560939794, 0.05947136563876652;
    ( 1, 1, 0, 0, 1 ) 0.012569832402234637, 0.26955307262569833, 0.37988826815642457, 0.20670391061452514, 0.06424581005586592, 0.04329608938547486, 0.023743016759776536;
    ( 1, 1, 0, 1, 0 ) 0.003080082135523614, 0.2433264887063655, 0.2915811088295688, 0.23613963039014374, 0.1324435318275154, 0.0513347022587269, 0.04209445585215606;
    ( 1, 1, 0, 1, 1 ) 0.002178649237472767, 0.20261437908496732, 0.4335511982570806, 0.23529411764705882, 0.06971677559912855, 0.034858387799564274, 0.02178649237472767;
    ( 1, 1, 1, 0, 0 ) 0.0112079701120797, 0.18929016189290163, 0.2845579078455791, 0.22851805728518057, 0.12640099626400997, 0.07534246575342465, 0.08468244084682441;
    ( 1, 1, 1, 0, 1 ) 0.004801920768307323, 0.19327731092436976, 0.3325330132052821, 0.23529411764705882, 0.12484993997599039, 0.062424969987995196, 0.0468187274909964;
    ( 1, 1, 1, 1, 0 ) 0.008589835361488905, 0.15998568360773086, 0.29241231209735147, 0.25483178239083754, 0.15318539727988548, 0.07480314960629922, 0.05619183965640658;
    ( 1, 1, 1, 1, 1 ) 0.004519044544867657, 0.1407359586830213, 0.3660426081342802, 0.27307940606843123, 0.12846998063266624, 0.05035506778566817, 0.036797934151065206;
    ( 1, 2, 0, 0, 0 ) 0.04893722194760257, 0.3030153237765695, 0.27582797825012356, 0.166584280771132, 0.09688581314878893, 0.056846267918932276, 0.05190311418685121;
    ( 1, 2, 0, 0, 1 ) 0.025846702317290554, 0.34581105169340465, 0.3235294117647059, 0.17290552584670232, 0.07932263814616755, 0.026737967914438502, 0.025846702317290554;
    ( 1, 2, 0, 1, 0 ) 0.02892030848329049, 0.2615681233933162, 0.29048843187660667, 0.19922879177377892, 0.10796915167095116, 0.05976863753213368, 0.05205655526992288;
    ( 1, 2, 0, 1, 1 ) 0.020080321285140562, 0.25301204819277107, 0.37617135207496655, 0.21151271753681392, 0.07630522088353414, 0.03346720214190094, 0.029451137884872823;
    ( 1, 2, 1, 0, 0 ) 0.019148104728409537, 0.19577960140679954, 0.24501758499413834, 0.21453692848769051, 0.14146150840171942, 0.08167252833137945, 0.10238374364986323;
    ( 1, 2, 1, 0, 1 ) 0.014221073044602456, 0.21590174531351003, 0.28894634776987715, 0.2372333548804137, 0.10730446024563671, 0.07110536522301228, 0.06528765352294764;
    ( 1, 2, 1, 1, 0 ) 0.012184508268059183, 0.1763272410791993, 0.2673629242819843, 0.23933855526544823, 0.14569190600522194, 0.07850304612706702, 0.08059181897302002;
    ( 1, 2, 1, 1, 1 ) 0.00856590218292346, 0.1641337386018237, 0.30892511743575574, 0.25918762088974856, 0.14396242055816524, 0.06272450953302017, 0.05250069079856314;

}
probability ( Diabetes_binary | BMI ) {
    ( 0 ) 0.9470330545599362, 0.05296694544006372;
    ( 1 ) 0.9371219703233106, 0.06287802967668944;
    ( 2 ) 0.8723943353329499, 0.12760566466705014;
    ( 3 ) 0.7889067478780701, 0.2110932521219299;
    ( 4 ) 0.7160662824207493, 0.28393371757925073;
    ( 5 ) 0.6671709531013615, 0.3328290468986384;
    ( 6 ) 0.6418725617685306, 0.3581274382314694;

}
probability ( DiffWalk ) {
    table 0.8316974140649638, 0.16830258593503628 ;
}
probability ( GenHlth ) {
    table 0.5294465468306528, 0.298525701671397, 0.17202775149795016 ;
}
probability ( HighBP ) {
    table 0.5717882765689057, 0.4282117234310943 ;
}
probability ( HighChol ) {
    table 0.5763363292336803, 0.4236636707663198 ;
}
probability ( Sex ) {
    table 0.5595730842005676, 0.44042691579943233 ;
}
