network unknown {
}
variable Age {
    type discrete [ 13 ] { 0, 1, 2, 3, 4, 5, 6, 7, 8, 9, 10, 11, 12 };
}
variable AnyHealthcare {
    type discrete [ 2 ] { 0, 1 };
}
variable BMI {
    type discrete [ 5 ] { 0, 1, 2, 3, 4 };
}
variable CholCheck {
    type discrete [ 2 ] { 0, 1 };
}
variable Demographic {
    type discrete [ 2 ] { 0, 1 };
}
variable Diabetes_binary {
    type discrete [ 2 ] { 0, 1 };
}
variable Diet {
    type discrete [ 2 ] { 0, 1 };
}
variable DiffWalk {
    type discrete [ 2 ] { 0, 1 };
}
variable Education {
    type discrete [ 6 ] { 0, 1, 2, 3, 4, 5 };
}
variable Fruits {
    type discrete [ 2 ] { 0, 1 };
}
variable HealthcareAccess {
    type discrete [ 2 ] { 0, 1 };
}
variable HeartDiseaseorAttack {
    type discrete [ 2 ] { 0, 1 };
}
variable HighBP {
    type discrete [ 2 ] { 0, 1 };
}
variable HighChol {
    type discrete [ 2 ] { 0, 1 };
}
variable HvyAlcoholConsump {
    type discrete [ 2 ] { 0, 1 };
}
variable Income {
    type discrete [ 8 ] { 0, 1, 2, 3, 4, 5, 6, 7 };
}
variable NoDocbcCost {
    type discrete [ 2 ] { 0, 1 };
}
variable PhysActivity {
    type discrete [ 2 ] { 0, 1 };
}
variable PhysicalHealth {
    type discrete [ 2 ] { 0, 1 };
}
variable RiskFactor {
    type discrete [ 2 ] { 0, 1 };
}
variable Sex {
    type discrete [ 2 ] { 0, 1 };
}
variable Smoker {
    type discrete [ 2 ] { 0, 1 };
}
variable SocioeconomicStatus {
    type discrete [ 2 ] { 0, 1 };
}
variable Stroke {
    type discrete [ 2 ] { 0, 1 };
}
variable UnderlyingCondition {
    type discrete [ 2 ] { 0, 1 };
}
variable Veggies {
    type discrete [ 2 ] { 0, 1 };
}
probability ( Age ) {
    table 0.0204, 0.03025, 0.04285, 0.05495, 0.06225, 0.07915, 0.0994, 0.12475, 0.12885, 0.1273, 0.09385, 0.06625, 0.06975 ;
}
probability ( AnyHealthcare ) {
    table 0.04785, 0.95215 ;
}
probability ( BMI ) {
    table 0.01165, 0.34355, 0.3612, 0.1698, 0.1138 ;
}
probability ( CholCheck ) {
    table 0.03605, 0.96395 ;
}
probability ( Demographic | Age, Sex ) {
    ( 0, 0 ) 0.10848298995284715, 0.8915170100471529;
    ( 0, 1 ) 0.06708023367480942, 0.9329197663251906;
    ( 1, 0 ) 0.7261763533240543, 0.27382364667594566;
    ( 1, 1 ) 0.03134359760013598, 0.9686564023998641;
    ( 2, 0 ) 0.07442081787687398, 0.9255791821231261;
    ( 2, 1 ) 0.3227397993166725, 0.6772602006833275;
    ( 3, 0 ) 0.13500868064783925, 0.8649913193521608;
    ( 3, 1 ) 0.06059332270671499, 0.939406677293285;
    ( 4, 0 ) 0.10568459128107645, 0.8943154087189235;
    ( 4, 1 ) 0.35948372987071586, 0.640516270129284;
    ( 5, 0 ) 0.1889342598591131, 0.8110657401408868;
    ( 5, 1 ) 0.22376436589361062, 0.7762356341063893;
    ( 6, 0 ) 0.39567680544361583, 0.6043231945563842;
    ( 6, 1 ) 0.4713144477917373, 0.5286855522082626;
    ( 7, 0 ) 0.2505964400400402, 0.7494035599599598;
    ( 7, 1 ) 0.4794815214293481, 0.5205184785706519;
    ( 8, 0 ) 0.7086546331156258, 0.29134536688437424;
    ( 8, 1 ) 0.7781062352768181, 0.22189376472318187;
    ( 9, 0 ) 0.44647334128893634, 0.5535266587110637;
    ( 9, 1 ) 0.918456104084489, 0.08154389591551096;
    ( 10, 0 ) 0.42177084239759305, 0.5782291576024069;
    ( 10, 1 ) 0.9602693045010512, 0.039730695498948795;
    ( 11, 0 ) 0.48801122402745145, 0.5119887759725485;
    ( 11, 1 ) 0.970126301599785, 0.02987369840021512;
    ( 12, 0 ) 0.5495615597572193, 0.4504384402427806;
    ( 12, 1 ) 0.932471164197971, 0.06752883580202894;

}
probability ( Diabetes_binary | Demographic, Diet, HealthcareAccess, PhysicalHealth, RiskFactor, SocioeconomicStatus, UnderlyingCondition ) {
    ( 0, 0, 0, 0, 0, 0, 0 ) 0.8756459257609668, 0.12435407423903323;
    ( 0, 0, 0, 0, 0, 0, 1 ) 0.1289110111327354, 0.8710889888672647;
    ( 0, 0, 0, 0, 0, 1, 0 ) 0.9671466591575568, 0.03285334084244308;
    ( 0, 0, 0, 0, 0, 1, 1 ) 0.17345616844400835, 0.8265438315559918;
    ( 0, 0, 0, 0, 1, 0, 0 ) 0.047035331815367135, 0.9529646681846329;
    ( 0, 0, 0, 0, 1, 0, 1 ) 0.07157535641482675, 0.9284246435851733;
    ( 0, 0, 0, 0, 1, 1, 0 ) 0.8808563493955547, 0.11914365060444536;
    ( 0, 0, 0, 0, 1, 1, 1 ) 0.6534849565065503, 0.3465150434934498;
    ( 0, 0, 0, 1, 0, 0, 0 ) 0.9999993241964732, 6.758035268209805e-07;
    ( 0, 0, 0, 1, 0, 0, 1 ) 0.8591364404919105, 0.14086355950808954;
    ( 0, 0, 0, 1, 0, 1, 0 ) 0.9999999456521191, 5.4347880773542224e-08;
    ( 0, 0, 0, 1, 0, 1, 1 ) 0.9833373719479204, 0.016662628052079655;
    ( 0, 0, 0, 1, 1, 0, 0 ) 0.9995468260052967, 0.0004531739947033673;
    ( 0, 0, 0, 1, 1, 0, 1 ) 0.9966639561565903, 0.0033360438434096628;
    ( 0, 0, 0, 1, 1, 1, 0 ) 0.9999892041867509, 1.079581324906179e-05;
    ( 0, 0, 0, 1, 1, 1, 1 ) 0.9955006379667258, 0.00449936203327408;
    ( 0, 0, 1, 0, 0, 0, 0 ) 0.8818648529537546, 0.11813514704624538;
    ( 0, 0, 1, 0, 0, 0, 1 ) 0.7152143198012065, 0.28478568019879347;
    ( 0, 0, 1, 0, 0, 1, 0 ) 0.9970913755201257, 0.002908624479874303;
    ( 0, 0, 1, 0, 0, 1, 1 ) 0.5477217873228277, 0.4522782126771723;
    ( 0, 0, 1, 0, 1, 0, 0 ) 0.3772545556463451, 0.6227454443536549;
    ( 0, 0, 1, 0, 1, 0, 1 ) 0.522758913167843, 0.477241086832157;
    ( 0, 0, 1, 0, 1, 1, 0 ) 0.9349901156443133, 0.0650098843556867;
    ( 0, 0, 1, 0, 1, 1, 1 ) 0.07734822188101044, 0.9226517781189896;
    ( 0, 0, 1, 1, 0, 0, 0 ) 0.9999999811450229, 1.8854977096284973e-08;
    ( 0, 0, 1, 1, 0, 0, 1 ) 0.9977516005079667, 0.0022483994920331823;
    ( 0, 0, 1, 1, 0, 1, 0 ) 0.9999999638106178, 3.6189382224330684e-08;
    ( 0, 0, 1, 1, 0, 1, 1 ) 0.9996186392906292, 0.0003813607093707743;
    ( 0, 0, 1, 1, 1, 0, 0 ) 0.9999411966315117, 5.880336848824328e-05;
    ( 0, 0, 1, 1, 1, 0, 1 ) 0.9989517199609858, 0.001048280039014294;
    ( 0, 0, 1, 1, 1, 1, 0 ) 0.9999996924034183, 3.0759658156841127e-07;
    ( 0, 0, 1, 1, 1, 1, 1 ) 0.9939088567038482, 0.00609114329615186;
    ( 0, 1, 0, 0, 0, 0, 0 ) 0.37890324219030325, 0.6210967578096968;
    ( 0, 1, 0, 0, 0, 0, 1 ) 0.2207676590341798, 0.7792323409658202;
    ( 0, 1, 0, 0, 0, 1, 0 ) 0.9850524877718237, 0.014947512228176148;
    ( 0, 1, 0, 0, 0, 1, 1 ) 0.5246570059117325, 0.47534299408826747;
    ( 0, 1, 0, 0, 1, 0, 0 ) 0.030489112315890306, 0.9695108876841098;
    ( 0, 1, 0, 0, 1, 0, 1 ) 0.01656008872563065, 0.9834399112743694;
    ( 0, 1, 0, 0, 1, 1, 0 ) 0.26263148934278524, 0.7373685106572146;
    ( 0, 1, 0, 0, 1, 1, 1 ) 0.15611369016114712, 0.8438863098388528;
    ( 0, 1, 0, 1, 0, 0, 0 ) 0.9947549475458419, 0.005245052454158077;
    ( 0, 1, 0, 1, 0, 0, 1 ) 0.7865863022832628, 0.21341369771673724;
    ( 0, 1, 0, 1, 0, 1, 0 ) 0.999998261516426, 1.7384835741031371e-06;
    ( 0, 1, 0, 1, 0, 1, 1 ) 0.8589770440386644, 0.1410229559613356;
    ( 0, 1, 0, 1, 1, 0, 0 ) 0.6150856552410832, 0.3849143447589169;
    ( 0, 1, 0, 1, 1, 0, 1 ) 0.07337796812725848, 0.9266220318727416;
    ( 0, 1, 0, 1, 1, 1, 0 ) 0.9976604090828484, 0.002339590917151674;
    ( 0, 1, 0, 1, 1, 1, 1 ) 0.9924683364691442, 0.007531663530855807;
    ( 0, 1, 1, 0, 0, 0, 0 ) 0.9495384389865594, 0.05046156101344057;
    ( 0, 1, 1, 0, 0, 0, 1 ) 0.2554673176541463, 0.7445326823458537;
    ( 0, 1, 1, 0, 0, 1, 0 ) 0.9931356694879658, 0.0068643305120342285;
    ( 0, 1, 1, 0, 0, 1, 1 ) 0.3621877123221904, 0.6378122876778096;
    ( 0, 1, 1, 0, 1, 0, 0 ) 0.40344102094339374, 0.5965589790566063;
    ( 0, 1, 1, 0, 1, 0, 1 ) 0.23277381019427817, 0.7672261898057219;
    ( 0, 1, 1, 0, 1, 1, 0 ) 0.5617734024386499, 0.4382265975613502;
    ( 0, 1, 1, 0, 1, 1, 1 ) 0.07779617680734187, 0.922203823192658;
    ( 0, 1, 1, 1, 0, 0, 0 ) 0.9999896775927952, 1.032240720468712e-05;
    ( 0, 1, 1, 1, 0, 0, 1 ) 0.9819734880705282, 0.01802651192947179;
    ( 0, 1, 1, 1, 0, 1, 0 ) 0.9999991086821806, 8.913178194422091e-07;
    ( 0, 1, 1, 1, 0, 1, 1 ) 0.9902924360453363, 0.009707563954663592;
    ( 0, 1, 1, 1, 1, 0, 0 ) 0.9929239249214162, 0.00707607507858372;
    ( 0, 1, 1, 1, 1, 0, 1 ) 0.9339545459315608, 0.06604545406843922;
    ( 0, 1, 1, 1, 1, 1, 0 ) 0.9995311858479848, 0.0004688141520152026;
    ( 0, 1, 1, 1, 1, 1, 1 ) 0.9994765544373043, 0.0005234455626957208;
    ( 1, 0, 0, 0, 0, 0, 0 ) 0.9823406497693357, 0.017659350230664395;
    ( 1, 0, 0, 0, 0, 0, 1 ) 0.6357062969303424, 0.36429370306965764;
    ( 1, 0, 0, 0, 0, 1, 0 ) 0.9999846385297914, 1.5361470208714908e-05;
    ( 1, 0, 0, 0, 0, 1, 1 ) 0.6885082623011107, 0.3114917376988893;
    ( 1, 0, 0, 0, 1, 0, 0 ) 0.22200413288744392, 0.7779958671125561;
    ( 1, 0, 0, 0, 1, 0, 1 ) 0.07876256170684394, 0.9212374382931561;
    ( 1, 0, 0, 0, 1, 1, 0 ) 0.8786483198037253, 0.1213516801962747;
    ( 1, 0, 0, 0, 1, 1, 1 ) 0.07098039237383229, 0.9290196076261678;
    ( 1, 0, 0, 1, 0, 0, 0 ) 0.9999999999262928, 7.370724944666373e-11;
    ( 1, 0, 0, 1, 0, 0, 1 ) 0.9999301348360597, 6.986516394016777e-05;
    ( 1, 0, 0, 1, 0, 1, 0 ) 0.9999999999311945, 6.880552559893452e-11;
    ( 1, 0, 0, 1, 0, 1, 1 ) 0.9998339167825184, 0.0001660832174814932;
    ( 1, 0, 0, 1, 1, 0, 0 ) 0.9999991382910816, 8.617089185137145e-07;
    ( 1, 0, 0, 1, 1, 0, 1 ) 0.9713253038147022, 0.028674696185297874;
    ( 1, 0, 0, 1, 1, 1, 0 ) 0.9999999974094843, 2.590515787215557e-09;
    ( 1, 0, 0, 1, 1, 1, 1 ) 0.9346652870981761, 0.06533471290182394;
    ( 1, 0, 1, 0, 0, 0, 0 ) 0.9969669683618585, 0.0030330316381413907;
    ( 1, 0, 1, 0, 0, 0, 1 ) 0.8868740575906708, 0.11312594240932915;
    ( 1, 0, 1, 0, 0, 1, 0 ) 0.9999984205269926, 1.5794730073344644e-06;
    ( 1, 0, 1, 0, 0, 1, 1 ) 0.6772282846788716, 0.32277171532112836;
    ( 1, 0, 1, 0, 1, 0, 0 ) 0.917509871318714, 0.08249012868128608;
    ( 1, 0, 1, 0, 1, 0, 1 ) 0.14165973983144134, 0.8583402601685587;
    ( 1, 0, 1, 0, 1, 1, 0 ) 0.9056625444682633, 0.0943374555317367;
    ( 1, 0, 1, 0, 1, 1, 1 ) 0.43919351631722964, 0.5608064836827703;
    ( 1, 0, 1, 1, 0, 0, 0 ) 0.9999999999335031, 6.649692323218208e-11;
    ( 1, 0, 1, 1, 0, 0, 1 ) 0.9999972080519086, 2.7919480914456833e-06;
    ( 1, 0, 1, 1, 0, 1, 0 ) 0.9999999999370186, 6.298139279492314e-11;
    ( 1, 0, 1, 1, 0, 1, 1 ) 0.999994978586017, 5.021413982937844e-06;
    ( 1, 0, 1, 1, 1, 0, 0 ) 0.9999999898263278, 1.0173672178896777e-08;
    ( 1, 0, 1, 1, 1, 0, 1 ) 0.9951174578963773, 0.004882542103622751;
    ( 1, 0, 1, 1, 1, 1, 0 ) 0.9999999998682493, 1.3175071686777286e-10;
    ( 1, 0, 1, 1, 1, 1, 1 ) 0.9638940939830595, 0.03610590601694047;
    ( 1, 1, 0, 0, 0, 0, 0 ) 0.9560202433166228, 0.0439797566833773;
    ( 1, 1, 0, 0, 0, 0, 1 ) 0.6474649798890414, 0.3525350201109585;
    ( 1, 1, 0, 0, 0, 1, 0 ) 0.9999879790312409, 1.2020968759043312e-05;
    ( 1, 1, 0, 0, 0, 1, 1 ) 0.6601962828308446, 0.33980371716915536;
    ( 1, 1, 0, 0, 1, 0, 0 ) 0.667765552202833, 0.33223444779716704;
    ( 1, 1, 0, 0, 1, 0, 1 ) 0.5075122452695624, 0.49248775473043765;
    ( 1, 1, 0, 0, 1, 1, 0 ) 0.9885286665298619, 0.011471333470138078;
    ( 1, 1, 0, 0, 1, 1, 1 ) 0.2057329962104015, 0.7942670037895985;
    ( 1, 1, 0, 1, 0, 0, 0 ) 0.9999999623396694, 3.7660330585454436e-08;
    ( 1, 1, 0, 1, 0, 0, 1 ) 0.9942305969294442, 0.00576940307055584;
    ( 1, 1, 0, 1, 0, 1, 0 ) 0.9999999987599375, 1.240062569022283e-09;
    ( 1, 1, 0, 1, 0, 1, 1 ) 0.9916230065471171, 0.008376993452882951;
    ( 1, 1, 0, 1, 1, 0, 0 ) 0.9999740593595832, 2.5940640416860136e-05;
    ( 1, 1, 0, 1, 1, 0, 1 ) 0.3998659923220487, 0.6001340076779513;
    ( 1, 1, 0, 1, 1, 1, 0 ) 0.9999999884504802, 1.1549519712412796e-08;
    ( 1, 1, 0, 1, 1, 1, 1 ) 0.6576597737223764, 0.3423402262776237;
    ( 1, 1, 1, 0, 0, 0, 0 ) 0.9989678141066578, 0.0010321858933421703;
    ( 1, 1, 1, 0, 0, 0, 1 ) 0.27222807160945817, 0.7277719283905418;
    ( 1, 1, 1, 0, 0, 1, 0 ) 0.9999317475749825, 6.825242501739806e-05;
    ( 1, 1, 1, 0, 0, 1, 1 ) 0.9386530668397726, 0.06134693316022746;
    ( 1, 1, 1, 0, 1, 0, 0 ) 0.9038997386838428, 0.0961002613161572;
    ( 1, 1, 1, 0, 1, 0, 1 ) 0.598011465179772, 0.40198853482022795;
    ( 1, 1, 1, 0, 1, 1, 0 ) 0.9932373087742541, 0.006762691225746002;
    ( 1, 1, 1, 0, 1, 1, 1 ) 0.13680461426460808, 0.863195385735392;
    ( 1, 1, 1, 1, 0, 0, 0 ) 0.9999999991535647, 8.464353272113794e-10;
    ( 1, 1, 1, 1, 0, 0, 1 ) 0.9926869793811494, 0.0073130206188506235;
    ( 1, 1, 1, 1, 0, 1, 0 ) 0.9999999999233942, 7.660591402990006e-11;
    ( 1, 1, 1, 1, 0, 1, 1 ) 0.9999162124742553, 8.378752574462354e-05;
    ( 1, 1, 1, 1, 1, 0, 0 ) 0.9999970752152321, 2.9247847679400205e-06;
    ( 1, 1, 1, 1, 1, 0, 1 ) 0.7573577125442497, 0.24264228745575042;
    ( 1, 1, 1, 1, 1, 1, 0 ) 0.99999997384703, 2.615297000400439e-08;
    ( 1, 1, 1, 1, 1, 1, 1 ) 0.8366359466810166, 0.16336405331898338;

}
probability ( Diet | Fruits, Veggies ) {
    ( 0, 0 ) 0.09082592433028482, 0.9091740756697153;
    ( 0, 1 ) 0.0667582496377008, 0.9332417503622993;
    ( 1, 0 ) 0.2054151464580479, 0.7945848535419521;
    ( 1, 1 ) 0.30746710264351884, 0.6925328973564812;

}
probability ( DiffWalk ) {
    table 0.83115, 0.16885 ;
}
probability ( Education ) {
    table 0.0009, 0.0153, 0.0366, 0.24955, 0.2723, 0.42535 ;
}
probability ( Fruits ) {
    table 0.35935, 0.64065 ;
}
probability ( HealthcareAccess | AnyHealthcare, CholCheck, NoDocbcCost ) {
    ( 0, 0, 0 ) 0.012967244258513177, 0.9870327557414869;
    ( 0, 0, 1 ) 0.2620620718415501, 0.7379379281584498;
    ( 0, 1, 0 ) 0.35765279947881307, 0.6423472005211869;
    ( 0, 1, 1 ) 0.28656592228405514, 0.7134340777159449;
    ( 1, 0, 0 ) 0.12503515307043228, 0.8749648469295678;
    ( 1, 0, 1 ) 0.18672494902389403, 0.813275050976106;
    ( 1, 1, 0 ) 0.48882958967388507, 0.5111704103261149;
    ( 1, 1, 1 ) 0.8300354469780734, 0.1699645530219266;

}
probability ( HeartDiseaseorAttack ) {
    table 0.90575, 0.09425 ;
}
probability ( HighBP ) {
    table 0.57375, 0.42625 ;
}
probability ( HighChol ) {
    table 0.572, 0.428 ;
}
probability ( HvyAlcoholConsump ) {
    table 0.9443, 0.0557 ;
}
probability ( Income ) {
    table 0.0382, 0.0449, 0.06415, 0.08205, 0.10155, 0.1421, 0.16885, 0.3582 ;
}
probability ( NoDocbcCost ) {
    table 0.9194, 0.0806 ;
}
probability ( PhysActivity ) {
    table 0.2384, 0.7616 ;
}
probability ( PhysicalHealth | BMI, DiffWalk, PhysActivity ) {
    ( 0, 0, 0 ) 0.12906084820936195, 0.8709391517906381;
    ( 0, 0, 1 ) 0.05813681332464484, 0.9418631866753552;
    ( 0, 1, 0 ) 0.07334980260763947, 0.9266501973923605;
    ( 0, 1, 1 ) 0.5141377660062441, 0.4858622339937559;
    ( 1, 0, 0 ) 0.18792325070010318, 0.8120767492998968;
    ( 1, 0, 1 ) 0.09254244634691587, 0.907457553653084;
    ( 1, 1, 0 ) 0.3189316081617951, 0.6810683918382049;
    ( 1, 1, 1 ) 0.31097882736185883, 0.6890211726381411;
    ( 2, 0, 0 ) 0.3557958972851893, 0.6442041027148108;
    ( 2, 0, 1 ) 0.28504679150852746, 0.7149532084914726;
    ( 2, 1, 0 ) 0.5047358019901934, 0.49526419800980653;
    ( 2, 1, 1 ) 0.45582334065722707, 0.5441766593427729;
    ( 3, 0, 0 ) 0.49868625481217954, 0.5013137451878205;
    ( 3, 0, 1 ) 0.4619576050921021, 0.538042394907898;
    ( 3, 1, 0 ) 0.8994183115030127, 0.10058168849698733;
    ( 3, 1, 1 ) 0.7092250803376192, 0.29077491966238084;
    ( 4, 0, 0 ) 0.8284936481654303, 0.17150635183456975;
    ( 4, 0, 1 ) 0.7680338437963835, 0.23196615620361655;
    ( 4, 1, 0 ) 0.9999328694308678, 6.713056913226133e-05;
    ( 4, 1, 1 ) 0.9941299791019752, 0.005870020898024746;

}
probability ( RiskFactor | HeartDiseaseorAttack, HvyAlcoholConsump, Smoker, Stroke ) {
    ( 0, 0, 0, 0 ) 0.8642907826689558, 0.13570921733104424;
    ( 0, 0, 0, 1 ) 0.3076536574875345, 0.6923463425124655;
    ( 0, 0, 1, 0 ) 0.7352922224462868, 0.2647077775537133;
    ( 0, 0, 1, 1 ) 0.4129621369876407, 0.5870378630123592;
    ( 0, 1, 0, 0 ) 0.9999305313504644, 6.946864953566895e-05;
    ( 0, 1, 0, 1 ) 0.4626929492883381, 0.537307050711662;
    ( 0, 1, 1, 0 ) 0.9970954719150453, 0.0029045280849547724;
    ( 0, 1, 1, 1 ) 0.8783842846752777, 0.12161571532472228;
    ( 1, 0, 0, 0 ) 0.19447850979433928, 0.8055214902056608;
    ( 1, 0, 0, 1 ) 0.0013207920733593187, 0.9986792079266407;
    ( 1, 0, 1, 0 ) 0.2876386132649611, 0.7123613867350389;
    ( 1, 0, 1, 1 ) 0.02678637807177432, 0.9732136219282257;
    ( 1, 1, 0, 0 ) 0.2384867671711491, 0.7615132328288509;
    ( 1, 1, 0, 1 ) 0.5740930439862966, 0.4259069560137034;
    ( 1, 1, 1, 0 ) 0.5522215942254216, 0.4477784057745784;
    ( 1, 1, 1, 1 ) 0.0013521354787984195, 0.9986478645212016;

}
probability ( Sex ) {
    table 0.5589, 0.4411 ;
}
probability ( Smoker ) {
    table 0.54975, 0.45025 ;
}
probability ( SocioeconomicStatus | Education, Income ) {
    ( 0, 0 ) 0.30753923911428394, 0.6924607608857162;
    ( 0, 1 ) 3.922343415441225e-05, 0.9999607765658456;
    ( 0, 2 ) 0.9997820353173852, 0.0002179646826147971;
    ( 0, 3 ) 0.5, 0.5;
    ( 0, 4 ) 0.7920542454054452, 0.20794575459455478;
    ( 0, 5 ) 0.14727786417265834, 0.8527221358273417;
    ( 0, 6 ) 0.5, 0.5;
    ( 0, 7 ) 0.846213162616342, 0.15378683738365806;
    ( 1, 0 ) 0.9627015547675966, 0.037298445232403374;
    ( 1, 1 ) 0.9895775363199656, 0.010422463680034372;
    ( 1, 2 ) 0.9471601797449096, 0.052839820255090354;
    ( 1, 3 ) 0.5926092868945048, 0.4073907131054952;
    ( 1, 4 ) 0.6645216105638454, 0.33547838943615466;
    ( 1, 5 ) 0.5640841189127697, 0.4359158810872304;
    ( 1, 6 ) 0.9841976440868403, 0.015802355913159725;
    ( 1, 7 ) 0.9816881077921605, 0.018311892207839468;
    ( 2, 0 ) 0.8511272474690836, 0.1488727525309163;
    ( 2, 1 ) 0.7665859645295127, 0.23341403547048736;
    ( 2, 2 ) 0.27205191800959705, 0.727948081990403;
    ( 2, 3 ) 0.8788983607034101, 0.12110163929658985;
    ( 2, 4 ) 0.47344262122978, 0.52655737877022;
    ( 2, 5 ) 0.9914724542807748, 0.008527545719225217;
    ( 2, 6 ) 0.26434341329597016, 0.7356565867040298;
    ( 2, 7 ) 0.44128768920346334, 0.5587123107965366;
    ( 3, 0 ) 0.7304460910493201, 0.2695539089506799;
    ( 3, 1 ) 0.8312649629450313, 0.16873503705496878;
    ( 3, 2 ) 0.43323785524731506, 0.5667621447526849;
    ( 3, 3 ) 0.5492034902299482, 0.45079650977005176;
    ( 3, 4 ) 0.5893089407563658, 0.4106910592436343;
    ( 3, 5 ) 0.7453225727823456, 0.25467742721765446;
    ( 3, 6 ) 0.2772095856528873, 0.7227904143471128;
    ( 3, 7 ) 0.21519797204139376, 0.7848020279586062;
    ( 4, 0 ) 0.9683199122652011, 0.03168008773479896;
    ( 4, 1 ) 0.873864548589504, 0.12613545141049598;
    ( 4, 2 ) 0.7532091764137244, 0.24679082358627558;
    ( 4, 3 ) 0.5638446427984639, 0.43615535720153614;
    ( 4, 4 ) 0.4470255877694738, 0.5529744122305262;
    ( 4, 5 ) 0.7754457469070851, 0.22455425309291493;
    ( 4, 6 ) 0.30187867436724286, 0.6981213256327571;
    ( 4, 7 ) 0.4761624855559255, 0.5238375144440746;
    ( 5, 0 ) 0.6810602920527774, 0.31893970794722254;
    ( 5, 1 ) 0.6811420212992317, 0.3188579787007683;
    ( 5, 2 ) 0.8979556601187473, 0.10204433988125282;
    ( 5, 3 ) 0.7601977834034028, 0.23980221659659723;
    ( 5, 4 ) 0.38046389852989176, 0.6195361014701082;
    ( 5, 5 ) 0.45947577865656347, 0.5405242213434366;
    ( 5, 6 ) 0.7760484318569956, 0.2239515681430045;
    ( 5, 7 ) 0.3247565585923072, 0.6752434414076928;

}
probability ( Stroke ) {
    table 0.9605, 0.0395 ;
}
probability ( UnderlyingCondition | HighBP, HighChol ) {
    ( 0, 0 ) 0.9756527181225423, 0.024347281877457737;
    ( 0, 1 ) 0.7534443786685069, 0.2465556213314931;
    ( 1, 0 ) 0.6263471329895379, 0.3736528670104621;
    ( 1, 1 ) 0.18840662960176047, 0.8115933703982396;

}
probability ( Veggies ) {
    table 0.1869, 0.8131 ;
}
