network unknown {
}
variable Age {
    type discrete [ 13 ] { 0, 1, 2, 3, 4, 5, 6, 7, 8, 9, 10, 11, 12 };
}
variable AnyHealthcare {
    type discrete [ 2 ] { 0, 1 };
}
variable BMI {
    type discrete [ 5 ] { 0, 1, 2, 3, 4 };
}
variable CholCheck {
    type discrete [ 2 ] { 0, 1 };
}
variable Diabetes_binary {
    type discrete [ 2 ] { 0, 1 };
}
variable Diet {
    type discrete [ 2 ] { 0, 1 };
}
variable DiffWalk {
    type discrete [ 2 ] { 0, 1 };
}
variable Education {
    type discrete [ 6 ] { 0, 1, 2, 3, 4, 5 };
}
variable Fruits {
    type discrete [ 2 ] { 0, 1 };
}
variable HealthcareAccess {
    type discrete [ 2 ] { 0, 1 };
}
variable HeartDiseaseorAttack {
    type discrete [ 2 ] { 0, 1 };
}
variable HighBP {
    type discrete [ 2 ] { 0, 1 };
}
variable HighChol {
    type discrete [ 2 ] { 0, 1 };
}
variable HvyAlcoholConsump {
    type discrete [ 2 ] { 0, 1 };
}
variable Income {
    type discrete [ 8 ] { 0, 1, 2, 3, 4, 5, 6, 7 };
}
variable NoDocbcCost {
    type discrete [ 2 ] { 0, 1 };
}
variable PhysActivity {
    type discrete [ 2 ] { 0, 1 };
}
variable PhysicalHealth {
    type discrete [ 2 ] { 0, 1 };
}
variable Sex {
    type discrete [ 2 ] { 0, 1 };
}
variable Smoker {
    type discrete [ 2 ] { 0, 1 };
}
variable SocioeconomicStatus {
    type discrete [ 2 ] { 0, 1 };
}
variable Stroke {
    type discrete [ 2 ] { 0, 1 };
}
variable Veggies {
    type discrete [ 2 ] { 0, 1 };
}
probability ( Age ) {
    table 0.0228, 0.03, 0.0441, 0.05215, 0.06385, 0.07835, 0.10585, 0.1213, 0.13265, 0.12605, 0.0925, 0.06085, 0.06955 ;
}
probability ( AnyHealthcare ) {
    table 0.05005, 0.94995 ;
}
probability ( BMI ) {
    table 0.0121, 0.3399, 0.3602, 0.17545, 0.11235 ;
}
probability ( CholCheck ) {
    table 0.0368, 0.9632 ;
}
probability ( Diabetes_binary | Diet, HealthcareAccess, PhysicalHealth, SocioeconomicStatus ) {
    ( 0, 0, 0, 0 ) 0.9897624350410662, 0.010237564958933841;
    ( 0, 0, 0, 1 ) 0.9959489814903085, 0.004051018509691401;
    ( 0, 0, 1, 0 ) 0.33655082778045303, 0.663449172219547;
    ( 0, 0, 1, 1 ) 0.28019609897262954, 0.7198039010273705;
    ( 0, 1, 0, 0 ) 0.9999999999313549, 6.864503728030093e-11;
    ( 0, 1, 0, 1 ) 0.9099108612982906, 0.09008913870170945;
    ( 0, 1, 1, 0 ) 0.9999386840467254, 6.131595327456296e-05;
    ( 0, 1, 1, 1 ) 0.0001294410432428408, 0.999870558956757;
    ( 1, 0, 0, 0 ) 0.9999999943549802, 5.645019823373168e-09;
    ( 1, 0, 0, 1 ) 0.999983012882501, 1.6987117498938095e-05;
    ( 1, 0, 1, 0 ) 0.5028797349501295, 0.4971202650498706;
    ( 1, 0, 1, 1 ) 0.9938145101492598, 0.006185489850740189;
    ( 1, 1, 0, 0 ) 0.9999999999372102, 6.278979091521639e-11;
    ( 1, 1, 0, 1 ) 0.9999917403685186, 8.259631481441473e-06;
    ( 1, 1, 1, 0 ) 0.9999823566292037, 1.7643370796354454e-05;
    ( 1, 1, 1, 1 ) 0.20731967451226666, 0.7926803254877334;

}
probability ( Diet | Fruits, HvyAlcoholConsump, Smoker, Veggies ) {
    ( 0, 0, 0, 0 ) 0.8187090927740128, 0.18129090722598717;
    ( 0, 0, 0, 1 ) 0.8253975302060311, 0.17460246979396887;
    ( 0, 0, 1, 0 ) 0.8534469460035176, 0.14655305399648244;
    ( 0, 0, 1, 1 ) 0.6994285370185143, 0.30057146298148574;
    ( 0, 1, 0, 0 ) 0.00011471430749949687, 0.9998852856925005;
    ( 0, 1, 0, 1 ) 0.008144168504962626, 0.9918558314950373;
    ( 0, 1, 1, 0 ) 0.12490281640085278, 0.8750971835991472;
    ( 0, 1, 1, 1 ) 0.16670502670328655, 0.8332949732967134;
    ( 1, 0, 0, 0 ) 0.797228659892262, 0.20277134010773804;
    ( 1, 0, 0, 1 ) 0.4652247356607272, 0.5347752643392728;
    ( 1, 0, 1, 0 ) 0.8067102525877938, 0.19328974741220614;
    ( 1, 0, 1, 1 ) 0.618804459171116, 0.3811955408288839;
    ( 1, 1, 0, 0 ) 0.39634903735694416, 0.6036509626430558;
    ( 1, 1, 0, 1 ) 0.017706140097615748, 0.9822938599023842;
    ( 1, 1, 1, 0 ) 0.029526727499379846, 0.9704732725006201;
    ( 1, 1, 1, 1 ) 0.00746744919556303, 0.992532550804437;

}
probability ( DiffWalk ) {
    table 0.8329, 0.1671 ;
}
probability ( Education ) {
    table 0.00075, 0.01415, 0.03745, 0.24825, 0.2806, 0.4188 ;
}
probability ( Fruits ) {
    table 0.3663, 0.6337 ;
}
probability ( HealthcareAccess | AnyHealthcare, CholCheck, NoDocbcCost ) {
    ( 0, 0, 0 ) 0.41671362838976245, 0.5832863716102376;
    ( 0, 0, 1 ) 0.04162399838014034, 0.9583760016198596;
    ( 0, 1, 0 ) 0.03069005828737931, 0.9693099417126207;
    ( 0, 1, 1 ) 0.8480456503727973, 0.15195434962720256;
    ( 1, 0, 0 ) 0.034515553946468394, 0.9654844460535316;
    ( 1, 0, 1 ) 0.3985793455022674, 0.6014206544977326;
    ( 1, 1, 0 ) 0.07908103731694208, 0.920918962683058;
    ( 1, 1, 1 ) 0.9795210595617142, 0.020478940438285822;

}
probability ( HeartDiseaseorAttack ) {
    table 0.9082, 0.0918 ;
}
probability ( HighBP ) {
    table 0.5739, 0.4261 ;
}
probability ( HighChol ) {
    table 0.5792, 0.4208 ;
}
probability ( HvyAlcoholConsump ) {
    table 0.9424, 0.0576 ;
}
probability ( Income ) {
    table 0.03875, 0.04685, 0.0642, 0.079, 0.1044, 0.1442, 0.168, 0.3546 ;
}
probability ( NoDocbcCost ) {
    table 0.91625, 0.08375 ;
}
probability ( PhysActivity ) {
    table 0.2449, 0.7551 ;
}
probability ( PhysicalHealth | BMI, DiffWalk, HeartDiseaseorAttack, HighBP, HighChol, PhysActivity, Stroke ) {
    ( 0, 0, 0, 0, 0, 0, 0 ) 0.8904345036104057, 0.10956549638959431;
    ( 0, 0, 0, 0, 0, 0, 1 ) 0.5, 0.5;
    ( 0, 0, 0, 0, 0, 1, 0 ) 0.975270477303791, 0.02472952269620908;
    ( 0, 0, 0, 0, 0, 1, 1 ) 0.9999999999330348, 6.696530922254947e-11;
    ( 0, 0, 0, 0, 1, 0, 0 ) 0.9999999999482299, 5.1770100269231876e-11;
    ( 0, 0, 0, 0, 1, 0, 1 ) 0.5, 0.5;
    ( 0, 0, 0, 0, 1, 1, 0 ) 0.9999999999363541, 6.36459072754571e-11;
    ( 0, 0, 0, 0, 1, 1, 1 ) 0.9999999999434094, 5.6590667887230964e-11;
    ( 0, 0, 0, 1, 0, 0, 0 ) 0.30080815640190317, 0.6991918435980968;
    ( 0, 0, 0, 1, 0, 0, 1 ) 0.5, 0.5;
    ( 0, 0, 0, 1, 0, 1, 0 ) 0.9135200222819925, 0.08647997771800758;
    ( 0, 0, 0, 1, 0, 1, 1 ) 0.5, 0.5;
    ( 0, 0, 0, 1, 1, 0, 0 ) 0.9999999999293417, 7.06583078056545e-11;
    ( 0, 0, 0, 1, 1, 0, 1 ) 0.5, 0.5;
    ( 0, 0, 0, 1, 1, 1, 0 ) 0.9999999999447812, 5.5218697225912636e-11;
    ( 0, 0, 0, 1, 1, 1, 1 ) 0.9999999999313657, 6.86343218110696e-11;
    ( 0, 0, 1, 0, 0, 0, 0 ) 0.9999999999419876, 5.8012367852684786e-11;
    ( 0, 0, 1, 0, 0, 0, 1 ) 0.999999999958129, 4.187089801011005e-11;
    ( 0, 0, 1, 0, 0, 1, 0 ) 0.9999999999527602, 4.7239709973521364e-11;
    ( 0, 0, 1, 0, 0, 1, 1 ) 0.5, 0.5;
    ( 0, 0, 1, 0, 1, 0, 0 ) 0.5, 0.5;
    ( 0, 0, 1, 0, 1, 0, 1 ) 0.5, 0.5;
    ( 0, 0, 1, 0, 1, 1, 0 ) 0.5, 0.5;
    ( 0, 0, 1, 0, 1, 1, 1 ) 0.5, 0.5;
    ( 0, 0, 1, 1, 0, 0, 0 ) 0.5, 0.5;
    ( 0, 0, 1, 1, 0, 0, 1 ) 0.5, 0.5;
    ( 0, 0, 1, 1, 0, 1, 0 ) 0.5, 0.5;
    ( 0, 0, 1, 1, 0, 1, 1 ) 0.9999999999444558, 5.5544229540553265e-11;
    ( 0, 0, 1, 1, 1, 0, 0 ) 0.9999999999422617, 5.773830000709037e-11;
    ( 0, 0, 1, 1, 1, 0, 1 ) 0.5, 0.5;
    ( 0, 0, 1, 1, 1, 1, 0 ) 0.999999999955868, 4.413201056260424e-11;
    ( 0, 0, 1, 1, 1, 1, 1 ) 0.5, 0.5;
    ( 0, 1, 0, 0, 0, 0, 0 ) 0.7395200258156872, 0.26047997418431273;
    ( 0, 1, 0, 0, 0, 0, 1 ) 0.5, 0.5;
    ( 0, 1, 0, 0, 0, 1, 0 ) 0.999999999929673, 7.032694424551798e-11;
    ( 0, 1, 0, 0, 0, 1, 1 ) 0.5, 0.5;
    ( 0, 1, 0, 0, 1, 0, 0 ) 0.999999999941355, 5.864499191031748e-11;
    ( 0, 1, 0, 0, 1, 0, 1 ) 0.5, 0.5;
    ( 0, 1, 0, 0, 1, 1, 0 ) 0.9999999999580156, 4.198441120695118e-11;
    ( 0, 1, 0, 0, 1, 1, 1 ) 0.5, 0.5;
    ( 0, 1, 0, 1, 0, 0, 0 ) 8.836132185502758e-13, 0.9999999999991164;
    ( 0, 1, 0, 1, 0, 0, 1 ) 0.9999999999608528, 3.9147289931496e-11;
    ( 0, 1, 0, 1, 0, 1, 0 ) 0.9999999999480077, 5.1992300696251547e-11;
    ( 0, 1, 0, 1, 0, 1, 1 ) 0.5, 0.5;
    ( 0, 1, 0, 1, 1, 0, 0 ) 0.420058138466993, 0.5799418615330071;
    ( 0, 1, 0, 1, 1, 0, 1 ) 0.9999999999519663, 4.8033769137326185e-11;
    ( 0, 1, 0, 1, 1, 1, 0 ) 0.9999999999526645, 4.73355565366447e-11;
    ( 0, 1, 0, 1, 1, 1, 1 ) 0.5, 0.5;
    ( 0, 1, 1, 0, 0, 0, 0 ) 0.5, 0.5;
    ( 0, 1, 1, 0, 0, 0, 1 ) 0.5, 0.5;
    ( 0, 1, 1, 0, 0, 1, 0 ) 0.5, 0.5;
    ( 0, 1, 1, 0, 0, 1, 1 ) 0.5, 0.5;
    ( 0, 1, 1, 0, 1, 0, 0 ) 0.9999999999517466, 4.8253375521789186e-11;
    ( 0, 1, 1, 0, 1, 0, 1 ) 0.9999999999703285, 2.967149686390237e-11;
    ( 0, 1, 1, 0, 1, 1, 0 ) 0.9999999999643858, 3.56142216260795e-11;
    ( 0, 1, 1, 0, 1, 1, 1 ) 0.5, 0.5;
    ( 0, 1, 1, 1, 0, 0, 0 ) 0.5, 0.5;
    ( 0, 1, 1, 1, 0, 0, 1 ) 0.5, 0.5;
    ( 0, 1, 1, 1, 0, 1, 0 ) 0.25172734694863635, 0.7482726530513636;
    ( 0, 1, 1, 1, 0, 1, 1 ) 0.5, 0.5;
    ( 0, 1, 1, 1, 1, 0, 0 ) 0.9999997293505798, 2.7064942020733886e-07;
    ( 0, 1, 1, 1, 1, 0, 1 ) 0.9999999981133479, 1.8866520683867375e-09;
    ( 0, 1, 1, 1, 1, 1, 0 ) 0.26725541190707686, 0.7327445880929231;
    ( 0, 1, 1, 1, 1, 1, 1 ) 0.5, 0.5;
    ( 1, 0, 0, 0, 0, 0, 0 ) 0.9871031606497922, 0.0128968393502078;
    ( 1, 0, 0, 0, 0, 0, 1 ) 0.9999999999441065, 5.589358111037688e-11;
    ( 1, 0, 0, 0, 0, 1, 0 ) 0.9981725523633566, 0.001827447636643421;
    ( 1, 0, 0, 0, 0, 1, 1 ) 0.6657790963413162, 0.3342209036586839;
    ( 1, 0, 0, 0, 1, 0, 0 ) 0.8414612923439254, 0.15853870765607456;
    ( 1, 0, 0, 0, 1, 0, 1 ) 0.35481074427963794, 0.645189255720362;
    ( 1, 0, 0, 0, 1, 1, 0 ) 0.9132503426511167, 0.08674965734888335;
    ( 1, 0, 0, 0, 1, 1, 1 ) 0.9999999999464432, 5.35567717497806e-11;
    ( 1, 0, 0, 1, 0, 0, 0 ) 0.8328296458816564, 0.16717035411834347;
    ( 1, 0, 0, 1, 0, 0, 1 ) 0.6471437180913603, 0.35285628190863966;
    ( 1, 0, 0, 1, 0, 1, 0 ) 0.8702482677323151, 0.12975173226768488;
    ( 1, 0, 0, 1, 0, 1, 1 ) 0.9393579627994683, 0.06064203720053176;
    ( 1, 0, 0, 1, 1, 0, 0 ) 0.6530259041904912, 0.34697409580950883;
    ( 1, 0, 0, 1, 1, 0, 1 ) 0.42442899681694496, 0.5755710031830551;
    ( 1, 0, 0, 1, 1, 1, 0 ) 0.7435546500270928, 0.25644534997290724;
    ( 1, 0, 0, 1, 1, 1, 1 ) 0.6034029180083473, 0.39659708199165267;
    ( 1, 0, 1, 0, 0, 0, 0 ) 0.8808344556107858, 0.11916554438921426;
    ( 1, 0, 1, 0, 0, 0, 1 ) 0.9999999999772612, 2.273874555078173e-11;
    ( 1, 0, 1, 0, 0, 1, 0 ) 0.7878514333613069, 0.2121485666386931;
    ( 1, 0, 1, 0, 0, 1, 1 ) 0.9999999999545134, 4.548654662172645e-11;
    ( 1, 0, 1, 0, 1, 0, 0 ) 0.351959791952488, 0.6480402080475121;
    ( 1, 0, 1, 0, 1, 0, 1 ) 0.5, 0.5;
    ( 1, 0, 1, 0, 1, 1, 0 ) 0.9156401612752475, 0.08435983872475263;
    ( 1, 0, 1, 0, 1, 1, 1 ) 0.7460622201975442, 0.25393777980245574;
    ( 1, 0, 1, 1, 0, 0, 0 ) 0.7788364222772549, 0.22116357772274514;
    ( 1, 0, 1, 1, 0, 0, 1 ) 0.9999999999593163, 4.068377051715223e-11;
    ( 1, 0, 1, 1, 0, 1, 0 ) 0.5046943018140331, 0.4953056981859669;
    ( 1, 0, 1, 1, 0, 1, 1 ) 0.24147225983350096, 0.758527740166499;
    ( 1, 0, 1, 1, 1, 0, 0 ) 0.22232890193576388, 0.7776710980642362;
    ( 1, 0, 1, 1, 1, 0, 1 ) 0.257598985538256, 0.742401014461744;
    ( 1, 0, 1, 1, 1, 1, 0 ) 0.8497713693369059, 0.15022863066309408;
    ( 1, 0, 1, 1, 1, 1, 1 ) 0.562187125059978, 0.4378128749400219;
    ( 1, 1, 0, 0, 0, 0, 0 ) 0.9050527197549839, 0.094947280245016;
    ( 1, 1, 0, 0, 0, 0, 1 ) 0.9999999999260082, 7.399183896125395e-11;
    ( 1, 1, 0, 0, 0, 1, 0 ) 0.8530446376396079, 0.14695536236039197;
    ( 1, 1, 0, 0, 0, 1, 1 ) 0.9999999999526711, 4.7328939302214496e-11;
    ( 1, 1, 0, 0, 1, 0, 0 ) 0.8495039021000332, 0.1504960978999667;
    ( 1, 1, 0, 0, 1, 0, 1 ) 0.9999999999604228, 3.957717145567627e-11;
    ( 1, 1, 0, 0, 1, 1, 0 ) 0.8157601204858983, 0.1842398795141018;
    ( 1, 1, 0, 0, 1, 1, 1 ) 0.7196922904927698, 0.2803077095072302;
    ( 1, 1, 0, 1, 0, 0, 0 ) 0.9039611625451699, 0.09603883745483012;
    ( 1, 1, 0, 1, 0, 0, 1 ) 0.32002415840948184, 0.6799758415905182;
    ( 1, 1, 0, 1, 0, 1, 0 ) 0.8714666292512886, 0.12853337074871138;
    ( 1, 1, 0, 1, 0, 1, 1 ) 0.6418501073094313, 0.3581498926905688;
    ( 1, 1, 0, 1, 1, 0, 0 ) 0.7001737279823121, 0.2998262720176878;
    ( 1, 1, 0, 1, 1, 0, 1 ) 0.5698440939652882, 0.43015590603471165;
    ( 1, 1, 0, 1, 1, 1, 0 ) 0.5190196195142565, 0.4809803804857435;
    ( 1, 1, 0, 1, 1, 1, 1 ) 0.47019460911327643, 0.5298053908867236;
    ( 1, 1, 1, 0, 0, 0, 0 ) 0.4601130424353743, 0.5398869575646257;
    ( 1, 1, 1, 0, 0, 0, 1 ) 0.9999999999520455, 4.795450868336703e-11;
    ( 1, 1, 1, 0, 0, 1, 0 ) 0.5543133595430925, 0.4456866404569074;
    ( 1, 1, 1, 0, 0, 1, 1 ) 0.9999999999483362, 5.1663808224073573e-11;
    ( 1, 1, 1, 0, 1, 0, 0 ) 0.7136956983481908, 0.28630430165180915;
    ( 1, 1, 1, 0, 1, 0, 1 ) 0.28440089666085083, 0.7155991033391492;
    ( 1, 1, 1, 0, 1, 1, 0 ) 0.03990955763377408, 0.9600904423662259;
    ( 1, 1, 1, 0, 1, 1, 1 ) 0.9999999999470237, 5.29762907689137e-11;
    ( 1, 1, 1, 1, 0, 0, 0 ) 0.6461245747609009, 0.35387542523909904;
    ( 1, 1, 1, 1, 0, 0, 1 ) 0.9999999999569571, 4.304291990986615e-11;
    ( 1, 1, 1, 1, 0, 1, 0 ) 0.8418247718559042, 0.1581752281440958;
    ( 1, 1, 1, 1, 0, 1, 1 ) 0.9999999999606164, 3.938360721096786e-11;
    ( 1, 1, 1, 1, 1, 0, 0 ) 0.00011511967925320992, 0.9998848803207467;
    ( 1, 1, 1, 1, 1, 0, 1 ) 6.147532940654519e-11, 0.9999999999385247;
    ( 1, 1, 1, 1, 1, 1, 0 ) 0.6752279173761518, 0.32477208262384816;
    ( 1, 1, 1, 1, 1, 1, 1 ) 0.22246932372324546, 0.7775306762767547;
    ( 2, 0, 0, 0, 0, 0, 0 ) 0.9368667351820681, 0.06313326481793193;
    ( 2, 0, 0, 0, 0, 0, 1 ) 0.18398990670722837, 0.8160100932927717;
    ( 2, 0, 0, 0, 0, 1, 0 ) 0.9344584164357113, 0.06554158356428867;
    ( 2, 0, 0, 0, 0, 1, 1 ) 0.7381750661202628, 0.26182493387973715;
    ( 2, 0, 0, 0, 1, 0, 0 ) 0.7876464841860082, 0.21235351581399173;
    ( 2, 0, 0, 0, 1, 0, 1 ) 0.9999999999461995, 5.380052622556566e-11;
    ( 2, 0, 0, 0, 1, 1, 0 ) 0.8533316026157894, 0.14666839738421056;
    ( 2, 0, 0, 0, 1, 1, 1 ) 0.7600323851402964, 0.23996761485970364;
    ( 2, 0, 0, 1, 0, 0, 0 ) 0.7702199609097597, 0.22978003909024028;
    ( 2, 0, 0, 1, 0, 0, 1 ) 0.7573607263106095, 0.24263927368939048;
    ( 2, 0, 0, 1, 0, 1, 0 ) 0.7822640312687359, 0.21773596873126408;
    ( 2, 0, 0, 1, 0, 1, 1 ) 0.7455578641139456, 0.25444213588605435;
    ( 2, 0, 0, 1, 1, 0, 0 ) 0.48104136276656256, 0.5189586372334374;
    ( 2, 0, 0, 1, 1, 0, 1 ) 0.01965995872826563, 0.9803400412717345;
    ( 2, 0, 0, 1, 1, 1, 0 ) 0.6533824449636768, 0.34661755503632313;
    ( 2, 0, 0, 1, 1, 1, 1 ) 0.3523608477083985, 0.6476391522916014;
    ( 2, 0, 1, 0, 0, 0, 0 ) 0.6255334406663754, 0.37446655933362455;
    ( 2, 0, 1, 0, 0, 0, 1 ) 3.070743133541593e-11, 0.9999999999692927;
    ( 2, 0, 1, 0, 0, 1, 0 ) 0.885152610799953, 0.11484738920004706;
    ( 2, 0, 1, 0, 0, 1, 1 ) 0.26603568894033686, 0.7339643110596632;
    ( 2, 0, 1, 0, 1, 0, 0 ) 0.2564875521098552, 0.7435124478901448;
    ( 2, 0, 1, 0, 1, 0, 1 ) 0.5, 0.5;
    ( 2, 0, 1, 0, 1, 1, 0 ) 0.7227337966259512, 0.2772662033740488;
    ( 2, 0, 1, 0, 1, 1, 1 ) 0.5780432768882594, 0.42195672311174054;
    ( 2, 0, 1, 1, 0, 0, 0 ) 0.3689980430465333, 0.6310019569534667;
    ( 2, 0, 1, 1, 0, 0, 1 ) 5.599306471411172e-11, 0.9999999999440069;
    ( 2, 0, 1, 1, 0, 1, 0 ) 0.41530289350777017, 0.5846971064922298;
    ( 2, 0, 1, 1, 0, 1, 1 ) 0.9999999999537977, 4.6202346895014176e-11;
    ( 2, 0, 1, 1, 1, 0, 0 ) 0.280157147832066, 0.7198428521679341;
    ( 2, 0, 1, 1, 1, 0, 1 ) 0.7440768913719413, 0.2559231086280588;
    ( 2, 0, 1, 1, 1, 1, 0 ) 0.44201193289856894, 0.557988067101431;
    ( 2, 0, 1, 1, 1, 1, 1 ) 0.12383810519256867, 0.8761618948074313;
    ( 2, 1, 0, 0, 0, 0, 0 ) 0.7443933244932552, 0.2556066755067447;
    ( 2, 1, 0, 0, 0, 0, 1 ) 0.9999999999394001, 6.059981132657848e-11;
    ( 2, 1, 0, 0, 0, 1, 0 ) 0.9546347061002853, 0.045365293899714665;
    ( 2, 1, 0, 0, 0, 1, 1 ) 0.8390782502797534, 0.1609217497202466;
    ( 2, 1, 0, 0, 1, 0, 0 ) 0.48456449868986046, 0.5154355013101395;
    ( 2, 1, 0, 0, 1, 0, 1 ) 0.6629269738543433, 0.3370730261456566;
    ( 2, 1, 0, 0, 1, 1, 0 ) 0.7952100804170272, 0.20478991958297266;
    ( 2, 1, 0, 0, 1, 1, 1 ) 0.1867527202914689, 0.8132472797085311;
    ( 2, 1, 0, 1, 0, 0, 0 ) 0.6465840779851996, 0.3534159220148004;
    ( 2, 1, 0, 1, 0, 0, 1 ) 0.5581319752710707, 0.4418680247289294;
    ( 2, 1, 0, 1, 0, 1, 0 ) 0.4558602231985765, 0.5441397768014236;
    ( 2, 1, 0, 1, 0, 1, 1 ) 0.6329776775976452, 0.36702232240235483;
    ( 2, 1, 0, 1, 1, 0, 0 ) 0.29754192138415253, 0.7024580786158475;
    ( 2, 1, 0, 1, 1, 0, 1 ) 7.874054741605916e-06, 0.9999921259452584;
    ( 2, 1, 0, 1, 1, 1, 0 ) 0.3298485590520007, 0.6701514409479994;
    ( 2, 1, 0, 1, 1, 1, 1 ) 0.4475990568889641, 0.5524009431110359;
    ( 2, 1, 1, 0, 0, 0, 0 ) 0.9999999999629887, 3.701134480061301e-11;
    ( 2, 1, 1, 0, 0, 0, 1 ) 5.443696822369379e-11, 0.9999999999455631;
    ( 2, 1, 1, 0, 0, 1, 0 ) 0.1726726679539339, 0.827327332046066;
    ( 2, 1, 1, 0, 0, 1, 1 ) 0.00043413465310320745, 0.9995658653468968;
    ( 2, 1, 1, 0, 1, 0, 0 ) 0.16894668303770297, 0.8310533169622971;
    ( 2, 1, 1, 0, 1, 0, 1 ) 0.9999999999551219, 4.4878135035617816e-11;
    ( 2, 1, 1, 0, 1, 1, 0 ) 0.4287666353741884, 0.5712333646258115;
    ( 2, 1, 1, 0, 1, 1, 1 ) 4.4870333660339515e-12, 0.9999999999955129;
    ( 2, 1, 1, 1, 0, 0, 0 ) 0.08634852314911852, 0.9136514768508815;
    ( 2, 1, 1, 1, 0, 0, 1 ) 5.852473705229129e-11, 0.9999999999414753;
    ( 2, 1, 1, 1, 0, 1, 0 ) 0.1242527355301614, 0.8757472644698385;
    ( 2, 1, 1, 1, 0, 1, 1 ) 0.517494363218824, 0.482505636781176;
    ( 2, 1, 1, 1, 1, 0, 0 ) 0.15366262498496244, 0.8463373750150375;
    ( 2, 1, 1, 1, 1, 0, 1 ) 0.0049792494859088755, 0.9950207505140912;
    ( 2, 1, 1, 1, 1, 1, 0 ) 0.27293431687911085, 0.7270656831208892;
    ( 2, 1, 1, 1, 1, 1, 1 ) 0.437956488281009, 0.562043511718991;
    ( 3, 0, 0, 0, 0, 0, 0 ) 0.8183739004123344, 0.18162609958766565;
    ( 3, 0, 0, 0, 0, 0, 1 ) 0.9999999999573811, 4.261890886474493e-11;
    ( 3, 0, 0, 0, 0, 1, 0 ) 0.8168564623299781, 0.18314353767002195;
    ( 3, 0, 0, 0, 0, 1, 1 ) 0.9999999999330983, 6.690166970614404e-11;
    ( 3, 0, 0, 0, 1, 0, 0 ) 0.6268282037136416, 0.37317179628635844;
    ( 3, 0, 0, 0, 1, 0, 1 ) 0.5, 0.5;
    ( 3, 0, 0, 0, 1, 1, 0 ) 0.7128373205471513, 0.2871626794528487;
    ( 3, 0, 0, 0, 1, 1, 1 ) 0.9999999999425226, 5.747733708316396e-11;
    ( 3, 0, 0, 1, 0, 0, 0 ) 0.4550538092853191, 0.5449461907146809;
    ( 3, 0, 0, 1, 0, 0, 1 ) 0.9999999999359156, 6.40843704994478e-11;
    ( 3, 0, 0, 1, 0, 1, 0 ) 0.7322281025001904, 0.2677718974998096;
    ( 3, 0, 0, 1, 0, 1, 1 ) 0.4747961942171103, 0.5252038057828897;
    ( 3, 0, 0, 1, 1, 0, 0 ) 0.11243006718044957, 0.8875699328195503;
    ( 3, 0, 0, 1, 1, 0, 1 ) 7.128573190020357e-11, 0.9999999999287144;
    ( 3, 0, 0, 1, 1, 1, 0 ) 0.3578153668769494, 0.6421846331230506;
    ( 3, 0, 0, 1, 1, 1, 1 ) 2.825430001509264e-10, 0.999999999717457;
    ( 3, 0, 1, 0, 0, 0, 0 ) 0.9999999999567342, 4.326584833374505e-11;
    ( 3, 0, 1, 0, 0, 0, 1 ) 0.9999999999353347, 6.466530439400781e-11;
    ( 3, 0, 1, 0, 0, 1, 0 ) 0.5138795297165945, 0.4861204702834056;
    ( 3, 0, 1, 0, 0, 1, 1 ) 0.9999999999488636, 5.113650758795848e-11;
    ( 3, 0, 1, 0, 1, 0, 0 ) 0.999999999952127, 4.787290866254702e-11;
    ( 3, 0, 1, 0, 1, 0, 1 ) 0.9999999999819416, 1.8058332671670616e-11;
    ( 3, 0, 1, 0, 1, 1, 0 ) 0.22534932598802856, 0.7746506740119714;
    ( 3, 0, 1, 0, 1, 1, 1 ) 0.5, 0.5;
    ( 3, 0, 1, 1, 0, 0, 0 ) 0.7837560823100543, 0.2162439176899457;
    ( 3, 0, 1, 1, 0, 0, 1 ) 0.36579039604601477, 0.6342096039539853;
    ( 3, 0, 1, 1, 0, 1, 0 ) 0.48026141849879606, 0.5197385815012039;
    ( 3, 0, 1, 1, 0, 1, 1 ) 0.5, 0.5;
    ( 3, 0, 1, 1, 1, 0, 0 ) 0.003826491404773667, 0.9961735085952264;
    ( 3, 0, 1, 1, 1, 0, 1 ) 3.256873970841399e-11, 0.9999999999674313;
    ( 3, 0, 1, 1, 1, 1, 0 ) 0.5341855206226396, 0.46581447937736037;
    ( 3, 0, 1, 1, 1, 1, 1 ) 1.2663908975322298e-09, 0.9999999987336091;
    ( 3, 1, 0, 0, 0, 0, 0 ) 0.45859665131764416, 0.541403348682356;
    ( 3, 1, 0, 0, 0, 0, 1 ) 0.9999999999556274, 4.43727231466568e-11;
    ( 3, 1, 0, 0, 0, 1, 0 ) 0.78553467119625, 0.21446532880375002;
    ( 3, 1, 0, 0, 0, 1, 1 ) 0.21696520594627927, 0.7830347940537208;
    ( 3, 1, 0, 0, 1, 0, 0 ) 0.5955469354619338, 0.4044530645380661;
    ( 3, 1, 0, 0, 1, 0, 1 ) 0.21485328939197645, 0.7851467106080235;
    ( 3, 1, 0, 0, 1, 1, 0 ) 0.5792524941454494, 0.42074750585455056;
    ( 3, 1, 0, 0, 1, 1, 1 ) 8.34938735452871e-09, 0.9999999916506126;
    ( 3, 1, 0, 1, 0, 0, 0 ) 0.40756008775054925, 0.5924399122494507;
    ( 3, 1, 0, 1, 0, 0, 1 ) 0.7443928950514385, 0.2556071049485616;
    ( 3, 1, 0, 1, 0, 1, 0 ) 0.631520226826123, 0.3684797731738771;
    ( 3, 1, 0, 1, 0, 1, 1 ) 0.999999999948636, 5.13640536752898e-11;
    ( 3, 1, 0, 1, 1, 0, 0 ) 0.1670251172234956, 0.8329748827765044;
    ( 3, 1, 0, 1, 1, 0, 1 ) 0.418536772338303, 0.581463227661697;
    ( 3, 1, 0, 1, 1, 1, 0 ) 0.20121700749467117, 0.7987829925053288;
    ( 3, 1, 0, 1, 1, 1, 1 ) 0.22723423929377604, 0.772765760706224;
    ( 3, 1, 1, 0, 0, 0, 0 ) 2.4697092375609147e-05, 0.9999753029076244;
    ( 3, 1, 1, 0, 0, 0, 1 ) 6.238718941056159e-12, 0.9999999999937613;
    ( 3, 1, 1, 0, 0, 1, 0 ) 0.9999999999507636, 4.9236361646579654e-11;
    ( 3, 1, 1, 0, 0, 1, 1 ) 6.766144273664991e-12, 0.9999999999932337;
    ( 3, 1, 1, 0, 1, 0, 0 ) 5.207817164828933e-11, 0.9999999999479218;
    ( 3, 1, 1, 0, 1, 0, 1 ) 0.5, 0.5;
    ( 3, 1, 1, 0, 1, 1, 0 ) 1.1456795837615303e-09, 0.9999999988543203;
    ( 3, 1, 1, 0, 1, 1, 1 ) 6.340570231201602e-12, 0.9999999999936595;
    ( 3, 1, 1, 1, 0, 0, 0 ) 8.68312653157712e-11, 0.9999999999131687;
    ( 3, 1, 1, 1, 0, 0, 1 ) 8.19891707661611e-11, 0.9999999999180108;
    ( 3, 1, 1, 1, 0, 1, 0 ) 0.1489857065310905, 0.8510142934689096;
    ( 3, 1, 1, 1, 0, 1, 1 ) 7.678531612919262e-11, 0.9999999999232148;
    ( 3, 1, 1, 1, 1, 0, 0 ) 0.22660380283605464, 0.7733961971639454;
    ( 3, 1, 1, 1, 1, 0, 1 ) 1.2923711144565672e-08, 0.9999999870762889;
    ( 3, 1, 1, 1, 1, 1, 0 ) 0.004875467219198284, 0.9951245327808017;
    ( 3, 1, 1, 1, 1, 1, 1 ) 2.246797001179748e-11, 0.9999999999775321;
    ( 4, 0, 0, 0, 0, 0, 0 ) 0.7736969070555181, 0.22630309294448192;
    ( 4, 0, 0, 0, 0, 0, 1 ) 0.9999999999244784, 7.552162906069508e-11;
    ( 4, 0, 0, 0, 0, 1, 0 ) 0.7677664281311476, 0.23223357186885246;
    ( 4, 0, 0, 0, 0, 1, 1 ) 0.9999999999492941, 5.0705946024441543e-11;
    ( 4, 0, 0, 0, 1, 0, 0 ) 0.8122484803980229, 0.1877515196019771;
    ( 4, 0, 0, 0, 1, 0, 1 ) 7.853127613695407e-11, 0.9999999999214687;
    ( 4, 0, 0, 0, 1, 1, 0 ) 0.6754252419735858, 0.3245747580264142;
    ( 4, 0, 0, 0, 1, 1, 1 ) 0.9999999999450825, 5.49175399194452e-11;
    ( 4, 0, 0, 1, 0, 0, 0 ) 0.4783126581935058, 0.5216873418064941;
    ( 4, 0, 0, 1, 0, 0, 1 ) 0.3403523338663163, 0.6596476661336836;
    ( 4, 0, 0, 1, 0, 1, 0 ) 0.6167227311108467, 0.38327726888915337;
    ( 4, 0, 0, 1, 0, 1, 1 ) 1.2885047728133845e-06, 0.9999987114952271;
    ( 4, 0, 0, 1, 1, 0, 0 ) 0.024523008582984597, 0.9754769914170154;
    ( 4, 0, 0, 1, 1, 0, 1 ) 6.614964822829343e-12, 0.9999999999933851;
    ( 4, 0, 0, 1, 1, 1, 0 ) 0.2347750663051055, 0.7652249336948945;
    ( 4, 0, 0, 1, 1, 1, 1 ) 0.9999999999324222, 6.757782920452449e-11;
    ( 4, 0, 1, 0, 0, 0, 0 ) 5.664004930054373e-12, 0.999999999994336;
    ( 4, 0, 1, 0, 0, 0, 1 ) 0.5, 0.5;
    ( 4, 0, 1, 0, 0, 1, 0 ) 3.56626267901175e-07, 0.999999643373732;
    ( 4, 0, 1, 0, 0, 1, 1 ) 0.5, 0.5;
    ( 4, 0, 1, 0, 1, 0, 0 ) 0.5, 0.5;
    ( 4, 0, 1, 0, 1, 0, 1 ) 0.5, 0.5;
    ( 4, 0, 1, 0, 1, 1, 0 ) 0.3466784197784904, 0.6533215802215097;
    ( 4, 0, 1, 0, 1, 1, 1 ) 0.5, 0.5;
    ( 4, 0, 1, 1, 0, 0, 0 ) 0.748809050536572, 0.25119094946342796;
    ( 4, 0, 1, 1, 0, 0, 1 ) 5.2912320474297615e-12, 0.9999999999947088;
    ( 4, 0, 1, 1, 0, 1, 0 ) 0.2685685586430103, 0.7314314413569896;
    ( 4, 0, 1, 1, 0, 1, 1 ) 0.5, 0.5;
    ( 4, 0, 1, 1, 1, 0, 0 ) 0.18226433465792286, 0.8177356653420772;
    ( 4, 0, 1, 1, 1, 0, 1 ) 0.9999999999285061, 7.149396786057858e-11;
    ( 4, 0, 1, 1, 1, 1, 0 ) 4.5113094480105664e-05, 0.9999548869055198;
    ( 4, 0, 1, 1, 1, 1, 1 ) 8.688207253857631e-11, 0.9999999999131178;
    ( 4, 1, 0, 0, 0, 0, 0 ) 0.6065927364034073, 0.39340726359659267;
    ( 4, 1, 0, 0, 0, 0, 1 ) 5.765307666850644e-12, 0.9999999999942347;
    ( 4, 1, 0, 0, 0, 1, 0 ) 0.7487434035229568, 0.25125659647704324;
    ( 4, 1, 0, 0, 0, 1, 1 ) 0.5, 0.5;
    ( 4, 1, 0, 0, 1, 0, 0 ) 0.3864477307583032, 0.6135522692416968;
    ( 4, 1, 0, 0, 1, 0, 1 ) 0.9999999999417761, 5.82239519898186e-11;
    ( 4, 1, 0, 0, 1, 1, 0 ) 0.4115377665976895, 0.5884622334023105;
    ( 4, 1, 0, 0, 1, 1, 1 ) 0.5, 0.5;
    ( 4, 1, 0, 1, 0, 0, 0 ) 0.29587935851295527, 0.7041206414870447;
    ( 4, 1, 0, 1, 0, 0, 1 ) 0.00017864912429451193, 0.9998213508757055;
    ( 4, 1, 0, 1, 0, 1, 0 ) 0.26935209025289114, 0.7306479097471088;
    ( 4, 1, 0, 1, 0, 1, 1 ) 0.19768877841370883, 0.8023112215862912;
    ( 4, 1, 0, 1, 1, 0, 0 ) 5.322424792393289e-06, 0.9999946775752077;
    ( 4, 1, 0, 1, 1, 0, 1 ) 5.5015594170987006e-11, 0.9999999999449845;
    ( 4, 1, 0, 1, 1, 1, 0 ) 0.01058783017291036, 0.9894121698270897;
    ( 4, 1, 0, 1, 1, 1, 1 ) 0.47419268935584746, 0.5258073106441525;
    ( 4, 1, 1, 0, 0, 0, 0 ) 0.19530018669253868, 0.8046998133074613;
    ( 4, 1, 1, 0, 0, 0, 1 ) 7.450409555840914e-11, 0.9999999999254959;
    ( 4, 1, 1, 0, 0, 1, 0 ) 0.185196246272603, 0.8148037537273971;
    ( 4, 1, 1, 0, 0, 1, 1 ) 8.09225074978048e-13, 0.9999999999991908;
    ( 4, 1, 1, 0, 1, 0, 0 ) 2.4790844544552656e-06, 0.9999975209155455;
    ( 4, 1, 1, 0, 1, 0, 1 ) 0.9999999999928725, 7.1275426591551095e-12;
    ( 4, 1, 1, 0, 1, 1, 0 ) 6.217870772636438e-12, 0.9999999999937821;
    ( 4, 1, 1, 0, 1, 1, 1 ) 0.5, 0.5;
    ( 4, 1, 1, 1, 0, 0, 0 ) 4.2484602625561e-08, 0.9999999575153974;
    ( 4, 1, 1, 1, 0, 0, 1 ) 6.2521983210173735e-12, 0.9999999999937479;
    ( 4, 1, 1, 1, 0, 1, 0 ) 0.20366346943418107, 0.7963365305658189;
    ( 4, 1, 1, 1, 0, 1, 1 ) 4.484060986455204e-12, 0.999999999995516;
    ( 4, 1, 1, 1, 1, 0, 0 ) 0.0008430055360625381, 0.9991569944639375;
    ( 4, 1, 1, 1, 1, 0, 1 ) 4.261975017581386e-11, 0.9999999999573802;
    ( 4, 1, 1, 1, 1, 1, 0 ) 7.846179615205614e-11, 0.9999999999215381;
    ( 4, 1, 1, 1, 1, 1, 1 ) 4.396435006163316e-11, 0.9999999999560356;

}
probability ( Sex ) {
    table 0.55595, 0.44405 ;
}
probability ( Smoker ) {
    table 0.55345, 0.44655 ;
}
probability ( SocioeconomicStatus | Age, Education, Income, Sex ) {
    ( 0, 0, 0, 0 ) 0.5, 0.5;
    ( 0, 0, 0, 1 ) 0.5, 0.5;
    ( 0, 0, 1, 0 ) 0.5, 0.5;
    ( 0, 0, 1, 1 ) 0.5, 0.5;
    ( 0, 0, 2, 0 ) 0.5, 0.5;
    ( 0, 0, 2, 1 ) 0.9950954179633111, 0.004904582036688778;
    ( 0, 0, 3, 0 ) 0.5, 0.5;
    ( 0, 0, 3, 1 ) 0.5, 0.5;
    ( 0, 0, 4, 0 ) 0.5, 0.5;
    ( 0, 0, 4, 1 ) 0.5, 0.5;
    ( 0, 0, 5, 0 ) 0.5, 0.5;
    ( 0, 0, 5, 1 ) 0.5, 0.5;
    ( 0, 0, 6, 0 ) 0.5, 0.5;
    ( 0, 0, 6, 1 ) 0.5, 0.5;
    ( 0, 0, 7, 0 ) 0.5, 0.5;
    ( 0, 0, 7, 1 ) 0.5, 0.5;
    ( 0, 1, 0, 0 ) 0.9999999994620808, 5.379191367501501e-10;
    ( 0, 1, 0, 1 ) 0.5, 0.5;
    ( 0, 1, 1, 0 ) 0.9759560383156727, 0.024043961684327365;
    ( 0, 1, 1, 1 ) 0.5, 0.5;
    ( 0, 1, 2, 0 ) 0.5, 0.5;
    ( 0, 1, 2, 1 ) 0.5, 0.5;
    ( 0, 1, 3, 0 ) 0.5, 0.5;
    ( 0, 1, 3, 1 ) 0.5, 0.5;
    ( 0, 1, 4, 0 ) 0.5, 0.5;
    ( 0, 1, 4, 1 ) 0.5, 0.5;
    ( 0, 1, 5, 0 ) 0.5, 0.5;
    ( 0, 1, 5, 1 ) 0.5, 0.5;
    ( 0, 1, 6, 0 ) 0.5, 0.5;
    ( 0, 1, 6, 1 ) 0.5, 0.5;
    ( 0, 1, 7, 0 ) 0.5, 0.5;
    ( 0, 1, 7, 1 ) 0.5, 0.5;
    ( 0, 2, 0, 0 ) 0.5, 0.5;
    ( 0, 2, 0, 1 ) 0.5, 0.5;
    ( 0, 2, 1, 0 ) 0.0005113687056111659, 0.9994886312943889;
    ( 0, 2, 1, 1 ) 0.9999999999521394, 4.786063838612033e-11;
    ( 0, 2, 2, 0 ) 0.9999999605869722, 3.941302777326978e-08;
    ( 0, 2, 2, 1 ) 0.9846387213062321, 0.01536127869376794;
    ( 0, 2, 3, 0 ) 0.5, 0.5;
    ( 0, 2, 3, 1 ) 0.9999632795474678, 3.6720452532263114e-05;
    ( 0, 2, 4, 0 ) 4.368864713494128e-12, 0.999999999995631;
    ( 0, 2, 4, 1 ) 0.9982598183839507, 0.0017401816160493003;
    ( 0, 2, 5, 0 ) 0.997971074851749, 0.0020289251482510655;
    ( 0, 2, 5, 1 ) 0.9611421230333841, 0.03885787696661593;
    ( 0, 2, 6, 0 ) 0.5, 0.5;
    ( 0, 2, 6, 1 ) 0.9909044164257755, 0.009095583574224431;
    ( 0, 2, 7, 0 ) 0.9998238102469519, 0.000176189753048101;
    ( 0, 2, 7, 1 ) 0.5, 0.5;
    ( 0, 3, 0, 0 ) 0.0016355867705987886, 0.9983644132294012;
    ( 0, 3, 0, 1 ) 0.9985356764200009, 0.0014643235799992025;
    ( 0, 3, 1, 0 ) 0.9996155324847174, 0.0003844675152826005;
    ( 0, 3, 1, 1 ) 0.999999952293001, 4.770699898031766e-08;
    ( 0, 3, 2, 0 ) 0.9628415938878719, 0.03715840611212812;
    ( 0, 3, 2, 1 ) 0.9851795723101499, 0.014820427689850155;
    ( 0, 3, 3, 0 ) 0.987765504910829, 0.012234495089171002;
    ( 0, 3, 3, 1 ) 0.9998575962261106, 0.00014240377388940854;
    ( 0, 3, 4, 0 ) 0.9999489081463419, 5.1091853658249005e-05;
    ( 0, 3, 4, 1 ) 0.9999993939713251, 6.060286749552062e-07;
    ( 0, 3, 5, 0 ) 0.9999999936010617, 6.3989382717276426e-09;
    ( 0, 3, 5, 1 ) 0.9994964514950179, 0.0005035485049820717;
    ( 0, 3, 6, 0 ) 0.9996021098946751, 0.00039789010532487575;
    ( 0, 3, 6, 1 ) 0.9958821677393866, 0.004117832260613378;
    ( 0, 3, 7, 0 ) 0.9999779223379144, 2.2077662085649637e-05;
    ( 0, 3, 7, 1 ) 0.999984655371709, 1.534462829095102e-05;
    ( 0, 4, 0, 0 ) 0.9999488995733918, 5.110042660822164e-05;
    ( 0, 4, 0, 1 ) 0.9987276729454138, 0.0012723270545861604;
    ( 0, 4, 1, 0 ) 0.5459029965177588, 0.45409700348224136;
    ( 0, 4, 1, 1 ) 0.9999033427272352, 9.66572727648017e-05;
    ( 0, 4, 2, 0 ) 0.18440658053802897, 0.8155934194619711;
    ( 0, 4, 2, 1 ) 0.9999999967245689, 3.2754311194972902e-09;
    ( 0, 4, 3, 0 ) 0.43284233805339356, 0.5671576619466063;
    ( 0, 4, 3, 1 ) 0.9999999633337403, 3.666625967177953e-08;
    ( 0, 4, 4, 0 ) 0.6580617547980604, 0.3419382452019396;
    ( 0, 4, 4, 1 ) 0.9989266764898007, 0.001073323510199393;
    ( 0, 4, 5, 0 ) 0.9999736248116123, 2.637518838768446e-05;
    ( 0, 4, 5, 1 ) 0.9975458480243018, 0.0024541519756981827;
    ( 0, 4, 6, 0 ) 0.9990888329697862, 0.0009111670302138176;
    ( 0, 4, 6, 1 ) 0.998618880540071, 0.00138111945992906;
    ( 0, 4, 7, 0 ) 0.9973712454653132, 0.0026287545346868764;
    ( 0, 4, 7, 1 ) 0.9976705256992024, 0.0023294743007976305;
    ( 0, 5, 0, 0 ) 0.9998957308385549, 0.00010426916144519186;
    ( 0, 5, 0, 1 ) 0.3397448990150275, 0.6602551009849725;
    ( 0, 5, 1, 0 ) 0.9999869743505035, 1.302564949650513e-05;
    ( 0, 5, 1, 1 ) 0.9997769227726113, 0.00022307722738873189;
    ( 0, 5, 2, 0 ) 0.9999998405520351, 1.5944796493251537e-07;
    ( 0, 5, 2, 1 ) 0.999999769964554, 2.3003544597254211e-07;
    ( 0, 5, 3, 0 ) 0.9996398666751488, 0.00036013332485110235;
    ( 0, 5, 3, 1 ) 0.5, 0.5;
    ( 0, 5, 4, 0 ) 0.999076233075631, 0.0009237669243689546;
    ( 0, 5, 4, 1 ) 0.9999922142913814, 7.785708618563236e-06;
    ( 0, 5, 5, 0 ) 0.9983902241923622, 0.0016097758076377248;
    ( 0, 5, 5, 1 ) 0.99922220891863, 0.0007777910813699814;
    ( 0, 5, 6, 0 ) 0.041759710396507464, 0.9582402896034926;
    ( 0, 5, 6, 1 ) 0.9999229687344023, 7.7031265597697e-05;
    ( 0, 5, 7, 0 ) 0.996251388133355, 0.0037486118666449;
    ( 0, 5, 7, 1 ) 0.999967836321494, 3.216367850608928e-05;
    ( 1, 0, 0, 0 ) 0.5, 0.5;
    ( 1, 0, 0, 1 ) 0.5, 0.5;
    ( 1, 0, 1, 0 ) 0.5, 0.5;
    ( 1, 0, 1, 1 ) 0.5, 0.5;
    ( 1, 0, 2, 0 ) 0.5, 0.5;
    ( 1, 0, 2, 1 ) 0.5, 0.5;
    ( 1, 0, 3, 0 ) 0.5, 0.5;
    ( 1, 0, 3, 1 ) 0.5, 0.5;
    ( 1, 0, 4, 0 ) 0.5, 0.5;
    ( 1, 0, 4, 1 ) 0.5, 0.5;
    ( 1, 0, 5, 0 ) 0.5, 0.5;
    ( 1, 0, 5, 1 ) 0.5, 0.5;
    ( 1, 0, 6, 0 ) 0.5, 0.5;
    ( 1, 0, 6, 1 ) 0.5, 0.5;
    ( 1, 0, 7, 0 ) 0.5, 0.5;
    ( 1, 0, 7, 1 ) 0.5, 0.5;
    ( 1, 1, 0, 0 ) 0.3817445823165918, 0.6182554176834082;
    ( 1, 1, 0, 1 ) 0.5, 0.5;
    ( 1, 1, 1, 0 ) 0.9919550795120676, 0.008044920487932287;
    ( 1, 1, 1, 1 ) 0.84440598470534, 0.15559401529466;
    ( 1, 1, 2, 0 ) 0.5, 0.5;
    ( 1, 1, 2, 1 ) 0.5, 0.5;
    ( 1, 1, 3, 0 ) 0.9997853697332503, 0.00021463026674981906;
    ( 1, 1, 3, 1 ) 0.5, 0.5;
    ( 1, 1, 4, 0 ) 0.5, 0.5;
    ( 1, 1, 4, 1 ) 0.5, 0.5;
    ( 1, 1, 5, 0 ) 0.5, 0.5;
    ( 1, 1, 5, 1 ) 0.5, 0.5;
    ( 1, 1, 6, 0 ) 0.5, 0.5;
    ( 1, 1, 6, 1 ) 0.5, 0.5;
    ( 1, 1, 7, 0 ) 0.5, 0.5;
    ( 1, 1, 7, 1 ) 0.5, 0.5;
    ( 1, 2, 0, 0 ) 0.9999999999226186, 7.738143065324144e-11;
    ( 1, 2, 0, 1 ) 0.999830112954877, 0.0001698870451229953;
    ( 1, 2, 1, 0 ) 0.5, 0.5;
    ( 1, 2, 1, 1 ) 0.9988881616042385, 0.0011118383957613722;
    ( 1, 2, 2, 0 ) 0.9999918469487333, 8.153051266730695e-06;
    ( 1, 2, 2, 1 ) 0.5, 0.5;
    ( 1, 2, 3, 0 ) 0.5, 0.5;
    ( 1, 2, 3, 1 ) 0.9999481617497372, 5.183825026284395e-05;
    ( 1, 2, 4, 0 ) 0.9971751713517356, 0.0028248286482644397;
    ( 1, 2, 4, 1 ) 0.999995137301994, 4.862698006050394e-06;
    ( 1, 2, 5, 0 ) 0.018159302094387073, 0.981840697905613;
    ( 1, 2, 5, 1 ) 0.00011155599800596483, 0.9998884440019941;
    ( 1, 2, 6, 0 ) 0.5, 0.5;
    ( 1, 2, 6, 1 ) 0.5, 0.5;
    ( 1, 2, 7, 0 ) 0.5, 0.5;
    ( 1, 2, 7, 1 ) 0.5, 0.5;
    ( 1, 3, 0, 0 ) 0.9999995593744959, 4.406255040917435e-07;
    ( 1, 3, 0, 1 ) 3.973694846721899e-11, 0.999999999960263;
    ( 1, 3, 1, 0 ) 0.9999999899249589, 1.007504110976458e-08;
    ( 1, 3, 1, 1 ) 0.9990183589712448, 0.0009816410287552483;
    ( 1, 3, 2, 0 ) 0.9879231040071366, 0.012076895992863509;
    ( 1, 3, 2, 1 ) 0.9999999997103656, 2.8963439127541627e-10;
    ( 1, 3, 3, 0 ) 0.9999899797807119, 1.0020219288090996e-05;
    ( 1, 3, 3, 1 ) 0.999999999626087, 3.7391304623418845e-10;
    ( 1, 3, 4, 0 ) 0.00029999779755301, 0.9997000022024469;
    ( 1, 3, 4, 1 ) 0.5556238192993415, 0.4443761807006585;
    ( 1, 3, 5, 0 ) 0.9855302273046289, 0.01446977269537114;
    ( 1, 3, 5, 1 ) 0.9999561154490485, 4.388455095153547e-05;
    ( 1, 3, 6, 0 ) 0.9999992810847681, 7.189152318808847e-07;
    ( 1, 3, 6, 1 ) 0.9999925117672913, 7.488232708766895e-06;
    ( 1, 3, 7, 0 ) 0.9979747875336358, 0.0020252124663642564;
    ( 1, 3, 7, 1 ) 0.9999741620414587, 2.5837958541332892e-05;
    ( 1, 4, 0, 0 ) 0.9999958071138113, 4.192886188596966e-06;
    ( 1, 4, 0, 1 ) 0.9999430694712725, 5.693052872737285e-05;
    ( 1, 4, 1, 0 ) 0.9940601652762149, 0.005939834723785171;
    ( 1, 4, 1, 1 ) 0.9991809103813502, 0.0008190896186498813;
    ( 1, 4, 2, 0 ) 0.9999802602783865, 1.9739721613559727e-05;
    ( 1, 4, 2, 1 ) 0.9999999980669108, 1.9330892546635866e-09;
    ( 1, 4, 3, 0 ) 0.9998849330219507, 0.00011506697804931066;
    ( 1, 4, 3, 1 ) 0.9107936314830894, 0.08920636851691065;
    ( 1, 4, 4, 0 ) 0.9998434607965176, 0.000156539203482387;
    ( 1, 4, 4, 1 ) 0.9998195174957544, 0.00018048250424564511;
    ( 1, 4, 5, 0 ) 0.9996995106399885, 0.0003004893600114607;
    ( 1, 4, 5, 1 ) 0.9999799807499634, 2.001925003653424e-05;
    ( 1, 4, 6, 0 ) 0.9997656896417467, 0.00023431035825333628;
    ( 1, 4, 6, 1 ) 0.9998882615017055, 0.0001117384982944884;
    ( 1, 4, 7, 0 ) 0.9999991110029192, 8.889970809084431e-07;
    ( 1, 4, 7, 1 ) 0.7636232279062942, 0.2363767720937057;
    ( 1, 5, 0, 0 ) 0.9746437767685633, 0.025356223231436652;
    ( 1, 5, 0, 1 ) 0.8044113617733387, 0.19558863822666125;
    ( 1, 5, 1, 0 ) 0.999999948007251, 5.199274887629813e-08;
    ( 1, 5, 1, 1 ) 0.9981828564321815, 0.001817143567818502;
    ( 1, 5, 2, 0 ) 0.999999310295396, 6.897046040579059e-07;
    ( 1, 5, 2, 1 ) 0.9303796123154928, 0.06962038768450715;
    ( 1, 5, 3, 0 ) 0.9905032189845909, 0.009496781015408991;
    ( 1, 5, 3, 1 ) 0.9998482859922108, 0.00015171400778917618;
    ( 1, 5, 4, 0 ) 0.9993819372225775, 0.0006180627774223417;
    ( 1, 5, 4, 1 ) 0.9996809750854412, 0.00031902491455882196;
    ( 1, 5, 5, 0 ) 0.9999710473004506, 2.8952699549410356e-05;
    ( 1, 5, 5, 1 ) 0.9892012239384921, 0.010798776061507857;
    ( 1, 5, 6, 0 ) 0.9999990558422632, 9.44157736728192e-07;
    ( 1, 5, 6, 1 ) 0.9996135751261359, 0.00038642487386402456;
    ( 1, 5, 7, 0 ) 0.999527730832179, 0.00047226916782097667;
    ( 1, 5, 7, 1 ) 0.9999952772944883, 4.722705511627393e-06;
    ( 2, 0, 0, 0 ) 0.5, 0.5;
    ( 2, 0, 0, 1 ) 0.5, 0.5;
    ( 2, 0, 1, 0 ) 0.5, 0.5;
    ( 2, 0, 1, 1 ) 0.5, 0.5;
    ( 2, 0, 2, 0 ) 0.5, 0.5;
    ( 2, 0, 2, 1 ) 0.5, 0.5;
    ( 2, 0, 3, 0 ) 0.5, 0.5;
    ( 2, 0, 3, 1 ) 0.5, 0.5;
    ( 2, 0, 4, 0 ) 0.5, 0.5;
    ( 2, 0, 4, 1 ) 0.5, 0.5;
    ( 2, 0, 5, 0 ) 0.5, 0.5;
    ( 2, 0, 5, 1 ) 0.5, 0.5;
    ( 2, 0, 6, 0 ) 0.5, 0.5;
    ( 2, 0, 6, 1 ) 0.5, 0.5;
    ( 2, 0, 7, 0 ) 0.5, 0.5;
    ( 2, 0, 7, 1 ) 0.5, 0.5;
    ( 2, 1, 0, 0 ) 0.5, 0.5;
    ( 2, 1, 0, 1 ) 0.5, 0.5;
    ( 2, 1, 1, 0 ) 0.9999990251999474, 9.748000526087348e-07;
    ( 2, 1, 1, 1 ) 0.5, 0.5;
    ( 2, 1, 2, 0 ) 0.8179118578670176, 0.18208814213298238;
    ( 2, 1, 2, 1 ) 0.9990104756090861, 0.000989524390913919;
    ( 2, 1, 3, 0 ) 3.1374927767649593e-12, 0.9999999999968625;
    ( 2, 1, 3, 1 ) 0.5, 0.5;
    ( 2, 1, 4, 0 ) 6.806984192417558e-10, 0.9999999993193015;
    ( 2, 1, 4, 1 ) 0.5, 0.5;
    ( 2, 1, 5, 0 ) 0.5, 0.5;
    ( 2, 1, 5, 1 ) 0.5, 0.5;
    ( 2, 1, 6, 0 ) 0.5, 0.5;
    ( 2, 1, 6, 1 ) 0.9779213048961031, 0.022078695103896973;
    ( 2, 1, 7, 0 ) 0.5, 0.5;
    ( 2, 1, 7, 1 ) 0.5, 0.5;
    ( 2, 2, 0, 0 ) 0.00021210946664540226, 0.9997878905333546;
    ( 2, 2, 0, 1 ) 0.9784953845796676, 0.021504615420332458;
    ( 2, 2, 1, 0 ) 0.9999998407952309, 1.5920476914016935e-07;
    ( 2, 2, 1, 1 ) 0.5, 0.5;
    ( 2, 2, 2, 0 ) 7.566485994964768e-11, 0.9999999999243352;
    ( 2, 2, 2, 1 ) 0.9999999999378313, 6.216868092192743e-11;
    ( 2, 2, 3, 0 ) 0.9984997880887451, 0.0015002119112550176;
    ( 2, 2, 3, 1 ) 0.5, 0.5;
    ( 2, 2, 4, 0 ) 0.966011431159887, 0.033988568840113066;
    ( 2, 2, 4, 1 ) 0.5, 0.5;
    ( 2, 2, 5, 0 ) 0.9995618467910515, 0.0004381532089484064;
    ( 2, 2, 5, 1 ) 0.9997394717514375, 0.0002605282485625041;
    ( 2, 2, 6, 0 ) 0.9999999879355856, 1.2064414366654142e-08;
    ( 2, 2, 6, 1 ) 4.337294942820982e-12, 0.9999999999956627;
    ( 2, 2, 7, 0 ) 0.9950985806968056, 0.004901419303194465;
    ( 2, 2, 7, 1 ) 0.9999999993886831, 6.113167836677466e-10;
    ( 2, 3, 0, 0 ) 0.9999904182255958, 9.58177440417881e-06;
    ( 2, 3, 0, 1 ) 5.364226594366572e-12, 0.9999999999946357;
    ( 2, 3, 1, 0 ) 7.694970780580677e-11, 0.9999999999230503;
    ( 2, 3, 1, 1 ) 0.9999999999437491, 5.625098735644688e-11;
    ( 2, 3, 2, 0 ) 0.9615665238992941, 0.03843347610070586;
    ( 2, 3, 2, 1 ) 0.9999999999233653, 7.663467606443437e-11;
    ( 2, 3, 3, 0 ) 0.5324892771609848, 0.4675107228390152;
    ( 2, 3, 3, 1 ) 0.9586544604611884, 0.041345539538811676;
    ( 2, 3, 4, 0 ) 0.5097837821187083, 0.49021621788129166;
    ( 2, 3, 4, 1 ) 0.9999999999256697, 7.433038827067183e-11;
    ( 2, 3, 5, 0 ) 0.9999998947951598, 1.0520484024671949e-07;
    ( 2, 3, 5, 1 ) 0.9999898293161581, 1.0170683841908414e-05;
    ( 2, 3, 6, 0 ) 0.3527430169158592, 0.6472569830841408;
    ( 2, 3, 6, 1 ) 0.9999999999031371, 9.68628801634043e-11;
    ( 2, 3, 7, 0 ) 0.999260255902974, 0.0007397440970259835;
    ( 2, 3, 7, 1 ) 0.999999232384774, 7.676152260084679e-07;
    ( 2, 4, 0, 0 ) 0.19452958556951971, 0.8054704144304803;
    ( 2, 4, 0, 1 ) 0.7621651059958844, 0.23783489400411562;
    ( 2, 4, 1, 0 ) 0.9999037392647818, 9.62607352181947e-05;
    ( 2, 4, 1, 1 ) 0.5, 0.5;
    ( 2, 4, 2, 0 ) 0.9998271633193889, 0.00017283668061104013;
    ( 2, 4, 2, 1 ) 0.9999979917856178, 2.0082143822102945e-06;
    ( 2, 4, 3, 0 ) 0.6390762513248911, 0.36092374867510896;
    ( 2, 4, 3, 1 ) 0.9999997345041184, 2.6549588153107783e-07;
    ( 2, 4, 4, 0 ) 0.9999727737287278, 2.722627127219829e-05;
    ( 2, 4, 4, 1 ) 0.9999999999288107, 7.118932828744096e-11;
    ( 2, 4, 5, 0 ) 0.4861203795816978, 0.5138796204183023;
    ( 2, 4, 5, 1 ) 0.4987946830576004, 0.5012053169423997;
    ( 2, 4, 6, 0 ) 0.9999514791544721, 4.85208455279109e-05;
    ( 2, 4, 6, 1 ) 0.8048643307631408, 0.1951356692368593;
    ( 2, 4, 7, 0 ) 0.9998877448778368, 0.00011225512216317938;
    ( 2, 4, 7, 1 ) 0.9999999825534152, 1.7446584793542225e-08;
    ( 2, 5, 0, 0 ) 1.1180992677099544e-06, 0.9999988819007323;
    ( 2, 5, 0, 1 ) 0.9999999999309868, 6.901326003371849e-11;
    ( 2, 5, 1, 0 ) 0.999869150644274, 0.0001308493557259981;
    ( 2, 5, 1, 1 ) 6.824198887232543e-11, 0.999999999931758;
    ( 2, 5, 2, 0 ) 0.9999174610080157, 8.253899198429534e-05;
    ( 2, 5, 2, 1 ) 0.9999820303323326, 1.7969667667530194e-05;
    ( 2, 5, 3, 0 ) 0.9999978723049695, 2.1276950305537164e-06;
    ( 2, 5, 3, 1 ) 0.9999999998355921, 1.6440796622186013e-10;
    ( 2, 5, 4, 0 ) 0.1005026104385455, 0.8994973895614546;
    ( 2, 5, 4, 1 ) 0.9999999892923205, 1.0707679622729953e-08;
    ( 2, 5, 5, 0 ) 0.9965281196751077, 0.003471880324892357;
    ( 2, 5, 5, 1 ) 0.8452970566817487, 0.15470294331825135;
    ( 2, 5, 6, 0 ) 0.9943240627754443, 0.005675937224555827;
    ( 2, 5, 6, 1 ) 0.8865101257025445, 0.11348987429745547;
    ( 2, 5, 7, 0 ) 0.9988495725998825, 0.0011504274001175856;
    ( 2, 5, 7, 1 ) 0.9076812172242701, 0.09231878277572995;
    ( 3, 0, 0, 0 ) 0.5, 0.5;
    ( 3, 0, 0, 1 ) 0.5, 0.5;
    ( 3, 0, 1, 0 ) 0.5, 0.5;
    ( 3, 0, 1, 1 ) 0.5, 0.5;
    ( 3, 0, 2, 0 ) 0.5, 0.5;
    ( 3, 0, 2, 1 ) 0.5, 0.5;
    ( 3, 0, 3, 0 ) 0.5, 0.5;
    ( 3, 0, 3, 1 ) 0.5, 0.5;
    ( 3, 0, 4, 0 ) 0.5, 0.5;
    ( 3, 0, 4, 1 ) 0.9999999944658048, 5.5341951854206856e-09;
    ( 3, 0, 5, 0 ) 0.5, 0.5;
    ( 3, 0, 5, 1 ) 0.5, 0.5;
    ( 3, 0, 6, 0 ) 0.5, 0.5;
    ( 3, 0, 6, 1 ) 0.5, 0.5;
    ( 3, 0, 7, 0 ) 0.5, 0.5;
    ( 3, 0, 7, 1 ) 0.5, 0.5;
    ( 3, 1, 0, 0 ) 0.5, 0.5;
    ( 3, 1, 0, 1 ) 0.5, 0.5;
    ( 3, 1, 1, 0 ) 0.14426767655851191, 0.8557323234414881;
    ( 3, 1, 1, 1 ) 0.5, 0.5;
    ( 3, 1, 2, 0 ) 0.9999485578278017, 5.144217219833973e-05;
    ( 3, 1, 2, 1 ) 0.5, 0.5;
    ( 3, 1, 3, 0 ) 0.5, 0.5;
    ( 3, 1, 3, 1 ) 0.9992877244804467, 0.0007122755195533362;
    ( 3, 1, 4, 0 ) 0.9999999814891147, 1.8510885280372325e-08;
    ( 3, 1, 4, 1 ) 0.9999819092335921, 1.8090766407941266e-05;
    ( 3, 1, 5, 0 ) 0.5, 0.5;
    ( 3, 1, 5, 1 ) 0.5, 0.5;
    ( 3, 1, 6, 0 ) 0.5, 0.5;
    ( 3, 1, 6, 1 ) 0.5, 0.5;
    ( 3, 1, 7, 0 ) 0.5, 0.5;
    ( 3, 1, 7, 1 ) 0.5, 0.5;
    ( 3, 2, 0, 0 ) 0.38226871859674444, 0.6177312814032556;
    ( 3, 2, 0, 1 ) 0.8549916352079624, 0.14500836479203766;
    ( 3, 2, 1, 0 ) 0.9999962174652308, 3.7825347691353898e-06;
    ( 3, 2, 1, 1 ) 0.9934701940576087, 0.006529805942391309;
    ( 3, 2, 2, 0 ) 0.9999996385798726, 3.614201273270572e-07;
    ( 3, 2, 2, 1 ) 0.00046815165123803527, 0.999531848348762;
    ( 3, 2, 3, 0 ) 0.9999999996360238, 3.639761588512646e-10;
    ( 3, 2, 3, 1 ) 0.07238139844158799, 0.927618601558412;
    ( 3, 2, 4, 0 ) 0.9999999999092862, 9.071370036012138e-11;
    ( 3, 2, 4, 1 ) 0.9999999986054067, 1.394593280377908e-09;
    ( 3, 2, 5, 0 ) 0.5, 0.5;
    ( 3, 2, 5, 1 ) 0.7435544578715366, 0.25644554212846343;
    ( 3, 2, 6, 0 ) 0.9999999502896902, 4.971030984871642e-08;
    ( 3, 2, 6, 1 ) 0.9936907076649769, 0.006309292335022987;
    ( 3, 2, 7, 0 ) 0.5, 0.5;
    ( 3, 2, 7, 1 ) 0.999995011849623, 4.988150377010767e-06;
    ( 3, 3, 0, 0 ) 0.5300839676349333, 0.4699160323650668;
    ( 3, 3, 0, 1 ) 4.085106241291556e-11, 0.999999999959149;
    ( 3, 3, 1, 0 ) 0.9999990555272688, 9.444727312557846e-07;
    ( 3, 3, 1, 1 ) 0.9999999999319743, 6.802567076350875e-11;
    ( 3, 3, 2, 0 ) 0.2426211704757089, 0.757378829524291;
    ( 3, 3, 2, 1 ) 0.1016835747928911, 0.8983164252071089;
    ( 3, 3, 3, 0 ) 0.9812392583414684, 0.018760741658531553;
    ( 3, 3, 3, 1 ) 0.9914611530094752, 0.008538846990524778;
    ( 3, 3, 4, 0 ) 0.9779585488032616, 0.022041451196738397;
    ( 3, 3, 4, 1 ) 7.40536632970774e-11, 0.9999999999259463;
    ( 3, 3, 5, 0 ) 0.999998413734157, 1.5862658430258015e-06;
    ( 3, 3, 5, 1 ) 0.7650803113616413, 0.23491968863835858;
    ( 3, 3, 6, 0 ) 0.7991473540810597, 0.20085264591894023;
    ( 3, 3, 6, 1 ) 0.37449203702701384, 0.6255079629729862;
    ( 3, 3, 7, 0 ) 0.5948718299481602, 0.40512817005183976;
    ( 3, 3, 7, 1 ) 0.8754102316230702, 0.12458976837692971;
    ( 3, 4, 0, 0 ) 0.26040004216326007, 0.7395999578367399;
    ( 3, 4, 0, 1 ) 5.3730076411422675e-12, 0.999999999994627;
    ( 3, 4, 1, 0 ) 0.9440506686158721, 0.05594933138412799;
    ( 3, 4, 1, 1 ) 0.9989807077590553, 0.001019292240944704;
    ( 3, 4, 2, 0 ) 4.187877350606321e-06, 0.9999958121226494;
    ( 3, 4, 2, 1 ) 0.9933696437412363, 0.006630356258763729;
    ( 3, 4, 3, 0 ) 0.768868511424084, 0.231131488575916;
    ( 3, 4, 3, 1 ) 0.999999676871219, 3.2312878099664367e-07;
    ( 3, 4, 4, 0 ) 0.07667867519746348, 0.9233213248025365;
    ( 3, 4, 4, 1 ) 0.9999999771709515, 2.2829048583230992e-08;
    ( 3, 4, 5, 0 ) 0.29260703087434903, 0.707392969125651;
    ( 3, 4, 5, 1 ) 0.999997475803381, 2.5241966189597287e-06;
    ( 3, 4, 6, 0 ) 0.9988724878078226, 0.001127512192177498;
    ( 3, 4, 6, 1 ) 0.9999995419236736, 4.5807632652253086e-07;
    ( 3, 4, 7, 0 ) 0.7018330296646825, 0.2981669703353174;
    ( 3, 4, 7, 1 ) 0.7768163343851937, 0.22318366561480635;
    ( 3, 5, 0, 0 ) 0.5, 0.5;
    ( 3, 5, 0, 1 ) 0.9999999685063706, 3.149362947242375e-08;
    ( 3, 5, 1, 0 ) 5.7439900917113625e-11, 0.9999999999425601;
    ( 3, 5, 1, 1 ) 0.9999999930923379, 6.907662088895679e-09;
    ( 3, 5, 2, 0 ) 0.9999932898488205, 6.710151179379529e-06;
    ( 3, 5, 2, 1 ) 0.9999999999383138, 6.168617022513929e-11;
    ( 3, 5, 3, 0 ) 0.00013663868020562207, 0.9998633613197944;
    ( 3, 5, 3, 1 ) 3.7450459191865786e-08, 0.9999999625495408;
    ( 3, 5, 4, 0 ) 0.9998914249719822, 0.00010857502801772244;
    ( 3, 5, 4, 1 ) 0.9999768154374373, 2.318456256264698e-05;
    ( 3, 5, 5, 0 ) 0.39457984229390974, 0.6054201577060903;
    ( 3, 5, 5, 1 ) 0.6971163061003467, 0.30288369389965336;
    ( 3, 5, 6, 0 ) 0.8608224346250386, 0.13917756537496148;
    ( 3, 5, 6, 1 ) 0.999939521728914, 6.0478271086034065e-05;
    ( 3, 5, 7, 0 ) 0.9226607328021504, 0.0773392671978496;
    ( 3, 5, 7, 1 ) 0.9957244020726567, 0.0042755979273432915;
    ( 4, 0, 0, 0 ) 0.5, 0.5;
    ( 4, 0, 0, 1 ) 0.5, 0.5;
    ( 4, 0, 1, 0 ) 0.5, 0.5;
    ( 4, 0, 1, 1 ) 0.5, 0.5;
    ( 4, 0, 2, 0 ) 0.5, 0.5;
    ( 4, 0, 2, 1 ) 0.5, 0.5;
    ( 4, 0, 3, 0 ) 0.5, 0.5;
    ( 4, 0, 3, 1 ) 0.5, 0.5;
    ( 4, 0, 4, 0 ) 0.5, 0.5;
    ( 4, 0, 4, 1 ) 0.5, 0.5;
    ( 4, 0, 5, 0 ) 0.5, 0.5;
    ( 4, 0, 5, 1 ) 0.5, 0.5;
    ( 4, 0, 6, 0 ) 0.5, 0.5;
    ( 4, 0, 6, 1 ) 0.5, 0.5;
    ( 4, 0, 7, 0 ) 0.5, 0.5;
    ( 4, 0, 7, 1 ) 0.5, 0.5;
    ( 4, 1, 0, 0 ) 0.9999958407675729, 4.159232427138195e-06;
    ( 4, 1, 0, 1 ) 0.5, 0.5;
    ( 4, 1, 1, 0 ) 0.5, 0.5;
    ( 4, 1, 1, 1 ) 0.5, 0.5;
    ( 4, 1, 2, 0 ) 1.023304937858736e-06, 0.9999989766950622;
    ( 4, 1, 2, 1 ) 6.414938197162003e-11, 0.9999999999358506;
    ( 4, 1, 3, 0 ) 0.5, 0.5;
    ( 4, 1, 3, 1 ) 0.2308417057446705, 0.7691582942553294;
    ( 4, 1, 4, 0 ) 0.9999999999671368, 3.286316124414282e-11;
    ( 4, 1, 4, 1 ) 0.9999999315166708, 6.848332917734568e-08;
    ( 4, 1, 5, 0 ) 0.5, 0.5;
    ( 4, 1, 5, 1 ) 0.9999999997457808, 2.542192052998588e-10;
    ( 4, 1, 6, 0 ) 0.5, 0.5;
    ( 4, 1, 6, 1 ) 0.5, 0.5;
    ( 4, 1, 7, 0 ) 0.5, 0.5;
    ( 4, 1, 7, 1 ) 0.5, 0.5;
    ( 4, 2, 0, 0 ) 0.9992839745114601, 0.0007160254885399812;
    ( 4, 2, 0, 1 ) 8.315689735386427e-11, 0.9999999999168431;
    ( 4, 2, 1, 0 ) 7.621673879593031e-11, 0.9999999999237833;
    ( 4, 2, 1, 1 ) 0.9982872508228582, 0.0017127491771418092;
    ( 4, 2, 2, 0 ) 0.9999999999514033, 4.8596630841579855e-11;
    ( 4, 2, 2, 1 ) 6.87763093866343e-11, 0.9999999999312237;
    ( 4, 2, 3, 0 ) 0.9999999987896452, 1.2103548124009428e-09;
    ( 4, 2, 3, 1 ) 0.9999952236065818, 4.776393418314349e-06;
    ( 4, 2, 4, 0 ) 9.767444774354623e-11, 0.9999999999023256;
    ( 4, 2, 4, 1 ) 0.9999999998709509, 1.290491100016927e-10;
    ( 4, 2, 5, 0 ) 0.9959444845296698, 0.0040555154703302955;
    ( 4, 2, 5, 1 ) 0.8953056161354507, 0.10469438386454938;
    ( 4, 2, 6, 0 ) 1.0156184346248955e-07, 0.9999998984381566;
    ( 4, 2, 6, 1 ) 0.5, 0.5;
    ( 4, 2, 7, 0 ) 0.9894585691608425, 0.010541430839157505;
    ( 4, 2, 7, 1 ) 0.9979631941849333, 0.0020368058150667346;
    ( 4, 3, 0, 0 ) 0.999999999928949, 7.105110034778834e-11;
    ( 4, 3, 0, 1 ) 0.10123735929197006, 0.8987626407080299;
    ( 4, 3, 1, 0 ) 0.9999999999166312, 8.33687284082936e-11;
    ( 4, 3, 1, 1 ) 0.0014125598607666327, 0.9985874401392334;
    ( 4, 3, 2, 0 ) 0.5597458033277262, 0.4402541966722737;
    ( 4, 3, 2, 1 ) 0.999995752362766, 4.247637233871274e-06;
    ( 4, 3, 3, 0 ) 0.5322058544734665, 0.46779414552653353;
    ( 4, 3, 3, 1 ) 2.8810667891407785e-07, 0.999999711893321;
    ( 4, 3, 4, 0 ) 0.9999733747206533, 2.662527934678012e-05;
    ( 4, 3, 4, 1 ) 0.999999847993068, 1.5200693207846258e-07;
    ( 4, 3, 5, 0 ) 0.5940784036631332, 0.40592159633686675;
    ( 4, 3, 5, 1 ) 0.8320927626895795, 0.16790723731042043;
    ( 4, 3, 6, 0 ) 0.3772344999702378, 0.6227655000297622;
    ( 4, 3, 6, 1 ) 0.5243099633951833, 0.4756900366048167;
    ( 4, 3, 7, 0 ) 0.9997192226787727, 0.0002807773212273355;
    ( 4, 3, 7, 1 ) 0.7421438308812176, 0.2578561691187824;
    ( 4, 4, 0, 0 ) 7.848929469234382e-11, 0.9999999999215107;
    ( 4, 4, 0, 1 ) 0.9999999999304066, 6.959352057226722e-11;
    ( 4, 4, 1, 0 ) 0.5260737844949258, 0.47392621550507424;
    ( 4, 4, 1, 1 ) 0.0632689867270872, 0.9367310132729129;
    ( 4, 4, 2, 0 ) 0.5145853787648845, 0.4854146212351154;
    ( 4, 4, 2, 1 ) 0.9999935292137911, 6.470786208837944e-06;
    ( 4, 4, 3, 0 ) 0.02935073252063684, 0.9706492674793632;
    ( 4, 4, 3, 1 ) 0.9997440818928837, 0.00025591810711636303;
    ( 4, 4, 4, 0 ) 0.7419991510355175, 0.25800084896448255;
    ( 4, 4, 4, 1 ) 0.449475560727156, 0.550524439272844;
    ( 4, 4, 5, 0 ) 0.6814572268320446, 0.31854277316795543;
    ( 4, 4, 5, 1 ) 0.5442121675753424, 0.4557878324246576;
    ( 4, 4, 6, 0 ) 0.5739978145007829, 0.42600218549921703;
    ( 4, 4, 6, 1 ) 0.7990299913047452, 0.20097000869525486;
    ( 4, 4, 7, 0 ) 0.6877314476345819, 0.312268552365418;
    ( 4, 4, 7, 1 ) 0.984812512067349, 0.015187487932650963;
    ( 4, 5, 0, 0 ) 0.9998814051564124, 0.00011859484358758143;
    ( 4, 5, 0, 1 ) 0.5, 0.5;
    ( 4, 5, 1, 0 ) 4.101157769751816e-07, 0.999999589884223;
    ( 4, 5, 1, 1 ) 0.9999999999392215, 6.07784677615652e-11;
    ( 4, 5, 2, 0 ) 0.9995354303762832, 0.00046456962371683883;
    ( 4, 5, 2, 1 ) 0.999999999922261, 7.773911075347893e-11;
    ( 4, 5, 3, 0 ) 0.9999998138256806, 1.8617431934480742e-07;
    ( 4, 5, 3, 1 ) 0.986129099363337, 0.013870900636663018;
    ( 4, 5, 4, 0 ) 0.9999744746825735, 2.5525317426549727e-05;
    ( 4, 5, 4, 1 ) 0.9999593079147635, 4.069208523653893e-05;
    ( 4, 5, 5, 0 ) 0.41334217505907406, 0.5866578249409259;
    ( 4, 5, 5, 1 ) 0.999999997578664, 2.421336068126609e-09;
    ( 4, 5, 6, 0 ) 0.9334640360151301, 0.06653596398486987;
    ( 4, 5, 6, 1 ) 0.8572211761964845, 0.14277882380351548;
    ( 4, 5, 7, 0 ) 0.9259248966768662, 0.07407510332313377;
    ( 4, 5, 7, 1 ) 0.909504905888349, 0.09049509411165102;
    ( 5, 0, 0, 0 ) 0.9999999999836773, 1.6322659889731773e-11;
    ( 5, 0, 0, 1 ) 0.5, 0.5;
    ( 5, 0, 1, 0 ) 0.5, 0.5;
    ( 5, 0, 1, 1 ) 0.5, 0.5;
    ( 5, 0, 2, 0 ) 0.9999999999541592, 4.58407538499077e-11;
    ( 5, 0, 2, 1 ) 0.5, 0.5;
    ( 5, 0, 3, 0 ) 0.5, 0.5;
    ( 5, 0, 3, 1 ) 0.5, 0.5;
    ( 5, 0, 4, 0 ) 0.5, 0.5;
    ( 5, 0, 4, 1 ) 0.5, 0.5;
    ( 5, 0, 5, 0 ) 0.5, 0.5;
    ( 5, 0, 5, 1 ) 0.5, 0.5;
    ( 5, 0, 6, 0 ) 0.5, 0.5;
    ( 5, 0, 6, 1 ) 0.5, 0.5;
    ( 5, 0, 7, 0 ) 0.5, 0.5;
    ( 5, 0, 7, 1 ) 0.5, 0.5;
    ( 5, 1, 0, 0 ) 0.1377674789372342, 0.8622325210627658;
    ( 5, 1, 0, 1 ) 5.592146584752548e-11, 0.9999999999440785;
    ( 5, 1, 1, 0 ) 0.9999957983577564, 4.201642243590732e-06;
    ( 5, 1, 1, 1 ) 0.5, 0.5;
    ( 5, 1, 2, 0 ) 0.9993391581733932, 0.0006608418266067219;
    ( 5, 1, 2, 1 ) 0.004814615120409463, 0.9951853848795905;
    ( 5, 1, 3, 0 ) 0.9983983572599453, 0.0016016427400547663;
    ( 5, 1, 3, 1 ) 0.9999999976862514, 2.3137486799537177e-09;
    ( 5, 1, 4, 0 ) 9.005400401021611e-11, 0.999999999909946;
    ( 5, 1, 4, 1 ) 0.5, 0.5;
    ( 5, 1, 5, 0 ) 0.5, 0.5;
    ( 5, 1, 5, 1 ) 0.9999991675294077, 8.324705923194443e-07;
    ( 5, 1, 6, 0 ) 0.5, 0.5;
    ( 5, 1, 6, 1 ) 0.9998561836378574, 0.00014381636214256312;
    ( 5, 1, 7, 0 ) 0.5, 0.5;
    ( 5, 1, 7, 1 ) 0.5, 0.5;
    ( 5, 2, 0, 0 ) 0.3333928773819444, 0.6666071226180557;
    ( 5, 2, 0, 1 ) 7.266862988572516e-11, 0.9999999999273314;
    ( 5, 2, 1, 0 ) 0.5, 0.5;
    ( 5, 2, 1, 1 ) 0.9999999999423235, 5.7676514853312565e-11;
    ( 5, 2, 2, 0 ) 0.9999999905834375, 9.416562467883184e-09;
    ( 5, 2, 2, 1 ) 0.5348726355266369, 0.46512736447336306;
    ( 5, 2, 3, 0 ) 0.9983476894875476, 0.0016523105124524183;
    ( 5, 2, 3, 1 ) 4.445538637207779e-11, 0.9999999999555446;
    ( 5, 2, 4, 0 ) 0.9999999999290289, 7.097111215885358e-11;
    ( 5, 2, 4, 1 ) 5.291061509108421e-11, 0.9999999999470894;
    ( 5, 2, 5, 0 ) 0.9999999844878741, 1.5512125934457753e-08;
    ( 5, 2, 5, 1 ) 0.9992960494311821, 0.0007039505688178361;
    ( 5, 2, 6, 0 ) 0.9999999999303306, 6.966943814446197e-11;
    ( 5, 2, 6, 1 ) 4.673860276533107e-11, 0.9999999999532614;
    ( 5, 2, 7, 0 ) 0.5, 0.5;
    ( 5, 2, 7, 1 ) 0.9999999999312635, 6.873638712179145e-11;
    ( 5, 3, 0, 0 ) 0.3613017338248977, 0.6386982661751024;
    ( 5, 3, 0, 1 ) 0.25779900205861367, 0.7422009979413864;
    ( 5, 3, 1, 0 ) 0.4069423790771892, 0.5930576209228107;
    ( 5, 3, 1, 1 ) 0.3946463219541519, 0.605353678045848;
    ( 5, 3, 2, 0 ) 0.5587980967636791, 0.44120190323632097;
    ( 5, 3, 2, 1 ) 0.42272451312303577, 0.5772754868769643;
    ( 5, 3, 3, 0 ) 0.0007637346753696807, 0.9992362653246303;
    ( 5, 3, 3, 1 ) 0.19652810784714672, 0.8034718921528533;
    ( 5, 3, 4, 0 ) 0.663141456648432, 0.33685854335156795;
    ( 5, 3, 4, 1 ) 0.2743043211620739, 0.725695678837926;
    ( 5, 3, 5, 0 ) 0.0050253003396566335, 0.9949746996603435;
    ( 5, 3, 5, 1 ) 0.48827657238670924, 0.5117234276132908;
    ( 5, 3, 6, 0 ) 0.7309078677379126, 0.2690921322620874;
    ( 5, 3, 6, 1 ) 0.5182714140865975, 0.48172858591340245;
    ( 5, 3, 7, 0 ) 0.7043771833233469, 0.29562281667665313;
    ( 5, 3, 7, 1 ) 0.8154127430249323, 0.18458725697506767;
    ( 5, 4, 0, 0 ) 7.74267620200183e-11, 0.9999999999225733;
    ( 5, 4, 0, 1 ) 0.9999999999477676, 5.223246006449034e-11;
    ( 5, 4, 1, 0 ) 0.9999475496634945, 5.2450336505475124e-05;
    ( 5, 4, 1, 1 ) 0.7213375571855024, 0.2786624428144976;
    ( 5, 4, 2, 0 ) 0.9999999694460098, 3.055399024004678e-08;
    ( 5, 4, 2, 1 ) 0.32897922156512743, 0.6710207784348726;
    ( 5, 4, 3, 0 ) 0.9999999975736236, 2.4263764745990963e-09;
    ( 5, 4, 3, 1 ) 0.548253056728983, 0.451746943271017;
    ( 5, 4, 4, 0 ) 0.027022613753017222, 0.9729773862469827;
    ( 5, 4, 4, 1 ) 0.6816782821090891, 0.3183217178909109;
    ( 5, 4, 5, 0 ) 0.7698485200833682, 0.23015147991663168;
    ( 5, 4, 5, 1 ) 0.7072131408073397, 0.2927868591926604;
    ( 5, 4, 6, 0 ) 0.9999896757410549, 1.0324258945144193e-05;
    ( 5, 4, 6, 1 ) 0.7559856628766469, 0.24401433712335308;
    ( 5, 4, 7, 0 ) 0.9146134135751817, 0.08538658642481826;
    ( 5, 4, 7, 1 ) 0.8290184963625592, 0.17098150363744075;
    ( 5, 5, 0, 0 ) 0.9999963840469792, 3.6159530208285854e-06;
    ( 5, 5, 0, 1 ) 0.9999999999142726, 8.572740950948416e-11;
    ( 5, 5, 1, 0 ) 0.9998838125455668, 0.0001161874544331665;
    ( 5, 5, 1, 1 ) 0.9999999941429606, 5.857039432687633e-09;
    ( 5, 5, 2, 0 ) 0.9971356979241952, 0.0028643020758048264;
    ( 5, 5, 2, 1 ) 7.971421293913593e-11, 0.9999999999202858;
    ( 5, 5, 3, 0 ) 0.6552145171967274, 0.3447854828032726;
    ( 5, 5, 3, 1 ) 0.6149967966019342, 0.3850032033980658;
    ( 5, 5, 4, 0 ) 0.42526720255329137, 0.5747327974467086;
    ( 5, 5, 4, 1 ) 0.9999999798371231, 2.0162876942951713e-08;
    ( 5, 5, 5, 0 ) 0.6611286491927504, 0.3388713508072497;
    ( 5, 5, 5, 1 ) 0.9999999758107961, 2.4189203823794315e-08;
    ( 5, 5, 6, 0 ) 0.9348731366292998, 0.06512686337070019;
    ( 5, 5, 6, 1 ) 0.8821824085872475, 0.11781759141275248;
    ( 5, 5, 7, 0 ) 0.9478914043839473, 0.05210859561605268;
    ( 5, 5, 7, 1 ) 0.7532522489809264, 0.24674775101907362;
    ( 6, 0, 0, 0 ) 0.5, 0.5;
    ( 6, 0, 0, 1 ) 0.5, 0.5;
    ( 6, 0, 1, 0 ) 0.5, 0.5;
    ( 6, 0, 1, 1 ) 0.5, 0.5;
    ( 6, 0, 2, 0 ) 0.5, 0.5;
    ( 6, 0, 2, 1 ) 0.5, 0.5;
    ( 6, 0, 3, 0 ) 0.8990622123445584, 0.10093778765544162;
    ( 6, 0, 3, 1 ) 0.5, 0.5;
    ( 6, 0, 4, 0 ) 0.5, 0.5;
    ( 6, 0, 4, 1 ) 0.5, 0.5;
    ( 6, 0, 5, 0 ) 0.5, 0.5;
    ( 6, 0, 5, 1 ) 0.5, 0.5;
    ( 6, 0, 6, 0 ) 0.5, 0.5;
    ( 6, 0, 6, 1 ) 0.5, 0.5;
    ( 6, 0, 7, 0 ) 0.5, 0.5;
    ( 6, 0, 7, 1 ) 0.5, 0.5;
    ( 6, 1, 0, 0 ) 0.441990980007226, 0.558009019992774;
    ( 6, 1, 0, 1 ) 0.9933816348163215, 0.0066183651836785404;
    ( 6, 1, 1, 0 ) 7.550919862977663e-11, 0.9999999999244908;
    ( 6, 1, 1, 1 ) 5.346001799034576e-12, 0.999999999994654;
    ( 6, 1, 2, 0 ) 0.9982533148845105, 0.0017466851154895116;
    ( 6, 1, 2, 1 ) 0.9999999999798559, 2.014414152078305e-11;
    ( 6, 1, 3, 0 ) 0.9999993434280242, 6.565719758375279e-07;
    ( 6, 1, 3, 1 ) 0.999999999926481, 7.351893632500588e-11;
    ( 6, 1, 4, 0 ) 0.9999999989693105, 1.030689483538725e-09;
    ( 6, 1, 4, 1 ) 0.5, 0.5;
    ( 6, 1, 5, 0 ) 5.58214644635147e-11, 0.9999999999441785;
    ( 6, 1, 5, 1 ) 0.5, 0.5;
    ( 6, 1, 6, 0 ) 0.5, 0.5;
    ( 6, 1, 6, 1 ) 5.976223199850595e-11, 0.9999999999402378;
    ( 6, 1, 7, 0 ) 0.5, 0.5;
    ( 6, 1, 7, 1 ) 0.5, 0.5;
    ( 6, 2, 0, 0 ) 7.830965657686134e-11, 0.9999999999216903;
    ( 6, 2, 0, 1 ) 0.9999999999512014, 4.8798623979794546e-11;
    ( 6, 2, 1, 0 ) 2.4663647744113757e-08, 0.9999999753363523;
    ( 6, 2, 1, 1 ) 0.9999999999145226, 8.54773695340391e-11;
    ( 6, 2, 2, 0 ) 0.6724405825808559, 0.327559417419144;
    ( 6, 2, 2, 1 ) 0.6793063852942344, 0.3206936147057655;
    ( 6, 2, 3, 0 ) 0.648674933665415, 0.3513250663345851;
    ( 6, 2, 3, 1 ) 0.20756103863987427, 0.7924389613601257;
    ( 6, 2, 4, 0 ) 1.2643161576195713e-06, 0.9999987356838425;
    ( 6, 2, 4, 1 ) 0.9999999828974816, 1.7102518330110514e-08;
    ( 6, 2, 5, 0 ) 0.9999778393817979, 2.216061820210296e-05;
    ( 6, 2, 5, 1 ) 0.3654453524855587, 0.6345546475144412;
    ( 6, 2, 6, 0 ) 0.9999999999261694, 7.383061318792818e-11;
    ( 6, 2, 6, 1 ) 0.9928180379131536, 0.007181962086846422;
    ( 6, 2, 7, 0 ) 0.9999999999300292, 6.997085632093701e-11;
    ( 6, 2, 7, 1 ) 0.32238167643462873, 0.6776183235653712;
    ( 6, 3, 0, 0 ) 0.22102624071189775, 0.7789737592881022;
    ( 6, 3, 0, 1 ) 0.5649538745595992, 0.4350461254404007;
    ( 6, 3, 1, 0 ) 0.27400344704703267, 0.7259965529529674;
    ( 6, 3, 1, 1 ) 0.4632115198457901, 0.5367884801542099;
    ( 6, 3, 2, 0 ) 0.4767461118653938, 0.5232538881346063;
    ( 6, 3, 2, 1 ) 0.6593653549765287, 0.34063464502347124;
    ( 6, 3, 3, 0 ) 0.4164043127482602, 0.5835956872517397;
    ( 6, 3, 3, 1 ) 0.822012347697786, 0.17798765230221408;
    ( 6, 3, 4, 0 ) 0.5504184126718636, 0.44958158732813636;
    ( 6, 3, 4, 1 ) 0.76361799544654, 0.23638200455346006;
    ( 6, 3, 5, 0 ) 0.5286181612845691, 0.471381838715431;
    ( 6, 3, 5, 1 ) 0.6564290679942125, 0.34357093200578753;
    ( 6, 3, 6, 0 ) 0.49164598257682085, 0.5083540174231792;
    ( 6, 3, 6, 1 ) 0.6071229914176779, 0.39287700858232205;
    ( 6, 3, 7, 0 ) 0.5416284957557376, 0.4583715042442624;
    ( 6, 3, 7, 1 ) 0.44243723846851113, 0.557562761531489;
    ( 6, 4, 0, 0 ) 0.6019000371494617, 0.39809996285053834;
    ( 6, 4, 0, 1 ) 6.356211149741598e-11, 0.999999999936438;
    ( 6, 4, 1, 0 ) 0.47317816219247405, 0.5268218378075259;
    ( 6, 4, 1, 1 ) 0.4862598386568953, 0.5137401613431047;
    ( 6, 4, 2, 0 ) 0.7842076000616622, 0.2157923999383378;
    ( 6, 4, 2, 1 ) 0.0021141661395717294, 0.9978858338604284;
    ( 6, 4, 3, 0 ) 0.4040240630064695, 0.5959759369935305;
    ( 6, 4, 3, 1 ) 0.6511399235448433, 0.34886007645515676;
    ( 6, 4, 4, 0 ) 0.4069057497585251, 0.5930942502414749;
    ( 6, 4, 4, 1 ) 0.8562930313301973, 0.14370696866980276;
    ( 6, 4, 5, 0 ) 0.7761656260415615, 0.2238343739584385;
    ( 6, 4, 5, 1 ) 0.9999999991884023, 8.115977449839198e-10;
    ( 6, 4, 6, 0 ) 0.7839138968882295, 0.2160861031117705;
    ( 6, 4, 6, 1 ) 0.4615857719241292, 0.5384142280758709;
    ( 6, 4, 7, 0 ) 0.5190740460310648, 0.48092595396893517;
    ( 6, 4, 7, 1 ) 0.5273895619315598, 0.47261043806844016;
    ( 6, 5, 0, 0 ) 8.370728521447098e-10, 0.9999999991629273;
    ( 6, 5, 0, 1 ) 0.9983952918598519, 0.0016047081401481089;
    ( 6, 5, 1, 0 ) 0.610035486897609, 0.389964513102391;
    ( 6, 5, 1, 1 ) 0.9999999999450581, 5.494194237324652e-11;
    ( 6, 5, 2, 0 ) 0.11755814103517609, 0.882441858964824;
    ( 6, 5, 2, 1 ) 1.7779218318626205e-06, 0.9999982220781682;
    ( 6, 5, 3, 0 ) 6.71061828621757e-10, 0.9999999993289381;
    ( 6, 5, 3, 1 ) 0.9999999999218936, 7.810639167499727e-11;
    ( 6, 5, 4, 0 ) 0.7723556346380807, 0.2276443653619194;
    ( 6, 5, 4, 1 ) 0.18942622598363495, 0.8105737740163651;
    ( 6, 5, 5, 0 ) 0.9239921636604166, 0.07600783633958351;
    ( 6, 5, 5, 1 ) 0.08047020587601299, 0.919529794123987;
    ( 6, 5, 6, 0 ) 0.8261019447416172, 0.17389805525838273;
    ( 6, 5, 6, 1 ) 0.19741318500257085, 0.8025868149974291;
    ( 6, 5, 7, 0 ) 0.8287234786598623, 0.1712765213401377;
    ( 6, 5, 7, 1 ) 0.6498979524426995, 0.35010204755730034;
    ( 7, 0, 0, 0 ) 0.5, 0.5;
    ( 7, 0, 0, 1 ) 0.5, 0.5;
    ( 7, 0, 1, 0 ) 0.5, 0.5;
    ( 7, 0, 1, 1 ) 0.5, 0.5;
    ( 7, 0, 2, 0 ) 0.5, 0.5;
    ( 7, 0, 2, 1 ) 0.5, 0.5;
    ( 7, 0, 3, 0 ) 0.5, 0.5;
    ( 7, 0, 3, 1 ) 0.5, 0.5;
    ( 7, 0, 4, 0 ) 0.5, 0.5;
    ( 7, 0, 4, 1 ) 0.5, 0.5;
    ( 7, 0, 5, 0 ) 0.5, 0.5;
    ( 7, 0, 5, 1 ) 0.5, 0.5;
    ( 7, 0, 6, 0 ) 0.5, 0.5;
    ( 7, 0, 6, 1 ) 0.5, 0.5;
    ( 7, 0, 7, 0 ) 0.5, 0.5;
    ( 7, 0, 7, 1 ) 5.274477551843146e-12, 0.9999999999947256;
    ( 7, 1, 0, 0 ) 0.07959622794802498, 0.920403772051975;
    ( 7, 1, 0, 1 ) 0.9999999999303134, 6.968662518582235e-11;
    ( 7, 1, 1, 0 ) 0.9999999999518331, 4.81669656981092e-11;
    ( 7, 1, 1, 1 ) 0.99999999992303, 7.696996161018213e-11;
    ( 7, 1, 2, 0 ) 0.05988569092691958, 0.9401143090730805;
    ( 7, 1, 2, 1 ) 5.44260583567557e-12, 0.9999999999945574;
    ( 7, 1, 3, 0 ) 3.555676798713625e-05, 0.999964443232013;
    ( 7, 1, 3, 1 ) 0.9999968785064705, 3.12149352953438e-06;
    ( 7, 1, 4, 0 ) 0.13861358295840573, 0.8613864170415942;
    ( 7, 1, 4, 1 ) 0.9999999499226845, 5.0077315552072646e-08;
    ( 7, 1, 5, 0 ) 0.5, 0.5;
    ( 7, 1, 5, 1 ) 0.9999628357703044, 3.7164229695524054e-05;
    ( 7, 1, 6, 0 ) 3.744564091690588e-12, 0.9999999999962554;
    ( 7, 1, 6, 1 ) 0.5, 0.5;
    ( 7, 1, 7, 0 ) 0.5, 0.5;
    ( 7, 1, 7, 1 ) 5.0375301909106254e-11, 0.9999999999496247;
    ( 7, 2, 0, 0 ) 0.5804663225752065, 0.4195336774247934;
    ( 7, 2, 0, 1 ) 6.372984351901418e-11, 0.9999999999362702;
    ( 7, 2, 1, 0 ) 0.5152788767241063, 0.4847211232758937;
    ( 7, 2, 1, 1 ) 0.5170990538648524, 0.48290094613514756;
    ( 7, 2, 2, 0 ) 8.241843646362529e-11, 0.9999999999175815;
    ( 7, 2, 2, 1 ) 4.269037047235869e-09, 0.999999995730963;
    ( 7, 2, 3, 0 ) 0.014894683133889183, 0.9851053168661108;
    ( 7, 2, 3, 1 ) 0.980166958968757, 0.01983304103124294;
    ( 7, 2, 4, 0 ) 0.9999998577909623, 1.4220903763921132e-07;
    ( 7, 2, 4, 1 ) 0.2181269110218118, 0.7818730889781881;
    ( 7, 2, 5, 0 ) 7.658894920576403e-11, 0.999999999923411;
    ( 7, 2, 5, 1 ) 7.259701432098378e-09, 0.9999999927402986;
    ( 7, 2, 6, 0 ) 0.010206734878112448, 0.9897932651218875;
    ( 7, 2, 6, 1 ) 1.3419488259448986e-10, 0.9999999998658051;
    ( 7, 2, 7, 0 ) 0.5919261571188067, 0.4080738428811933;
    ( 7, 2, 7, 1 ) 0.32830307975803263, 0.6716969202419673;
    ( 7, 3, 0, 0 ) 0.8333288887351934, 0.16667111126480666;
    ( 7, 3, 0, 1 ) 0.9219597023300933, 0.07804029766990678;
    ( 7, 3, 1, 0 ) 0.957470147138528, 0.042529852861472;
    ( 7, 3, 1, 1 ) 0.4561677204912658, 0.5438322795087341;
    ( 7, 3, 2, 0 ) 0.0648493057220995, 0.9351506942779004;
    ( 7, 3, 2, 1 ) 0.49042965544057765, 0.5095703445594224;
    ( 7, 3, 3, 0 ) 0.4557992003374933, 0.5442007996625067;
    ( 7, 3, 3, 1 ) 0.2126733319827088, 0.7873266680172913;
    ( 7, 3, 4, 0 ) 0.10295363972188375, 0.8970463602781162;
    ( 7, 3, 4, 1 ) 0.12156509639423918, 0.8784349036057608;
    ( 7, 3, 5, 0 ) 0.7219718493987535, 0.2780281506012466;
    ( 7, 3, 5, 1 ) 0.5711421069187901, 0.42885789308121;
    ( 7, 3, 6, 0 ) 0.7481168800827832, 0.2518831199172168;
    ( 7, 3, 6, 1 ) 0.45863771264331593, 0.541362287356684;
    ( 7, 3, 7, 0 ) 0.6365264898497179, 0.36347351015028206;
    ( 7, 3, 7, 1 ) 0.4687653373576495, 0.5312346626423504;
    ( 7, 4, 0, 0 ) 0.14653237801172941, 0.8534676219882706;
    ( 7, 4, 0, 1 ) 0.11798941115158357, 0.8820105888484164;
    ( 7, 4, 1, 0 ) 0.35208662569971066, 0.6479133743002893;
    ( 7, 4, 1, 1 ) 0.8119194332153863, 0.1880805667846137;
    ( 7, 4, 2, 0 ) 0.4970110236964042, 0.5029889763035958;
    ( 7, 4, 2, 1 ) 0.8991789141145438, 0.10082108588545632;
    ( 7, 4, 3, 0 ) 0.21682161706341746, 0.7831783829365825;
    ( 7, 4, 3, 1 ) 0.5388334721076187, 0.46116652789238133;
    ( 7, 4, 4, 0 ) 0.5532224292848498, 0.44677757071515023;
    ( 7, 4, 4, 1 ) 0.3923049195717883, 0.6076950804282116;
    ( 7, 4, 5, 0 ) 0.24557650695927166, 0.7544234930407283;
    ( 7, 4, 5, 1 ) 0.5910635251506005, 0.4089364748493996;
    ( 7, 4, 6, 0 ) 0.5057559920544018, 0.49424400794559814;
    ( 7, 4, 6, 1 ) 0.701811190293295, 0.29818880970670497;
    ( 7, 4, 7, 0 ) 0.7516464373029625, 0.24835356269703737;
    ( 7, 4, 7, 1 ) 0.4342162634998434, 0.5657837365001567;
    ( 7, 5, 0, 0 ) 0.2673765242339947, 0.7326234757660053;
    ( 7, 5, 0, 1 ) 0.15130682187990857, 0.8486931781200914;
    ( 7, 5, 1, 0 ) 0.20073464779627592, 0.7992653522037241;
    ( 7, 5, 1, 1 ) 0.0021384245104483935, 0.9978615754895517;
    ( 7, 5, 2, 0 ) 0.7157048773694806, 0.2842951226305193;
    ( 7, 5, 2, 1 ) 0.9999999995891963, 4.1080373339655604e-10;
    ( 7, 5, 3, 0 ) 0.2900523661979236, 0.7099476338020764;
    ( 7, 5, 3, 1 ) 0.22096521171172764, 0.7790347882882724;
    ( 7, 5, 4, 0 ) 0.38950286509429544, 0.6104971349057046;
    ( 7, 5, 4, 1 ) 0.05311901641383904, 0.946880983586161;
    ( 7, 5, 5, 0 ) 0.9201683845768229, 0.07983161542317704;
    ( 7, 5, 5, 1 ) 0.6794336817292689, 0.32056631827073107;
    ( 7, 5, 6, 0 ) 0.5599270681285055, 0.4400729318714945;
    ( 7, 5, 6, 1 ) 0.5014710638577314, 0.4985289361422686;
    ( 7, 5, 7, 0 ) 0.6954630731684642, 0.30453692683153577;
    ( 7, 5, 7, 1 ) 0.6188916373324017, 0.38110836266759823;
    ( 8, 0, 0, 0 ) 0.9999999999059515, 9.404852983952428e-11;
    ( 8, 0, 0, 1 ) 0.5, 0.5;
    ( 8, 0, 1, 0 ) 5.4381199734648794e-12, 0.9999999999945619;
    ( 8, 0, 1, 1 ) 0.5, 0.5;
    ( 8, 0, 2, 0 ) 0.5, 0.5;
    ( 8, 0, 2, 1 ) 0.5, 0.5;
    ( 8, 0, 3, 0 ) 0.5, 0.5;
    ( 8, 0, 3, 1 ) 0.5, 0.5;
    ( 8, 0, 4, 0 ) 0.5, 0.5;
    ( 8, 0, 4, 1 ) 0.5, 0.5;
    ( 8, 0, 5, 0 ) 5.273833268734207e-12, 0.9999999999947261;
    ( 8, 0, 5, 1 ) 0.5, 0.5;
    ( 8, 0, 6, 0 ) 0.5, 0.5;
    ( 8, 0, 6, 1 ) 0.5, 0.5;
    ( 8, 0, 7, 0 ) 0.9999999381062805, 6.189371949312242e-08;
    ( 8, 0, 7, 1 ) 0.5, 0.5;
    ( 8, 1, 0, 0 ) 6.987720154771837e-11, 0.9999999999301229;
    ( 8, 1, 0, 1 ) 0.0014058446256972848, 0.9985941553743026;
    ( 8, 1, 1, 0 ) 7.317140252036869e-11, 0.9999999999268286;
    ( 8, 1, 1, 1 ) 2.3602305866035678e-11, 0.9999999999763978;
    ( 8, 1, 2, 0 ) 7.705068851333149e-11, 0.9999999999229493;
    ( 8, 1, 2, 1 ) 0.9999999999660087, 3.399128572254419e-11;
    ( 8, 1, 3, 0 ) 5.305027922272217e-12, 0.9999999999946949;
    ( 8, 1, 3, 1 ) 5.241504476224466e-11, 0.999999999947585;
    ( 8, 1, 4, 0 ) 4.563806557083916e-12, 0.9999999999954362;
    ( 8, 1, 4, 1 ) 5.1000917198943554e-12, 0.9999999999948999;
    ( 8, 1, 5, 0 ) 0.5, 0.5;
    ( 8, 1, 5, 1 ) 0.00018497589207640386, 0.9998150241079236;
    ( 8, 1, 6, 0 ) 0.5, 0.5;
    ( 8, 1, 6, 1 ) 0.5, 0.5;
    ( 8, 1, 7, 0 ) 4.511196560805976e-12, 0.9999999999954888;
    ( 8, 1, 7, 1 ) 0.5, 0.5;
    ( 8, 2, 0, 0 ) 0.6962032756623567, 0.3037967243376433;
    ( 8, 2, 0, 1 ) 0.544612952215305, 0.45538704778469496;
    ( 8, 2, 1, 0 ) 1.8467159619576212e-08, 0.9999999815328404;
    ( 8, 2, 1, 1 ) 0.5547127814503209, 0.44528721854967906;
    ( 8, 2, 2, 0 ) 0.22593088213912582, 0.7740691178608743;
    ( 8, 2, 2, 1 ) 0.9997446798159451, 0.0002553201840550219;
    ( 8, 2, 3, 0 ) 0.9999999974355847, 2.564415353277603e-09;
    ( 8, 2, 3, 1 ) 0.9999999351652443, 6.483475572385187e-08;
    ( 8, 2, 4, 0 ) 3.2587578002215705e-06, 0.9999967412421997;
    ( 8, 2, 4, 1 ) 0.999999998269802, 1.730197993866371e-09;
    ( 8, 2, 5, 0 ) 0.9999999999937864, 6.213494182727236e-12;
    ( 8, 2, 5, 1 ) 0.20971419068971303, 0.7902858093102869;
    ( 8, 2, 6, 0 ) 0.9999999998286452, 1.713548588803968e-10;
    ( 8, 2, 6, 1 ) 0.9999999975161784, 2.483821580631486e-09;
    ( 8, 2, 7, 0 ) 3.867359713990639e-11, 0.9999999999613264;
    ( 8, 2, 7, 1 ) 0.9999848765134473, 1.5123486552810129e-05;
    ( 8, 3, 0, 0 ) 0.00011436022163778955, 0.9998856397783622;
    ( 8, 3, 0, 1 ) 2.654860120313305e-09, 0.9999999973451399;
    ( 8, 3, 1, 0 ) 0.3616312607583949, 0.6383687392416051;
    ( 8, 3, 1, 1 ) 0.14625911856635232, 0.8537408814336477;
    ( 8, 3, 2, 0 ) 0.0030350103798853965, 0.9969649896201146;
    ( 8, 3, 2, 1 ) 0.4239920347377824, 0.5760079652622176;
    ( 8, 3, 3, 0 ) 0.4253458607873476, 0.5746541392126523;
    ( 8, 3, 3, 1 ) 0.24936357763982406, 0.7506364223601759;
    ( 8, 3, 4, 0 ) 0.7077630077825545, 0.2922369922174454;
    ( 8, 3, 4, 1 ) 0.023812085993886272, 0.9761879140061137;
    ( 8, 3, 5, 0 ) 0.38399480278904763, 0.6160051972109524;
    ( 8, 3, 5, 1 ) 0.22122996299296238, 0.7787700370070376;
    ( 8, 3, 6, 0 ) 0.4416778277381989, 0.558322172261801;
    ( 8, 3, 6, 1 ) 0.563061199292849, 0.4369388007071509;
    ( 8, 3, 7, 0 ) 0.677421807166545, 0.322578192833455;
    ( 8, 3, 7, 1 ) 0.6487036502506083, 0.3512963497493918;
    ( 8, 4, 0, 0 ) 0.4158179544818283, 0.5841820455181718;
    ( 8, 4, 0, 1 ) 0.27166485643729, 0.72833514356271;
    ( 8, 4, 1, 0 ) 0.36575448534811134, 0.6342455146518886;
    ( 8, 4, 1, 1 ) 0.2810360400450417, 0.7189639599549583;
    ( 8, 4, 2, 0 ) 0.18689848169542975, 0.8131015183045702;
    ( 8, 4, 2, 1 ) 4.2739765744703295e-06, 0.9999957260234255;
    ( 8, 4, 3, 0 ) 0.5174949607468656, 0.48250503925313437;
    ( 8, 4, 3, 1 ) 0.5238378231953491, 0.4761621768046509;
    ( 8, 4, 4, 0 ) 0.46360622467136736, 0.5363937753286326;
    ( 8, 4, 4, 1 ) 0.4252984288049934, 0.5747015711950065;
    ( 8, 4, 5, 0 ) 0.16885014621427535, 0.8311498537857246;
    ( 8, 4, 5, 1 ) 0.1621890275042586, 0.8378109724957414;
    ( 8, 4, 6, 0 ) 0.6318064703449309, 0.3681935296550692;
    ( 8, 4, 6, 1 ) 0.5639361124202544, 0.4360638875797455;
    ( 8, 4, 7, 0 ) 0.4832566109346558, 0.5167433890653442;
    ( 8, 4, 7, 1 ) 0.42258142064471466, 0.5774185793552854;
    ( 8, 5, 0, 0 ) 0.7292912618042441, 0.2707087381957559;
    ( 8, 5, 0, 1 ) 0.001541192066660876, 0.9984588079333392;
    ( 8, 5, 1, 0 ) 0.4804314944568102, 0.5195685055431898;
    ( 8, 5, 1, 1 ) 7.060993047541623e-11, 0.9999999999293901;
    ( 8, 5, 2, 0 ) 0.020654080187080166, 0.9793459198129199;
    ( 8, 5, 2, 1 ) 1.9319029217130953e-07, 0.9999998068097078;
    ( 8, 5, 3, 0 ) 0.5948840453049685, 0.4051159546950314;
    ( 8, 5, 3, 1 ) 1.66668452273421e-06, 0.9999983333154773;
    ( 8, 5, 4, 0 ) 0.6128964660529306, 0.3871035339470695;
    ( 8, 5, 4, 1 ) 0.7850460853329069, 0.21495391466709304;
    ( 8, 5, 5, 0 ) 0.5642493673443654, 0.43575063265563463;
    ( 8, 5, 5, 1 ) 0.5552966474990816, 0.44470335250091847;
    ( 8, 5, 6, 0 ) 0.40600514599262627, 0.5939948540073737;
    ( 8, 5, 6, 1 ) 0.5843699974616137, 0.41563000253838633;
    ( 8, 5, 7, 0 ) 0.6272971753599519, 0.37270282464004817;
    ( 8, 5, 7, 1 ) 0.6492441047283675, 0.35075589527163253;
    ( 9, 0, 0, 0 ) 0.5, 0.5;
    ( 9, 0, 0, 1 ) 0.5, 0.5;
    ( 9, 0, 1, 0 ) 0.5, 0.5;
    ( 9, 0, 1, 1 ) 0.5, 0.5;
    ( 9, 0, 2, 0 ) 0.5, 0.5;
    ( 9, 0, 2, 1 ) 0.5, 0.5;
    ( 9, 0, 3, 0 ) 0.5, 0.5;
    ( 9, 0, 3, 1 ) 0.5, 0.5;
    ( 9, 0, 4, 0 ) 0.5, 0.5;
    ( 9, 0, 4, 1 ) 0.9999999999526338, 4.7366200169038175e-11;
    ( 9, 0, 5, 0 ) 0.5, 0.5;
    ( 9, 0, 5, 1 ) 0.5, 0.5;
    ( 9, 0, 6, 0 ) 0.5, 0.5;
    ( 9, 0, 6, 1 ) 0.5, 0.5;
    ( 9, 0, 7, 0 ) 0.5, 0.5;
    ( 9, 0, 7, 1 ) 0.5, 0.5;
    ( 9, 1, 0, 0 ) 5.250943202715783e-12, 0.9999999999947491;
    ( 9, 1, 0, 1 ) 8.166908335144859e-11, 0.9999999999183309;
    ( 9, 1, 1, 0 ) 0.9999988535625913, 1.1464374087134702e-06;
    ( 9, 1, 1, 1 ) 3.619762998085582e-11, 0.9999999999638024;
    ( 9, 1, 2, 0 ) 0.5112622293310495, 0.4887377706689505;
    ( 9, 1, 2, 1 ) 7.910113762403813e-08, 0.9999999208988624;
    ( 9, 1, 3, 0 ) 3.0750590209357916e-09, 0.999999996924941;
    ( 9, 1, 3, 1 ) 0.2996758236677992, 0.7003241763322009;
    ( 9, 1, 4, 0 ) 0.9999996996488838, 3.0035111625370456e-07;
    ( 9, 1, 4, 1 ) 0.5, 0.5;
    ( 9, 1, 5, 0 ) 6.969399990312427e-10, 0.99999999930306;
    ( 9, 1, 5, 1 ) 0.9999999999375663, 6.243380191498308e-11;
    ( 9, 1, 6, 0 ) 0.5, 0.5;
    ( 9, 1, 6, 1 ) 0.5, 0.5;
    ( 9, 1, 7, 0 ) 0.9935949184535735, 0.006405081546426604;
    ( 9, 1, 7, 1 ) 0.5, 0.5;
    ( 9, 2, 0, 0 ) 0.8311614037408935, 0.16883859625910655;
    ( 9, 2, 0, 1 ) 0.9999999998196163, 1.8038377199716384e-10;
    ( 9, 2, 1, 0 ) 0.6992143507555092, 0.3007856492444908;
    ( 9, 2, 1, 1 ) 3.3022598246335903e-08, 0.9999999669774017;
    ( 9, 2, 2, 0 ) 0.9999999999381685, 6.183165005375056e-11;
    ( 9, 2, 2, 1 ) 0.38663317681680753, 0.6133668231831926;
    ( 9, 2, 3, 0 ) 0.5815620024985717, 0.41843799750142824;
    ( 9, 2, 3, 1 ) 5.92353473706669e-11, 0.9999999999407647;
    ( 9, 2, 4, 0 ) 0.003477613168362886, 0.9965223868316372;
    ( 9, 2, 4, 1 ) 0.9999999999409311, 5.906887884732486e-11;
    ( 9, 2, 5, 0 ) 8.142564658748907e-11, 0.9999999999185744;
    ( 9, 2, 5, 1 ) 0.6427873416277, 0.35721265837230004;
    ( 9, 2, 6, 0 ) 0.9999717332526713, 2.8266747328731532e-05;
    ( 9, 2, 6, 1 ) 0.9999999999440489, 5.595122064271184e-11;
    ( 9, 2, 7, 0 ) 0.9999999999724043, 2.759572126035642e-11;
    ( 9, 2, 7, 1 ) 5.026896004466475e-12, 0.9999999999949731;
    ( 9, 3, 0, 0 ) 1.0458044446783817e-05, 0.9999895419555532;
    ( 9, 3, 0, 1 ) 0.6017320135743163, 0.39826798642568373;
    ( 9, 3, 1, 0 ) 0.3627373944792104, 0.6372626055207896;
    ( 9, 3, 1, 1 ) 0.6855671402844752, 0.31443285971552476;
    ( 9, 3, 2, 0 ) 0.3641837874609822, 0.6358162125390178;
    ( 9, 3, 2, 1 ) 0.7702975176335678, 0.22970248236643231;
    ( 9, 3, 3, 0 ) 0.5687223863140782, 0.4312776136859217;
    ( 9, 3, 3, 1 ) 0.40183921328271466, 0.5981607867172853;
    ( 9, 3, 4, 0 ) 0.5876524263093483, 0.41234757369065167;
    ( 9, 3, 4, 1 ) 0.379489624883021, 0.620510375116979;
    ( 9, 3, 5, 0 ) 0.7204545665866383, 0.2795454334133618;
    ( 9, 3, 5, 1 ) 0.2573733971654721, 0.7426266028345279;
    ( 9, 3, 6, 0 ) 0.6873239079863718, 0.31267609201362817;
    ( 9, 3, 6, 1 ) 0.2543856003355601, 0.7456143996644399;
    ( 9, 3, 7, 0 ) 0.3409969717703729, 0.6590030282296271;
    ( 9, 3, 7, 1 ) 0.45789159564480075, 0.5421084043551994;
    ( 9, 4, 0, 0 ) 0.012212298806019322, 0.9877877011939807;
    ( 9, 4, 0, 1 ) 0.999999999928188, 7.181211091323094e-11;
    ( 9, 4, 1, 0 ) 0.36366415619232606, 0.6363358438076738;
    ( 9, 4, 1, 1 ) 0.009264276454515117, 0.9907357235454849;
    ( 9, 4, 2, 0 ) 0.33403878415980287, 0.6659612158401971;
    ( 9, 4, 2, 1 ) 0.35058134009737824, 0.6494186599026218;
    ( 9, 4, 3, 0 ) 0.2257672683719014, 0.7742327316280987;
    ( 9, 4, 3, 1 ) 0.5886563860213442, 0.4113436139786559;
    ( 9, 4, 4, 0 ) 0.5986620990569762, 0.4013379009430238;
    ( 9, 4, 4, 1 ) 0.3665887536847594, 0.6334112463152406;
    ( 9, 4, 5, 0 ) 0.5838681087105543, 0.41613189128944567;
    ( 9, 4, 5, 1 ) 0.633856543602838, 0.3661434563971619;
    ( 9, 4, 6, 0 ) 0.5865539239316648, 0.41344607606833517;
    ( 9, 4, 6, 1 ) 0.24664970729780403, 0.753350292702196;
    ( 9, 4, 7, 0 ) 0.5876030834718957, 0.4123969165281043;
    ( 9, 4, 7, 1 ) 0.44581274808020865, 0.5541872519197913;
    ( 9, 5, 0, 0 ) 0.2662674214518944, 0.7337325785481056;
    ( 9, 5, 0, 1 ) 0.9999988914594532, 1.1085405469091975e-06;
    ( 9, 5, 1, 0 ) 0.999999995052006, 4.947994062479669e-09;
    ( 9, 5, 1, 1 ) 0.24829979471894584, 0.7517002052810541;
    ( 9, 5, 2, 0 ) 0.5225070314451712, 0.4774929685548288;
    ( 9, 5, 2, 1 ) 0.0561577324725527, 0.9438422675274474;
    ( 9, 5, 3, 0 ) 0.30604312542725015, 0.6939568745727499;
    ( 9, 5, 3, 1 ) 0.00010415009524426245, 0.9998958499047557;
    ( 9, 5, 4, 0 ) 0.3593594487953721, 0.6406405512046278;
    ( 9, 5, 4, 1 ) 0.408048705453588, 0.591951294546412;
    ( 9, 5, 5, 0 ) 0.7080332935169498, 0.2919667064830502;
    ( 9, 5, 5, 1 ) 0.397022620563842, 0.6029773794361579;
    ( 9, 5, 6, 0 ) 0.6741187619608262, 0.32588123803917374;
    ( 9, 5, 6, 1 ) 0.38262807129016946, 0.6173719287098305;
    ( 9, 5, 7, 0 ) 0.5062041613643875, 0.4937958386356126;
    ( 9, 5, 7, 1 ) 0.48031185756518496, 0.519688142434815;
    ( 10, 0, 0, 0 ) 0.9999999999467968, 5.3203285400779874e-11;
    ( 10, 0, 0, 1 ) 0.5, 0.5;
    ( 10, 0, 1, 0 ) 0.5, 0.5;
    ( 10, 0, 1, 1 ) 0.5, 0.5;
    ( 10, 0, 2, 0 ) 0.5, 0.5;
    ( 10, 0, 2, 1 ) 0.5, 0.5;
    ( 10, 0, 3, 0 ) 0.5, 0.5;
    ( 10, 0, 3, 1 ) 0.5, 0.5;
    ( 10, 0, 4, 0 ) 0.5, 0.5;
    ( 10, 0, 4, 1 ) 0.5, 0.5;
    ( 10, 0, 5, 0 ) 0.5, 0.5;
    ( 10, 0, 5, 1 ) 0.5, 0.5;
    ( 10, 0, 6, 0 ) 0.5, 0.5;
    ( 10, 0, 6, 1 ) 0.5, 0.5;
    ( 10, 0, 7, 0 ) 0.5, 0.5;
    ( 10, 0, 7, 1 ) 0.5, 0.5;
    ( 10, 1, 0, 0 ) 9.63047100349774e-09, 0.999999990369529;
    ( 10, 1, 0, 1 ) 0.2135631337559644, 0.7864368662440356;
    ( 10, 1, 1, 0 ) 0.9999999999342464, 6.575365228851802e-11;
    ( 10, 1, 1, 1 ) 0.0025079448415546482, 0.9974920551584453;
    ( 10, 1, 2, 0 ) 0.9999999999320749, 6.792506495234926e-11;
    ( 10, 1, 2, 1 ) 0.9999999999414269, 5.857317169310335e-11;
    ( 10, 1, 3, 0 ) 1.9544157305846576e-09, 0.9999999980455843;
    ( 10, 1, 3, 1 ) 0.5, 0.5;
    ( 10, 1, 4, 0 ) 0.9999999999321456, 6.785439306505578e-11;
    ( 10, 1, 4, 1 ) 5.4151900423151614e-12, 0.9999999999945848;
    ( 10, 1, 5, 0 ) 0.5, 0.5;
    ( 10, 1, 5, 1 ) 5.106519034200418e-12, 0.9999999999948935;
    ( 10, 1, 6, 0 ) 0.5, 0.5;
    ( 10, 1, 6, 1 ) 0.4824912323368105, 0.5175087676631894;
    ( 10, 1, 7, 0 ) 0.9999999996528202, 3.471797573378363e-10;
    ( 10, 1, 7, 1 ) 0.5, 0.5;
    ( 10, 2, 0, 0 ) 0.5011954888662511, 0.4988045111337489;
    ( 10, 2, 0, 1 ) 0.42646506813891927, 0.5735349318610807;
    ( 10, 2, 1, 0 ) 1.2328710775252287e-06, 0.9999987671289224;
    ( 10, 2, 1, 1 ) 0.32170180772810664, 0.6782981922718934;
    ( 10, 2, 2, 0 ) 0.3927993179595081, 0.6072006820404918;
    ( 10, 2, 2, 1 ) 0.6125477046134636, 0.38745229538653636;
    ( 10, 2, 3, 0 ) 0.7498497132276866, 0.25015028677231343;
    ( 10, 2, 3, 1 ) 5.2396991303991786e-11, 0.9999999999476029;
    ( 10, 2, 4, 0 ) 0.9999999999754686, 2.453135447918852e-11;
    ( 10, 2, 4, 1 ) 5.081413223059712e-11, 0.9999999999491859;
    ( 10, 2, 5, 0 ) 0.9999999999795799, 2.0420003089066185e-11;
    ( 10, 2, 5, 1 ) 7.556313552812136e-11, 0.9999999999244369;
    ( 10, 2, 6, 0 ) 0.9999999999388515, 6.114848963546776e-11;
    ( 10, 2, 6, 1 ) 1.6053083569390577e-08, 0.9999999839469165;
    ( 10, 2, 7, 0 ) 0.9995653901526684, 0.0004346098473315268;
    ( 10, 2, 7, 1 ) 0.5, 0.5;
    ( 10, 3, 0, 0 ) 6.217196818678316e-11, 0.999999999937828;
    ( 10, 3, 0, 1 ) 4.1762047682430906e-11, 0.999999999958238;
    ( 10, 3, 1, 0 ) 0.2104354446491546, 0.7895645553508454;
    ( 10, 3, 1, 1 ) 9.384609779501994e-09, 0.9999999906153902;
    ( 10, 3, 2, 0 ) 0.6961757813118018, 0.30382421868819814;
    ( 10, 3, 2, 1 ) 0.17239271612212026, 0.8276072838778797;
    ( 10, 3, 3, 0 ) 0.3451720663449067, 0.6548279336550932;
    ( 10, 3, 3, 1 ) 0.39442531096083305, 0.6055746890391669;
    ( 10, 3, 4, 0 ) 0.651280204337764, 0.348719795662236;
    ( 10, 3, 4, 1 ) 0.47121972025055553, 0.5287802797494445;
    ( 10, 3, 5, 0 ) 0.53622815343696, 0.4637718465630401;
    ( 10, 3, 5, 1 ) 0.28549975130904043, 0.7145002486909595;
    ( 10, 3, 6, 0 ) 0.23992917116825785, 0.7600708288317422;
    ( 10, 3, 6, 1 ) 0.23862139452561665, 0.7613786054743833;
    ( 10, 3, 7, 0 ) 0.6686122273089637, 0.3313877726910362;
    ( 10, 3, 7, 1 ) 0.18402133765164272, 0.8159786623483573;
    ( 10, 4, 0, 0 ) 0.44092860717542265, 0.5590713928245773;
    ( 10, 4, 0, 1 ) 2.151285727322339e-05, 0.9999784871427267;
    ( 10, 4, 1, 0 ) 0.3097691435851924, 0.6902308564148076;
    ( 10, 4, 1, 1 ) 0.2987788048940072, 0.7012211951059928;
    ( 10, 4, 2, 0 ) 0.2510212163040982, 0.7489787836959019;
    ( 10, 4, 2, 1 ) 0.5514701814721987, 0.44852981852780127;
    ( 10, 4, 3, 0 ) 0.5615868095802582, 0.43841319041974186;
    ( 10, 4, 3, 1 ) 0.006471517698478707, 0.9935284823015214;
    ( 10, 4, 4, 0 ) 0.32797007008649953, 0.6720299299135005;
    ( 10, 4, 4, 1 ) 0.2937746723704877, 0.7062253276295123;
    ( 10, 4, 5, 0 ) 0.5321179561912482, 0.4678820438087517;
    ( 10, 4, 5, 1 ) 0.20762195791132812, 0.7923780420886719;
    ( 10, 4, 6, 0 ) 0.46955679098657116, 0.5304432090134289;
    ( 10, 4, 6, 1 ) 0.377416104177342, 0.6225838958226579;
    ( 10, 4, 7, 0 ) 0.26014844229356043, 0.7398515577064395;
    ( 10, 4, 7, 1 ) 0.5002714368862275, 0.49972856311377245;
    ( 10, 5, 0, 0 ) 0.9999999999267974, 7.320245820110593e-11;
    ( 10, 5, 0, 1 ) 0.4617903933860236, 0.5382096066139764;
    ( 10, 5, 1, 0 ) 0.6203646511854719, 0.379635348814528;
    ( 10, 5, 1, 1 ) 7.658417154738905e-11, 0.9999999999234158;
    ( 10, 5, 2, 0 ) 0.5319918161322948, 0.4680081838677051;
    ( 10, 5, 2, 1 ) 4.993223075488054e-05, 0.9999500677692451;
    ( 10, 5, 3, 0 ) 0.603737237624309, 0.396262762375691;
    ( 10, 5, 3, 1 ) 0.4154536825414848, 0.5845463174585152;
    ( 10, 5, 4, 0 ) 0.4576334281958839, 0.5423665718041161;
    ( 10, 5, 4, 1 ) 0.5873540418205333, 0.41264595817946664;
    ( 10, 5, 5, 0 ) 0.5568077634332418, 0.4431922365667582;
    ( 10, 5, 5, 1 ) 0.2802444713356336, 0.7197555286643664;
    ( 10, 5, 6, 0 ) 0.4151961620613107, 0.5848038379386893;
    ( 10, 5, 6, 1 ) 0.3882949649500028, 0.6117050350499972;
    ( 10, 5, 7, 0 ) 0.7333646865868809, 0.2666353134131191;
    ( 10, 5, 7, 1 ) 0.26942798091910786, 0.7305720190808922;
    ( 11, 0, 0, 0 ) 0.9999999999503231, 4.967684756202738e-11;
    ( 11, 0, 0, 1 ) 0.5, 0.5;
    ( 11, 0, 1, 0 ) 0.5, 0.5;
    ( 11, 0, 1, 1 ) 0.5, 0.5;
    ( 11, 0, 2, 0 ) 0.5, 0.5;
    ( 11, 0, 2, 1 ) 0.5, 0.5;
    ( 11, 0, 3, 0 ) 0.5, 0.5;
    ( 11, 0, 3, 1 ) 0.5, 0.5;
    ( 11, 0, 4, 0 ) 0.5, 0.5;
    ( 11, 0, 4, 1 ) 0.5, 0.5;
    ( 11, 0, 5, 0 ) 0.5, 0.5;
    ( 11, 0, 5, 1 ) 0.5, 0.5;
    ( 11, 0, 6, 0 ) 0.9438033440261429, 0.05619665597385716;
    ( 11, 0, 6, 1 ) 0.5, 0.5;
    ( 11, 0, 7, 0 ) 0.5, 0.5;
    ( 11, 0, 7, 1 ) 0.5, 0.5;
    ( 11, 1, 0, 0 ) 0.2561051658790721, 0.7438948341209279;
    ( 11, 1, 0, 1 ) 4.138957890925794e-11, 0.9999999999586104;
    ( 11, 1, 1, 0 ) 1.756848494494351e-07, 0.9999998243151506;
    ( 11, 1, 1, 1 ) 0.9999999601150554, 3.988494451401984e-08;
    ( 11, 1, 2, 0 ) 0.5, 0.5;
    ( 11, 1, 2, 1 ) 5.190942307875877e-12, 0.999999999994809;
    ( 11, 1, 3, 0 ) 0.9169125907859978, 0.08308740921400216;
    ( 11, 1, 3, 1 ) 0.5, 0.5;
    ( 11, 1, 4, 0 ) 0.9999997939778652, 2.0602213472025914e-07;
    ( 11, 1, 4, 1 ) 0.5711855448662543, 0.4288144551337457;
    ( 11, 1, 5, 0 ) 0.9999999997516688, 2.483311372631396e-10;
    ( 11, 1, 5, 1 ) 0.9999999999490753, 5.0924697964854583e-11;
    ( 11, 1, 6, 0 ) 0.5, 0.5;
    ( 11, 1, 6, 1 ) 0.9999999595357766, 4.046422341513808e-08;
    ( 11, 1, 7, 0 ) 0.5, 0.5;
    ( 11, 1, 7, 1 ) 3.459101847233375e-12, 0.999999999996541;
    ( 11, 2, 0, 0 ) 0.23918809133171948, 0.7608119086682805;
    ( 11, 2, 0, 1 ) 0.9999999999737357, 2.6264224897303605e-11;
    ( 11, 2, 1, 0 ) 0.11121817998857282, 0.8887818200114271;
    ( 11, 2, 1, 1 ) 0.9999999999614465, 3.8553498288707245e-11;
    ( 11, 2, 2, 0 ) 0.013350499589359473, 0.9866495004106406;
    ( 11, 2, 2, 1 ) 0.2096972672376263, 0.7903027327623736;
    ( 11, 2, 3, 0 ) 0.5139716695051348, 0.4860283304948651;
    ( 11, 2, 3, 1 ) 7.617589165868414e-11, 0.9999999999238242;
    ( 11, 2, 4, 0 ) 0.3695644637878554, 0.6304355362121447;
    ( 11, 2, 4, 1 ) 0.6713535082340996, 0.32864649176590044;
    ( 11, 2, 5, 0 ) 0.999999999938851, 6.114900609362416e-11;
    ( 11, 2, 5, 1 ) 2.032677179460748e-06, 0.9999979673228205;
    ( 11, 2, 6, 0 ) 0.5, 0.5;
    ( 11, 2, 6, 1 ) 0.02994967244889566, 0.9700503275511043;
    ( 11, 2, 7, 0 ) 0.5, 0.5;
    ( 11, 2, 7, 1 ) 0.9999999999519161, 4.8083929801833314e-11;
    ( 11, 3, 0, 0 ) 0.9999999999432615, 5.673847763065766e-11;
    ( 11, 3, 0, 1 ) 0.08227963434586606, 0.917720365654134;
    ( 11, 3, 1, 0 ) 0.20918249446627946, 0.7908175055337205;
    ( 11, 3, 1, 1 ) 7.021475893294296e-11, 0.9999999999297853;
    ( 11, 3, 2, 0 ) 0.4402767660420191, 0.559723233957981;
    ( 11, 3, 2, 1 ) 0.6805099245542582, 0.3194900754457418;
    ( 11, 3, 3, 0 ) 0.47900188549190975, 0.5209981145080903;
    ( 11, 3, 3, 1 ) 0.4529221367462909, 0.5470778632537091;
    ( 11, 3, 4, 0 ) 0.5401960013100955, 0.4598039986899044;
    ( 11, 3, 4, 1 ) 0.46863513975002774, 0.5313648602499722;
    ( 11, 3, 5, 0 ) 0.7249718218203067, 0.2750281781796933;
    ( 11, 3, 5, 1 ) 0.2983694254178984, 0.7016305745821017;
    ( 11, 3, 6, 0 ) 0.8835771266506044, 0.11642287334939562;
    ( 11, 3, 6, 1 ) 0.21652637163306898, 0.783473628366931;
    ( 11, 3, 7, 0 ) 0.6560137316069912, 0.3439862683930088;
    ( 11, 3, 7, 1 ) 0.545252276513897, 0.4547477234861031;
    ( 11, 4, 0, 0 ) 0.2685552337931915, 0.7314447662068085;
    ( 11, 4, 0, 1 ) 0.9999999799259278, 2.007407214063578e-08;
    ( 11, 4, 1, 0 ) 0.7600747768684162, 0.23992522313158382;
    ( 11, 4, 1, 1 ) 0.41570762574970466, 0.5842923742502953;
    ( 11, 4, 2, 0 ) 0.6891898256154628, 0.3108101743845372;
    ( 11, 4, 2, 1 ) 0.4890987175193162, 0.5109012824806839;
    ( 11, 4, 3, 0 ) 0.3177175176939011, 0.682282482306099;
    ( 11, 4, 3, 1 ) 0.1266697104020946, 0.8733302895979054;
    ( 11, 4, 4, 0 ) 0.3459330491503667, 0.6540669508496333;
    ( 11, 4, 4, 1 ) 0.46914624137879773, 0.5308537586212023;
    ( 11, 4, 5, 0 ) 0.06246151850152161, 0.9375384814984784;
    ( 11, 4, 5, 1 ) 0.5563154144668719, 0.44368458553312806;
    ( 11, 4, 6, 0 ) 0.9999991192489887, 8.807510114366862e-07;
    ( 11, 4, 6, 1 ) 0.010167371264448387, 0.9898326287355517;
    ( 11, 4, 7, 0 ) 0.8795972393109494, 0.12040276068905068;
    ( 11, 4, 7, 1 ) 0.5032196482006178, 0.49678035179938207;
    ( 11, 5, 0, 0 ) 0.5, 0.5;
    ( 11, 5, 0, 1 ) 0.5, 0.5;
    ( 11, 5, 1, 0 ) 4.9304432740113856e-11, 0.9999999999506957;
    ( 11, 5, 1, 1 ) 0.18497502546904865, 0.8150249745309514;
    ( 11, 5, 2, 0 ) 0.2994912537947148, 0.7005087462052851;
    ( 11, 5, 2, 1 ) 5.215352382440881e-12, 0.9999999999947846;
    ( 11, 5, 3, 0 ) 0.3608162678253375, 0.6391837321746625;
    ( 11, 5, 3, 1 ) 0.02740255703374194, 0.972597442966258;
    ( 11, 5, 4, 0 ) 0.43197309917681426, 0.5680269008231856;
    ( 11, 5, 4, 1 ) 0.4087099097570881, 0.5912900902429119;
    ( 11, 5, 5, 0 ) 0.7593085342929448, 0.24069146570705527;
    ( 11, 5, 5, 1 ) 0.5673916022578223, 0.4326083977421777;
    ( 11, 5, 6, 0 ) 0.9999999934548214, 6.545178686830028e-09;
    ( 11, 5, 6, 1 ) 0.32336965985738597, 0.676630340142614;
    ( 11, 5, 7, 0 ) 0.4921946773055928, 0.5078053226944073;
    ( 11, 5, 7, 1 ) 0.48584364014801673, 0.5141563598519833;
    ( 12, 0, 0, 0 ) 0.5, 0.5;
    ( 12, 0, 0, 1 ) 0.5, 0.5;
    ( 12, 0, 1, 0 ) 0.5, 0.5;
    ( 12, 0, 1, 1 ) 0.5, 0.5;
    ( 12, 0, 2, 0 ) 0.5, 0.5;
    ( 12, 0, 2, 1 ) 0.5, 0.5;
    ( 12, 0, 3, 0 ) 0.5, 0.5;
    ( 12, 0, 3, 1 ) 0.5, 0.5;
    ( 12, 0, 4, 0 ) 0.5, 0.5;
    ( 12, 0, 4, 1 ) 0.5, 0.5;
    ( 12, 0, 5, 0 ) 0.5, 0.5;
    ( 12, 0, 5, 1 ) 0.5, 0.5;
    ( 12, 0, 6, 0 ) 0.5, 0.5;
    ( 12, 0, 6, 1 ) 0.5, 0.5;
    ( 12, 0, 7, 0 ) 0.5, 0.5;
    ( 12, 0, 7, 1 ) 0.5, 0.5;
    ( 12, 1, 0, 0 ) 5.388673070802322e-12, 0.9999999999946114;
    ( 12, 1, 0, 1 ) 1.8941590563171945e-06, 0.9999981058409437;
    ( 12, 1, 1, 0 ) 0.4866282100132689, 0.5133717899867312;
    ( 12, 1, 1, 1 ) 0.9999999999285137, 7.148633244471421e-11;
    ( 12, 1, 2, 0 ) 3.283509182387309e-09, 0.9999999967164909;
    ( 12, 1, 2, 1 ) 0.26450664419828984, 0.7354933558017102;
    ( 12, 1, 3, 0 ) 5.331234054240959e-11, 0.9999999999466876;
    ( 12, 1, 3, 1 ) 0.0017356302557535034, 0.9982643697442465;
    ( 12, 1, 4, 0 ) 0.9999999999140733, 8.592671431280743e-11;
    ( 12, 1, 4, 1 ) 0.9999999999291557, 7.084435486694685e-11;
    ( 12, 1, 5, 0 ) 0.5, 0.5;
    ( 12, 1, 5, 1 ) 0.2184689917962581, 0.7815310082037419;
    ( 12, 1, 6, 0 ) 0.5, 0.5;
    ( 12, 1, 6, 1 ) 0.5, 0.5;
    ( 12, 1, 7, 0 ) 0.5, 0.5;
    ( 12, 1, 7, 1 ) 0.5, 0.5;
    ( 12, 2, 0, 0 ) 0.374221154671101, 0.625778845328899;
    ( 12, 2, 0, 1 ) 0.999999999936865, 6.31350788996933e-11;
    ( 12, 2, 1, 0 ) 0.00017279834172559088, 0.9998272016582744;
    ( 12, 2, 1, 1 ) 0.9999999999461585, 5.3841497128686656e-11;
    ( 12, 2, 2, 0 ) 0.8447490899589634, 0.15525091004103658;
    ( 12, 2, 2, 1 ) 0.5324621884817906, 0.4675378115182094;
    ( 12, 2, 3, 0 ) 0.7936202055970397, 0.20637979440296017;
    ( 12, 2, 3, 1 ) 2.888681455301348e-09, 0.9999999971113186;
    ( 12, 2, 4, 0 ) 0.728762295211297, 0.271237704788703;
    ( 12, 2, 4, 1 ) 0.4964442557611978, 0.5035557442388023;
    ( 12, 2, 5, 0 ) 6.880218809306178e-11, 0.9999999999311978;
    ( 12, 2, 5, 1 ) 0.0034622595491369504, 0.9965377404508631;
    ( 12, 2, 6, 0 ) 0.9999999999538729, 4.612713055784633e-11;
    ( 12, 2, 6, 1 ) 0.9999999999339414, 6.605862865836061e-11;
    ( 12, 2, 7, 0 ) 0.9933826308747976, 0.006617369125202424;
    ( 12, 2, 7, 1 ) 0.9898682268271171, 0.010131773172882927;
    ( 12, 3, 0, 0 ) 0.7982052770535981, 0.20179472294640188;
    ( 12, 3, 0, 1 ) 1.4783488526714261e-09, 0.9999999985216511;
    ( 12, 3, 1, 0 ) 0.28013810237134285, 0.719861897628657;
    ( 12, 3, 1, 1 ) 0.3766565478135179, 0.6233434521864821;
    ( 12, 3, 2, 0 ) 0.5559829929782678, 0.44401700702173225;
    ( 12, 3, 2, 1 ) 0.40845489760576975, 0.5915451023942302;
    ( 12, 3, 3, 0 ) 0.3908226877675295, 0.6091773122324705;
    ( 12, 3, 3, 1 ) 0.5847551060252559, 0.41524489397474407;
    ( 12, 3, 4, 0 ) 0.5161324032514395, 0.4838675967485605;
    ( 12, 3, 4, 1 ) 0.17130579169931182, 0.8286942083006882;
    ( 12, 3, 5, 0 ) 0.8511721334133792, 0.14882786658662092;
    ( 12, 3, 5, 1 ) 0.2333319580560191, 0.7666680419439809;
    ( 12, 3, 6, 0 ) 0.6075493997852609, 0.3924506002147391;
    ( 12, 3, 6, 1 ) 0.9046071967993689, 0.0953928032006312;
    ( 12, 3, 7, 0 ) 0.9999999999294144, 7.058563645354862e-11;
    ( 12, 3, 7, 1 ) 0.16707547241161846, 0.8329245275883816;
    ( 12, 4, 0, 0 ) 0.999180569149579, 0.000819430850420993;
    ( 12, 4, 0, 1 ) 0.5, 0.5;
    ( 12, 4, 1, 0 ) 0.8233760062516874, 0.17662399374831259;
    ( 12, 4, 1, 1 ) 0.6943862823923752, 0.30561371760762474;
    ( 12, 4, 2, 0 ) 0.6736691573934735, 0.32633084260652645;
    ( 12, 4, 2, 1 ) 0.576578002381724, 0.42342199761827604;
    ( 12, 4, 3, 0 ) 0.5002073755243652, 0.4997926244756348;
    ( 12, 4, 3, 1 ) 0.5789791138899167, 0.42102088611008326;
    ( 12, 4, 4, 0 ) 0.681875507206399, 0.31812449279360105;
    ( 12, 4, 4, 1 ) 0.4893368954347203, 0.5106631045652797;
    ( 12, 4, 5, 0 ) 0.4028269711565271, 0.5971730288434729;
    ( 12, 4, 5, 1 ) 0.003039202920202771, 0.9969607970797972;
    ( 12, 4, 6, 0 ) 0.3346049144108645, 0.6653950855891355;
    ( 12, 4, 6, 1 ) 0.4299811039023734, 0.5700188960976266;
    ( 12, 4, 7, 0 ) 0.4513161057994566, 0.5486838942005434;
    ( 12, 4, 7, 1 ) 0.3653741164086171, 0.6346258835913829;
    ( 12, 5, 0, 0 ) 6.05730443495026e-11, 0.999999999939427;
    ( 12, 5, 0, 1 ) 0.9999967870319284, 3.212968071613325e-06;
    ( 12, 5, 1, 0 ) 0.25649306410273237, 0.7435069358972677;
    ( 12, 5, 1, 1 ) 0.9999999999358086, 6.419153298085936e-11;
    ( 12, 5, 2, 0 ) 0.6053405956900753, 0.39465940430992474;
    ( 12, 5, 2, 1 ) 0.58048845610534, 0.41951154389466006;
    ( 12, 5, 3, 0 ) 0.09594278128910932, 0.9040572187108906;
    ( 12, 5, 3, 1 ) 0.0912064358466931, 0.9087935641533069;
    ( 12, 5, 4, 0 ) 0.4924167034595104, 0.5075832965404896;
    ( 12, 5, 4, 1 ) 0.33514426925340474, 0.6648557307465953;
    ( 12, 5, 5, 0 ) 0.6468284911450539, 0.353171508854946;
    ( 12, 5, 5, 1 ) 0.3280546432888511, 0.6719453567111489;
    ( 12, 5, 6, 0 ) 0.33877667697839337, 0.6612233230216067;
    ( 12, 5, 6, 1 ) 0.5312008007492918, 0.46879919925070823;
    ( 12, 5, 7, 0 ) 0.3825412214728123, 0.6174587785271878;
    ( 12, 5, 7, 1 ) 0.5826164431276227, 0.41738355687237727;

}
probability ( Stroke ) {
    table 0.9572, 0.0428 ;
}
probability ( Veggies ) {
    table 0.18865, 0.81135 ;
}
