network unknown {
}
variable Age {
    type discrete [ 13 ] { 0, 1, 2, 3, 4, 5, 6, 7, 8, 9, 10, 11, 12 };
}
variable AnyHealthcare {
    type discrete [ 2 ] { 0, 1 };
}
variable BMI {
    type discrete [ 5 ] { 0, 1, 2, 3, 4 };
}
variable CholCheck {
    type discrete [ 2 ] { 0, 1 };
}
variable Demographic {
    type discrete [ 2 ] { 0, 1 };
}
variable Diabetes_binary {
    type discrete [ 2 ] { 0, 1 };
}
variable Diet {
    type discrete [ 2 ] { 0, 1 };
}
variable DiffWalk {
    type discrete [ 2 ] { 0, 1 };
}
variable Education {
    type discrete [ 6 ] { 0, 1, 2, 3, 4, 5 };
}
variable Fruits {
    type discrete [ 2 ] { 0, 1 };
}
variable HealthcareAccess {
    type discrete [ 2 ] { 0, 1 };
}
variable HeartDiseaseorAttack {
    type discrete [ 2 ] { 0, 1 };
}
variable HighBP {
    type discrete [ 2 ] { 0, 1 };
}
variable HighChol {
    type discrete [ 2 ] { 0, 1 };
}
variable HvyAlcoholConsump {
    type discrete [ 2 ] { 0, 1 };
}
variable Income {
    type discrete [ 8 ] { 0, 1, 2, 3, 4, 5, 6, 7 };
}
variable NoDocbcCost {
    type discrete [ 2 ] { 0, 1 };
}
variable PhysActivity {
    type discrete [ 2 ] { 0, 1 };
}
variable PhysicalHealth {
    type discrete [ 2 ] { 0, 1 };
}
variable RiskFactor {
    type discrete [ 2 ] { 0, 1 };
}
variable Sex {
    type discrete [ 2 ] { 0, 1 };
}
variable Smoker {
    type discrete [ 2 ] { 0, 1 };
}
variable SocioeconomicStatus {
    type discrete [ 2 ] { 0, 1 };
}
variable Stroke {
    type discrete [ 2 ] { 0, 1 };
}
variable UnderlyingCondition {
    type discrete [ 2 ] { 0, 1 };
}
variable Veggies {
    type discrete [ 2 ] { 0, 1 };
}
probability ( Age ) {
    table 0.022466666666666666, 0.025733333333333334, 0.0426, 0.05346666666666667, 0.0646, 0.0756, 0.10313333333333333, 0.12066666666666667, 0.1314, 0.133, 0.0904, 0.064, 0.07293333333333334 ;
}
probability ( AnyHealthcare ) {
    table 0.0478, 0.9522 ;
}
probability ( BMI ) {
    table 0.0124, 0.33573333333333333, 0.3658, 0.17113333333333333, 0.11493333333333333 ;
}
probability ( CholCheck ) {
    table 0.038266666666666664, 0.9617333333333333 ;
}
probability ( Demographic | Age, Sex ) {
    ( 0, 0 ) 0.08408334515389096, 0.9159166548461091;
    ( 0, 1 ) 0.012099859791904748, 0.9879001402080952;
    ( 1, 0 ) 0.14519016187151423, 0.8548098381284858;
    ( 1, 1 ) 0.06364816829434077, 0.9363518317056593;
    ( 2, 0 ) 0.08887762725329326, 0.9111223727467067;
    ( 2, 1 ) 0.04508353665866226, 0.9549164633413377;
    ( 3, 0 ) 0.3454218195444338, 0.6545781804555661;
    ( 3, 1 ) 0.20291691424011074, 0.7970830857598893;
    ( 4, 0 ) 0.02455238387243205, 0.9754476161275679;
    ( 4, 1 ) 0.09560585868529384, 0.9043941413147061;
    ( 5, 0 ) 0.23952427027514783, 0.7604757297248521;
    ( 5, 1 ) 0.21403493277618893, 0.785965067223811;
    ( 6, 0 ) 0.2575824090482176, 0.7424175909517824;
    ( 6, 1 ) 0.49169418411904553, 0.5083058158809545;
    ( 7, 0 ) 0.4056448710261727, 0.5943551289738274;
    ( 7, 1 ) 0.40406419404944616, 0.5959358059505538;
    ( 8, 0 ) 0.5175920996847948, 0.48240790031520514;
    ( 8, 1 ) 0.7083365104097046, 0.29166348959029537;
    ( 9, 0 ) 0.5364645727015126, 0.46353542729848746;
    ( 9, 1 ) 0.7206998415634865, 0.27930015843651346;
    ( 10, 0 ) 0.6968293510146472, 0.30317064898535284;
    ( 10, 1 ) 0.8381627923494707, 0.16183720765052934;
    ( 11, 0 ) 0.4088423153033837, 0.5911576846966162;
    ( 11, 1 ) 0.7196224459766704, 0.28037755402332964;
    ( 12, 0 ) 0.024536839864074223, 0.9754631601359257;
    ( 12, 1 ) 0.6823332832111929, 0.31766671678880704;

}
probability ( Diabetes_binary | Demographic, Diet, HealthcareAccess, PhysicalHealth, RiskFactor, SocioeconomicStatus, UnderlyingCondition ) {
    ( 0, 0, 0, 0, 0, 0, 0 ) 0.05511646680870633, 0.9448835331912937;
    ( 0, 0, 0, 0, 0, 0, 1 ) 0.9904848857031923, 0.009515114296807655;
    ( 0, 0, 0, 0, 0, 1, 0 ) 0.029545619185156045, 0.970454380814844;
    ( 0, 0, 0, 0, 0, 1, 1 ) 0.8577506366307814, 0.1422493633692186;
    ( 0, 0, 0, 0, 1, 0, 0 ) 0.8279466741014789, 0.17205332589852113;
    ( 0, 0, 0, 0, 1, 0, 1 ) 0.9999917836444783, 8.216355521668473e-06;
    ( 0, 0, 0, 0, 1, 1, 0 ) 0.11942619174649192, 0.880573808253508;
    ( 0, 0, 0, 0, 1, 1, 1 ) 0.9999826403654156, 1.7359634584395266e-05;
    ( 0, 0, 0, 1, 0, 0, 0 ) 0.9997037230526, 0.0002962769473999545;
    ( 0, 0, 0, 1, 0, 0, 1 ) 0.9999997430548341, 2.5694516590992527e-07;
    ( 0, 0, 0, 1, 0, 1, 0 ) 0.3399438544622681, 0.660056145537732;
    ( 0, 0, 0, 1, 0, 1, 1 ) 0.9997179277829435, 0.00028207221705633684;
    ( 0, 0, 0, 1, 1, 0, 0 ) 0.9999292736225445, 7.072637745545696e-05;
    ( 0, 0, 0, 1, 1, 0, 1 ) 0.9999999997044869, 2.955130782781179e-10;
    ( 0, 0, 0, 1, 1, 1, 0 ) 0.9943655807945396, 0.0056344192054602876;
    ( 0, 0, 0, 1, 1, 1, 1 ) 0.999999925383376, 7.461662398519275e-08;
    ( 0, 0, 1, 0, 0, 0, 0 ) 0.013608102315404633, 0.9863918976845953;
    ( 0, 0, 1, 0, 0, 0, 1 ) 0.25421211627148776, 0.7457878837285122;
    ( 0, 0, 1, 0, 0, 1, 0 ) 0.0010071952405980807, 0.9989928047594019;
    ( 0, 0, 1, 0, 0, 1, 1 ) 0.032115591536423585, 0.9678844084635764;
    ( 0, 0, 1, 0, 1, 0, 0 ) 0.6690714234895044, 0.3309285765104956;
    ( 0, 0, 1, 0, 1, 0, 1 ) 0.9838704064033972, 0.016129593596602956;
    ( 0, 0, 1, 0, 1, 1, 0 ) 0.001468532275674564, 0.9985314677243254;
    ( 0, 0, 1, 0, 1, 1, 1 ) 0.8576561720151535, 0.14234382798484638;
    ( 0, 0, 1, 1, 0, 0, 0 ) 0.9859307373550038, 0.014069262644996175;
    ( 0, 0, 1, 1, 0, 0, 1 ) 0.9999684198237632, 3.1580176236773296e-05;
    ( 0, 0, 1, 1, 0, 1, 0 ) 0.04847481185127578, 0.9515251881487242;
    ( 0, 0, 1, 1, 0, 1, 1 ) 0.8991247387712669, 0.1008752612287331;
    ( 0, 0, 1, 1, 1, 0, 0 ) 0.9988894101440268, 0.0011105898559731688;
    ( 0, 0, 1, 1, 1, 0, 1 ) 0.9999999985339473, 1.4660526847805405e-09;
    ( 0, 0, 1, 1, 1, 1, 0 ) 0.5116391229597744, 0.48836087704022546;
    ( 0, 0, 1, 1, 1, 1, 1 ) 0.999921148254672, 7.885174532797987e-05;
    ( 0, 1, 0, 0, 0, 0, 0 ) 0.029150200089068462, 0.9708497999109316;
    ( 0, 1, 0, 0, 0, 0, 1 ) 0.7553292264806751, 0.2446707735193249;
    ( 0, 1, 0, 0, 0, 1, 0 ) 0.16941975038631096, 0.830580249613689;
    ( 0, 1, 0, 0, 0, 1, 1 ) 0.12606001013015036, 0.8739399898698496;
    ( 0, 1, 0, 0, 1, 0, 0 ) 0.48535452592495054, 0.5146454740750495;
    ( 0, 1, 0, 0, 1, 0, 1 ) 0.9993667390566806, 0.000633260943319393;
    ( 0, 1, 0, 0, 1, 1, 0 ) 0.33080752052385215, 0.6691924794761479;
    ( 0, 1, 0, 0, 1, 1, 1 ) 0.9933600000841392, 0.006639999915860909;
    ( 0, 1, 0, 1, 0, 0, 0 ) 0.9864179965822856, 0.013582003417714436;
    ( 0, 1, 0, 1, 0, 0, 1 ) 0.9999945072334105, 5.492766589489651e-06;
    ( 0, 1, 0, 1, 0, 1, 0 ) 0.8881638018089542, 0.11183619819104583;
    ( 0, 1, 0, 1, 0, 1, 1 ) 0.9797852314886841, 0.020214768511315862;
    ( 0, 1, 0, 1, 1, 0, 0 ) 0.9996099960109004, 0.000390003989099498;
    ( 0, 1, 0, 1, 1, 0, 1 ) 0.9999999863480319, 1.36519681516745e-08;
    ( 0, 1, 0, 1, 1, 1, 0 ) 0.7445101108628008, 0.25548988913719917;
    ( 0, 1, 0, 1, 1, 1, 1 ) 0.9999917224904584, 8.277509541639966e-06;
    ( 0, 1, 1, 0, 0, 0, 0 ) 0.004893308787840442, 0.9951066912121597;
    ( 0, 1, 1, 0, 0, 0, 1 ) 0.035228528445980775, 0.9647714715540192;
    ( 0, 1, 1, 0, 0, 1, 0 ) 0.2521562721554436, 0.7478437278445563;
    ( 0, 1, 1, 0, 0, 1, 1 ) 0.14656638510248532, 0.8534336148975146;
    ( 0, 1, 1, 0, 1, 0, 0 ) 0.09205903856605048, 0.9079409614339495;
    ( 0, 1, 1, 0, 1, 0, 1 ) 0.9925078637609378, 0.007492136239062288;
    ( 0, 1, 1, 0, 1, 1, 0 ) 0.017431407260018926, 0.9825685927399811;
    ( 0, 1, 1, 0, 1, 1, 1 ) 0.38378662493061644, 0.6162133750693835;
    ( 0, 1, 1, 1, 0, 0, 0 ) 0.4005664572220016, 0.5994335427779983;
    ( 0, 1, 1, 1, 0, 0, 1 ) 0.9987618301073599, 0.0012381698926401566;
    ( 0, 1, 1, 1, 0, 1, 0 ) 0.5357747049772137, 0.46422529502278626;
    ( 0, 1, 1, 1, 0, 1, 1 ) 0.5137906874525356, 0.4862093125474644;
    ( 0, 1, 1, 1, 1, 0, 0 ) 0.9979245118959581, 0.002075488104041863;
    ( 0, 1, 1, 1, 1, 0, 1 ) 0.999999611275569, 3.887244310080622e-07;
    ( 0, 1, 1, 1, 1, 1, 0 ) 0.6687225735501001, 0.33127742644989994;
    ( 0, 1, 1, 1, 1, 1, 1 ) 0.9967445589698579, 0.003255441030142075;
    ( 1, 0, 0, 0, 0, 0, 0 ) 0.9104628276544879, 0.08953717234551213;
    ( 1, 0, 0, 0, 0, 0, 1 ) 0.991019664242727, 0.008980335757273078;
    ( 1, 0, 0, 0, 0, 1, 0 ) 0.14428430143556678, 0.8557156985644333;
    ( 1, 0, 0, 0, 0, 1, 1 ) 0.9999460392239837, 5.396077601631946e-05;
    ( 1, 0, 0, 0, 1, 0, 0 ) 0.9973941257271776, 0.002605874272822406;
    ( 1, 0, 0, 0, 1, 0, 1 ) 0.9999735979996456, 2.6402000354484405e-05;
    ( 1, 0, 0, 0, 1, 1, 0 ) 0.7438693008371564, 0.2561306991628436;
    ( 1, 0, 0, 0, 1, 1, 1 ) 0.9999999415273031, 5.8472696866770766e-08;
    ( 1, 0, 0, 1, 0, 0, 0 ) 0.9998063861599958, 0.00019361384000402197;
    ( 1, 0, 0, 1, 0, 0, 1 ) 0.9999989396913134, 1.0603086866246387e-06;
    ( 1, 0, 0, 1, 0, 1, 0 ) 0.7169933266969326, 0.28300667330306745;
    ( 1, 0, 0, 1, 0, 1, 1 ) 0.9999796023813892, 2.0397618610763663e-05;
    ( 1, 0, 0, 1, 1, 0, 0 ) 0.9999981061722275, 1.8938277724031838e-06;
    ( 1, 0, 0, 1, 1, 0, 1 ) 0.9999999985919807, 1.4080192553390969e-09;
    ( 1, 0, 0, 1, 1, 1, 0 ) 0.9926507196486365, 0.0073492803513634875;
    ( 1, 0, 0, 1, 1, 1, 1 ) 0.9999999893930697, 1.0606930304900535e-08;
    ( 1, 0, 1, 0, 0, 0, 0 ) 0.026022490780902394, 0.9739775092190975;
    ( 1, 0, 1, 0, 0, 0, 1 ) 0.9903771017817252, 0.009622898218274669;
    ( 1, 0, 1, 0, 0, 1, 0 ) 0.0009632673328384704, 0.9990367326671615;
    ( 1, 0, 1, 0, 0, 1, 1 ) 0.729713545629065, 0.27028645437093507;
    ( 1, 0, 1, 0, 1, 0, 0 ) 0.8792154942574102, 0.12078450574258989;
    ( 1, 0, 1, 0, 1, 0, 1 ) 0.9999194914479709, 8.050855202909638e-05;
    ( 1, 0, 1, 0, 1, 1, 0 ) 0.054699856611551044, 0.945300143388449;
    ( 1, 0, 1, 0, 1, 1, 1 ) 0.9998406480530673, 0.00015935194693268094;
    ( 1, 0, 1, 1, 0, 0, 0 ) 0.9984780388010861, 0.0015219611989139236;
    ( 1, 0, 1, 1, 0, 0, 1 ) 0.9999984113183862, 1.5886816139270746e-06;
    ( 1, 0, 1, 1, 0, 1, 0 ) 0.01520885261833231, 0.9847911473816677;
    ( 1, 0, 1, 1, 0, 1, 1 ) 0.9905943149404473, 0.009405685059552674;
    ( 1, 0, 1, 1, 1, 0, 0 ) 0.9999301832906738, 6.981670932621831e-05;
    ( 1, 0, 1, 1, 1, 0, 1 ) 0.999999999721159, 2.788408470109825e-10;
    ( 1, 0, 1, 1, 1, 1, 0 ) 0.8225620564205598, 0.1774379435794402;
    ( 1, 0, 1, 1, 1, 1, 1 ) 0.999999330311539, 6.696884610146561e-07;
    ( 1, 1, 0, 0, 0, 0, 0 ) 0.9748640111465803, 0.02513598885341974;
    ( 1, 1, 0, 0, 0, 0, 1 ) 0.9767253422372842, 0.023274657762715742;
    ( 1, 1, 0, 0, 0, 1, 0 ) 0.9845126492593532, 0.015487350740646836;
    ( 1, 1, 0, 0, 0, 1, 1 ) 0.9961891133290428, 0.003810886670957164;
    ( 1, 1, 0, 0, 1, 0, 0 ) 0.9989737046083723, 0.0010262953916276428;
    ( 1, 1, 0, 0, 1, 0, 1 ) 0.9998936311456809, 0.00010636885431917468;
    ( 1, 1, 0, 0, 1, 1, 0 ) 0.9872629126312245, 0.012737087368775617;
    ( 1, 1, 0, 0, 1, 1, 1 ) 0.9999998717157591, 1.2828424080475564e-07;
    ( 1, 1, 0, 1, 0, 0, 0 ) 0.9999751928690125, 2.480713098754565e-05;
    ( 1, 1, 0, 1, 0, 0, 1 ) 0.9999996585481183, 3.414518817218015e-07;
    ( 1, 1, 0, 1, 0, 1, 0 ) 0.9681348963735407, 0.03186510362645934;
    ( 1, 1, 0, 1, 0, 1, 1 ) 0.9999212056744223, 7.879432557763903e-05;
    ( 1, 1, 0, 1, 1, 0, 0 ) 0.9999998274115549, 1.7258844511498825e-07;
    ( 1, 1, 0, 1, 1, 0, 1 ) 0.9999999988126029, 1.1873970973361442e-09;
    ( 1, 1, 0, 1, 1, 1, 0 ) 0.9977470796780726, 0.0022529203219274225;
    ( 1, 1, 0, 1, 1, 1, 1 ) 0.9999999931557263, 6.844273674831765e-09;
    ( 1, 1, 1, 0, 0, 0, 0 ) 0.9976067146530354, 0.002393285346964497;
    ( 1, 1, 1, 0, 0, 0, 1 ) 0.8151247976175662, 0.1848752023824339;
    ( 1, 1, 1, 0, 0, 1, 0 ) 0.06456199243126923, 0.9354380075687309;
    ( 1, 1, 1, 0, 0, 1, 1 ) 0.36249782665288266, 0.6375021733471175;
    ( 1, 1, 1, 0, 1, 0, 0 ) 0.1256230791500599, 0.8743769208499401;
    ( 1, 1, 1, 0, 1, 0, 1 ) 0.999825876242264, 0.00017412375773588737;
    ( 1, 1, 1, 0, 1, 1, 0 ) 0.1245498549164045, 0.8754501450835954;
    ( 1, 1, 1, 0, 1, 1, 1 ) 0.9907640762625081, 0.009235923737491936;
    ( 1, 1, 1, 1, 0, 0, 0 ) 0.9959827163059023, 0.004017283694097764;
    ( 1, 1, 1, 1, 0, 0, 1 ) 0.9999958853826301, 4.114617369894876e-06;
    ( 1, 1, 1, 1, 0, 1, 0 ) 0.3896374118113791, 0.6103625881886208;
    ( 1, 1, 1, 1, 0, 1, 1 ) 0.967994747264309, 0.03200525273569107;
    ( 1, 1, 1, 1, 1, 0, 0 ) 0.9999983269230439, 1.673076956144989e-06;
    ( 1, 1, 1, 1, 1, 0, 1 ) 0.9999999998993179, 1.0068212550734152e-10;
    ( 1, 1, 1, 1, 1, 1, 0 ) 0.9018897102644704, 0.09811028973552963;
    ( 1, 1, 1, 1, 1, 1, 1 ) 0.9999913320870771, 8.667912922925934e-06;

}
probability ( Diet | Fruits, Veggies ) {
    ( 0, 0 ) 0.2047121580519712, 0.7952878419480288;
    ( 0, 1 ) 0.5556398490582458, 0.4443601509417542;
    ( 1, 0 ) 0.20505785141424232, 0.7949421485857576;
    ( 1, 1 ) 0.4804687685495369, 0.5195312314504631;

}
probability ( DiffWalk ) {
    table 0.8268666666666666, 0.17313333333333333 ;
}
probability ( Education ) {
    table 0.0011333333333333334, 0.01633333333333333, 0.0348, 0.23993333333333333, 0.2766, 0.4312 ;
}
probability ( Fruits ) {
    table 0.36473333333333335, 0.6352666666666666 ;
}
probability ( HealthcareAccess | AnyHealthcare, CholCheck, NoDocbcCost ) {
    ( 0, 0, 0 ) 0.9994639067729613, 0.0005360932270386944;
    ( 0, 0, 1 ) 0.6820058907087685, 0.3179941092912315;
    ( 0, 1, 0 ) 0.6874885523128625, 0.3125114476871375;
    ( 0, 1, 1 ) 0.4211310334015624, 0.5788689665984377;
    ( 1, 0, 0 ) 0.9970696932697768, 0.0029303067302231876;
    ( 1, 0, 1 ) 0.9212826077815055, 0.07871739221849443;
    ( 1, 1, 0 ) 0.3762935389406008, 0.6237064610593992;
    ( 1, 1, 1 ) 0.5016387335486795, 0.4983612664513205;

}
probability ( HeartDiseaseorAttack ) {
    table 0.9049333333333334, 0.09506666666666666 ;
}
probability ( HighBP ) {
    table 0.5702666666666667, 0.42973333333333336 ;
}
probability ( HighChol ) {
    table 0.5749333333333333, 0.42506666666666665 ;
}
probability ( HvyAlcoholConsump ) {
    table 0.9445333333333333, 0.055466666666666664 ;
}
probability ( Income ) {
    table 0.03673333333333333, 0.0476, 0.059866666666666665, 0.07813333333333333, 0.10413333333333333, 0.14746666666666666, 0.1672, 0.35886666666666667 ;
}
probability ( NoDocbcCost ) {
    table 0.9146666666666666, 0.08533333333333333 ;
}
probability ( PhysActivity ) {
    table 0.24473333333333333, 0.7552666666666666 ;
}
probability ( PhysicalHealth | BMI, DiffWalk, PhysActivity ) {
    ( 0, 0, 0 ) 0.07363587335307793, 0.926364126646922;
    ( 0, 0, 1 ) 0.0005577874015334805, 0.9994422125984664;
    ( 0, 1, 0 ) 0.13357575824509046, 0.8664242417549095;
    ( 0, 1, 1 ) 3.8868554952746894e-06, 0.9999961131445048;
    ( 1, 0, 0 ) 0.13504828517809478, 0.8649517148219051;
    ( 1, 0, 1 ) 0.0821839957753429, 0.917816004224657;
    ( 1, 1, 0 ) 0.28815941862214556, 0.7118405813778543;
    ( 1, 1, 1 ) 0.28386807853780854, 0.7161319214621914;
    ( 2, 0, 0 ) 0.36074021727497785, 0.639259782725022;
    ( 2, 0, 1 ) 0.27402734403766826, 0.7259726559623317;
    ( 2, 1, 0 ) 0.5324960193354568, 0.46750398066454313;
    ( 2, 1, 1 ) 0.5571178153183254, 0.44288218468167456;
    ( 3, 0, 0 ) 0.5520851114239976, 0.4479148885760023;
    ( 3, 0, 1 ) 0.49085204535736177, 0.5091479546426383;
    ( 3, 1, 0 ) 0.9520073365516947, 0.047992663448305384;
    ( 3, 1, 1 ) 0.7106862474340684, 0.2893137525659316;
    ( 4, 0, 0 ) 0.7057624245208755, 0.29423757547912455;
    ( 4, 0, 1 ) 0.684447823648204, 0.31555217635179605;
    ( 4, 1, 0 ) 0.9966489591305286, 0.0033510408694713365;
    ( 4, 1, 1 ) 0.9479658526893667, 0.05203414731063321;

}
probability ( RiskFactor | HeartDiseaseorAttack, HvyAlcoholConsump, Smoker, Stroke ) {
    ( 0, 0, 0, 0 ) 0.29979515948321583, 0.7002048405167842;
    ( 0, 0, 0, 1 ) 0.6757884761147214, 0.3242115238852786;
    ( 0, 0, 1, 0 ) 0.3832487748807259, 0.616751225119274;
    ( 0, 0, 1, 1 ) 0.4048056904501258, 0.5951943095498742;
    ( 0, 1, 0, 0 ) 0.0017181625537259168, 0.9982818374462741;
    ( 0, 1, 0, 1 ) 0.9999999985324675, 1.4675324846381221e-09;
    ( 0, 1, 1, 0 ) 0.020690598186935312, 0.9793094018130647;
    ( 0, 1, 1, 1 ) 5.571218946937501e-05, 0.9999442878105307;
    ( 1, 0, 0, 0 ) 0.6073214983548675, 0.39267850164513257;
    ( 1, 0, 0, 1 ) 0.9995915903273621, 0.0004084096726377809;
    ( 1, 0, 1, 0 ) 0.8320617082939495, 0.16793829170605037;
    ( 1, 0, 1, 1 ) 0.9248903116761762, 0.0751096883238237;
    ( 1, 1, 0, 0 ) 0.6489580397207069, 0.351041960279293;
    ( 1, 1, 0, 1 ) 0.9999999999510634, 4.893662338276691e-11;
    ( 1, 1, 1, 0 ) 0.14754523120712143, 0.8524547687928786;
    ( 1, 1, 1, 1 ) 7.186200578334244e-11, 0.9999999999281379;

}
probability ( Sex ) {
    table 0.5613333333333334, 0.43866666666666665 ;
}
probability ( Smoker ) {
    table 0.5536, 0.4464 ;
}
probability ( SocioeconomicStatus | Education, Income ) {
    ( 0, 0 ) 4.80790571586991e-09, 0.9999999951920943;
    ( 0, 1 ) 0.8332366982191115, 0.16676330178088844;
    ( 0, 2 ) 0.5, 0.5;
    ( 0, 3 ) 2.9425237194087392e-08, 0.9999999705747629;
    ( 0, 4 ) 0.9999057114576244, 9.428854237556665e-05;
    ( 0, 5 ) 0.9999798446373714, 2.015536262859101e-05;
    ( 0, 6 ) 0.7950827452452939, 0.20491725475470612;
    ( 0, 7 ) 0.0003666724555354959, 0.9996333275444645;
    ( 1, 0 ) 7.689695650640214e-07, 0.9999992310304349;
    ( 1, 1 ) 0.00024314939060389053, 0.9997568506093961;
    ( 1, 2 ) 0.01134339850887624, 0.9886566014911238;
    ( 1, 3 ) 0.0023411716678306315, 0.9976588283321695;
    ( 1, 4 ) 0.05072269639744074, 0.9492773036025594;
    ( 1, 5 ) 0.999957830482892, 4.21695171079813e-05;
    ( 1, 6 ) 0.9999999893212795, 1.0678720528331284e-08;
    ( 1, 7 ) 0.00030675794919273093, 0.9996932420508073;
    ( 2, 0 ) 0.13944717347762736, 0.8605528265223727;
    ( 2, 1 ) 0.3390135094739627, 0.6609864905260373;
    ( 2, 2 ) 0.0645721688725022, 0.9354278311274978;
    ( 2, 3 ) 0.2870773050394651, 0.712922694960535;
    ( 2, 4 ) 0.5482136474862005, 0.45178635251379945;
    ( 2, 5 ) 0.7418061809612229, 0.2581938190387772;
    ( 2, 6 ) 0.2835585588023009, 0.7164414411976991;
    ( 2, 7 ) 0.7571067172068483, 0.24289328279315164;
    ( 3, 0 ) 0.20922679560655938, 0.7907732043934407;
    ( 3, 1 ) 0.17196387482447384, 0.8280361251755262;
    ( 3, 2 ) 0.45915339090899626, 0.5408466090910038;
    ( 3, 3 ) 0.419686352358302, 0.580313647641698;
    ( 3, 4 ) 0.8272980582226769, 0.17270194177732318;
    ( 3, 5 ) 0.6392792759982778, 0.3607207240017221;
    ( 3, 6 ) 0.5919432295522771, 0.40805677044772287;
    ( 3, 7 ) 0.8845322930448178, 0.11546770695518215;
    ( 4, 0 ) 0.09284867309984002, 0.90715132690016;
    ( 4, 1 ) 0.33662656465681723, 0.6633734353431828;
    ( 4, 2 ) 0.34766919125177154, 0.6523308087482285;
    ( 4, 3 ) 0.5005826938752107, 0.4994173061247893;
    ( 4, 4 ) 0.28304632696024384, 0.7169536730397561;
    ( 4, 5 ) 0.7571636986200763, 0.2428363013799238;
    ( 4, 6 ) 0.7473086567380421, 0.2526913432619578;
    ( 4, 7 ) 0.7455034958648583, 0.25449650413514163;
    ( 5, 0 ) 0.2984224553465917, 0.7015775446534083;
    ( 5, 1 ) 0.28688272246828767, 0.7131172775317123;
    ( 5, 2 ) 0.29135203279545047, 0.7086479672045496;
    ( 5, 3 ) 0.3673543207780844, 0.6326456792219156;
    ( 5, 4 ) 0.6431644352625419, 0.35683556473745826;
    ( 5, 5 ) 0.7825746793099075, 0.2174253206900925;
    ( 5, 6 ) 0.7748920088382681, 0.2251079911617318;
    ( 5, 7 ) 0.9540292549268097, 0.04597074507319038;

}
probability ( Stroke ) {
    table 0.9584666666666667, 0.04153333333333333 ;
}
probability ( UnderlyingCondition | HighBP, HighChol ) {
    ( 0, 0 ) 0.03415311597151646, 0.9658468840284835;
    ( 0, 1 ) 0.2472627495174712, 0.7527372504825288;
    ( 1, 0 ) 0.4138643867313617, 0.5861356132686383;
    ( 1, 1 ) 0.7871961472819531, 0.21280385271804692;

}
probability ( Veggies ) {
    table 0.18773333333333334, 0.8122666666666667 ;
}
