network unknown {
}
variable Age {
    type discrete [ 13 ] { 0, 1, 2, 3, 4, 5, 6, 7, 8, 9, 10, 11, 12 };
}
variable AnyHealthcare {
    type discrete [ 2 ] { 0, 1 };
}
variable BMI {
    type discrete [ 5 ] { 0, 1, 2, 3, 4 };
}
variable CholCheck {
    type discrete [ 2 ] { 0, 1 };
}
variable Demographic {
    type discrete [ 2 ] { 0, 1 };
}
variable Diabetes_binary {
    type discrete [ 2 ] { 0, 1 };
}
variable Diet {
    type discrete [ 2 ] { 0, 1 };
}
variable DiffWalk {
    type discrete [ 2 ] { 0, 1 };
}
variable Education {
    type discrete [ 6 ] { 0, 1, 2, 3, 4, 5 };
}
variable Fruits {
    type discrete [ 2 ] { 0, 1 };
}
variable HealthcareAccess {
    type discrete [ 2 ] { 0, 1 };
}
variable HeartDiseaseorAttack {
    type discrete [ 2 ] { 0, 1 };
}
variable HighBP {
    type discrete [ 2 ] { 0, 1 };
}
variable HighChol {
    type discrete [ 2 ] { 0, 1 };
}
variable HvyAlcoholConsump {
    type discrete [ 2 ] { 0, 1 };
}
variable Income {
    type discrete [ 8 ] { 0, 1, 2, 3, 4, 5, 6, 7 };
}
variable NoDocbcCost {
    type discrete [ 2 ] { 0, 1 };
}
variable PhysActivity {
    type discrete [ 2 ] { 0, 1 };
}
variable PhysicalHealth {
    type discrete [ 2 ] { 0, 1 };
}
variable RiskFactor {
    type discrete [ 2 ] { 0, 1 };
}
variable Sex {
    type discrete [ 2 ] { 0, 1 };
}
variable Smoker {
    type discrete [ 2 ] { 0, 1 };
}
variable SocioeconomicStatus {
    type discrete [ 2 ] { 0, 1 };
}
variable Stroke {
    type discrete [ 2 ] { 0, 1 };
}
variable UnderlyingCondition {
    type discrete [ 2 ] { 0, 1 };
}
variable Veggies {
    type discrete [ 2 ] { 0, 1 };
}
probability ( Age ) {
    table 0.0239, 0.0283, 0.0416, 0.0548, 0.0625, 0.0778, 0.1004, 0.129, 0.1336, 0.1296, 0.0894, 0.0606, 0.0685 ;
}
probability ( AnyHealthcare ) {
    table 0.0533, 0.9467 ;
}
probability ( BMI ) {
    table 0.0123, 0.3276, 0.3713, 0.1801, 0.1087 ;
}
probability ( CholCheck ) {
    table 0.0379, 0.9621 ;
}
probability ( Demographic | Age, Sex ) {
    ( 0, 0 ) 0.47570169482294666, 0.5242983051770533;
    ( 0, 1 ) 0.1397092461818035, 0.8602907538181964;
    ( 1, 0 ) 0.3768773700363301, 0.6231226299636698;
    ( 1, 1 ) 0.04720808961810053, 0.9527919103818994;
    ( 2, 0 ) 0.3929207367019414, 0.6070792632980586;
    ( 2, 1 ) 0.3290833305947007, 0.6709166694052993;
    ( 3, 0 ) 0.3381035943261302, 0.6618964056738698;
    ( 3, 1 ) 0.7213785962785729, 0.27862140372142713;
    ( 4, 0 ) 0.13800666406890272, 0.8619933359310973;
    ( 4, 1 ) 0.6081145028249275, 0.39188549717507243;
    ( 5, 0 ) 0.05418636101310128, 0.9458136389868987;
    ( 5, 1 ) 0.7139299826276151, 0.28607001737238485;
    ( 6, 0 ) 0.17681969823706187, 0.8231803017629381;
    ( 6, 1 ) 0.4920482940913486, 0.5079517059086515;
    ( 7, 0 ) 0.47238756390285824, 0.5276124360971418;
    ( 7, 1 ) 0.7584879170395974, 0.24151208296040264;
    ( 8, 0 ) 0.8342175475497156, 0.16578245245028456;
    ( 8, 1 ) 0.6314454298788582, 0.36855457012114173;
    ( 9, 0 ) 0.6775253779143064, 0.32247462208569355;
    ( 9, 1 ) 0.33866111257752657, 0.6613388874224735;
    ( 10, 0 ) 0.7297413983418832, 0.27025860165811677;
    ( 10, 1 ) 0.10390308822007283, 0.8960969117799271;
    ( 11, 0 ) 0.5333299344864854, 0.46667006551351464;
    ( 11, 1 ) 0.9203461431624647, 0.07965385683753533;
    ( 12, 0 ) 0.9479416474654307, 0.05205835253456926;
    ( 12, 1 ) 0.789027965587767, 0.21097203441223292;

}
probability ( Diabetes_binary | Demographic, Diet, HealthcareAccess, PhysicalHealth, RiskFactor, SocioeconomicStatus, UnderlyingCondition ) {
    ( 0, 0, 0, 0, 0, 0, 0 ) 0.7050926955358516, 0.29490730446414837;
    ( 0, 0, 0, 0, 0, 0, 1 ) 5.724953869515407e-05, 0.9999427504613049;
    ( 0, 0, 0, 0, 0, 1, 0 ) 0.9999917656201996, 8.234379800351743e-06;
    ( 0, 0, 0, 0, 0, 1, 1 ) 0.7987383887626095, 0.20126161123739053;
    ( 0, 0, 0, 0, 1, 0, 0 ) 0.9998096585648085, 0.00019034143519142672;
    ( 0, 0, 0, 0, 1, 0, 1 ) 0.04465322925375282, 0.9553467707462472;
    ( 0, 0, 0, 0, 1, 1, 0 ) 0.999999999207762, 7.922381414004185e-10;
    ( 0, 0, 0, 0, 1, 1, 1 ) 0.35007982749745764, 0.6499201725025423;
    ( 0, 0, 0, 1, 0, 0, 0 ) 0.9966706613135327, 0.0033293386864673997;
    ( 0, 0, 0, 1, 0, 0, 1 ) 0.6743819656480604, 0.32561803435193953;
    ( 0, 0, 0, 1, 0, 1, 0 ) 0.9999999225455305, 7.745446954476149e-08;
    ( 0, 0, 0, 1, 0, 1, 1 ) 0.9981388591087773, 0.0018611408912226769;
    ( 0, 0, 0, 1, 1, 0, 0 ) 0.9999999808151344, 1.9184865613817086e-08;
    ( 0, 0, 0, 1, 1, 0, 1 ) 0.7236576665202105, 0.2763423334797895;
    ( 0, 0, 0, 1, 1, 1, 0 ) 0.9999999993328671, 6.671328111954888e-10;
    ( 0, 0, 0, 1, 1, 1, 1 ) 0.9946654706585673, 0.00533452934143277;
    ( 0, 0, 1, 0, 0, 0, 0 ) 0.08994945516745073, 0.9100505448325493;
    ( 0, 0, 1, 0, 0, 0, 1 ) 0.7285797169169551, 0.2714202830830448;
    ( 0, 0, 1, 0, 0, 1, 0 ) 0.9617059248311168, 0.0382940751688831;
    ( 0, 0, 1, 0, 0, 1, 1 ) 0.9966749445728222, 0.003325055427177808;
    ( 0, 0, 1, 0, 1, 0, 0 ) 0.88261046622176, 0.11738953377823999;
    ( 0, 0, 1, 0, 1, 0, 1 ) 0.786251994276378, 0.2137480057236219;
    ( 0, 0, 1, 0, 1, 1, 0 ) 0.9954581810870139, 0.004541818912986129;
    ( 0, 0, 1, 0, 1, 1, 1 ) 0.3886246463217461, 0.611375353678254;
    ( 0, 0, 1, 1, 0, 0, 0 ) 0.9774541730278055, 0.02254582697219461;
    ( 0, 0, 1, 1, 0, 0, 1 ) 0.9873250679469454, 0.012674932053054588;
    ( 0, 0, 1, 1, 0, 1, 0 ) 0.989292378879589, 0.010707621120411043;
    ( 0, 0, 1, 1, 0, 1, 1 ) 0.9999435972315208, 5.6402768479194626e-05;
    ( 0, 0, 1, 1, 1, 0, 0 ) 0.5777247677740741, 0.4222752322259259;
    ( 0, 0, 1, 1, 1, 0, 1 ) 0.7168578056991384, 0.28314219430086157;
    ( 0, 0, 1, 1, 1, 1, 0 ) 0.9995922355864506, 0.0004077644135493811;
    ( 0, 0, 1, 1, 1, 1, 1 ) 0.971147737187967, 0.02885226281203299;
    ( 0, 1, 0, 0, 0, 0, 0 ) 0.2708390996485813, 0.7291609003514187;
    ( 0, 1, 0, 0, 0, 0, 1 ) 0.0004778411355552522, 0.9995221588644447;
    ( 0, 1, 0, 0, 0, 1, 0 ) 0.9997462215686272, 0.00025377843137284567;
    ( 0, 1, 0, 0, 0, 1, 1 ) 0.6065558265769678, 0.3934441734230322;
    ( 0, 1, 0, 0, 1, 0, 0 ) 0.9995234586167185, 0.00047654138328147105;
    ( 0, 1, 0, 0, 1, 0, 1 ) 0.20825478554520954, 0.7917452144547904;
    ( 0, 1, 0, 0, 1, 1, 0 ) 0.9999999404709895, 5.9529010397139106e-08;
    ( 0, 1, 0, 0, 1, 1, 1 ) 0.9573831308461124, 0.04261686915388759;
    ( 0, 1, 0, 1, 0, 0, 0 ) 0.9741229089996718, 0.0258770910003282;
    ( 0, 1, 0, 1, 0, 0, 1 ) 0.03241778081209094, 0.9675822191879091;
    ( 0, 1, 0, 1, 0, 1, 0 ) 0.9999984282261285, 1.571773871510637e-06;
    ( 0, 1, 0, 1, 0, 1, 1 ) 0.9442091181054135, 0.05579088189458648;
    ( 0, 1, 0, 1, 1, 0, 0 ) 0.9999850601322873, 1.4939867712686156e-05;
    ( 0, 1, 0, 1, 1, 0, 1 ) 0.9957057471623902, 0.004294252837609747;
    ( 0, 1, 0, 1, 1, 1, 0 ) 0.9999999828662135, 1.7133786393377587e-08;
    ( 0, 1, 0, 1, 1, 1, 1 ) 0.9955729065074718, 0.004427093492528123;
    ( 0, 1, 1, 0, 0, 0, 0 ) 0.17154289828740207, 0.828457101712598;
    ( 0, 1, 1, 0, 0, 0, 1 ) 0.07787280910623863, 0.9221271908937614;
    ( 0, 1, 1, 0, 0, 1, 0 ) 0.9822984221238894, 0.01770157787611058;
    ( 0, 1, 1, 0, 0, 1, 1 ) 0.40944032772135425, 0.5905596722786457;
    ( 0, 1, 1, 0, 1, 0, 0 ) 0.9777051364258209, 0.022294863574179046;
    ( 0, 1, 1, 0, 1, 0, 1 ) 0.5003779199206589, 0.4996220800793411;
    ( 0, 1, 1, 0, 1, 1, 0 ) 0.7920063329896081, 0.2079936670103918;
    ( 0, 1, 1, 0, 1, 1, 1 ) 0.6783142686329742, 0.3216857313670258;
    ( 0, 1, 1, 1, 0, 0, 0 ) 0.9948290451287046, 0.005170954871295393;
    ( 0, 1, 1, 1, 0, 0, 1 ) 0.5328709096373322, 0.4671290903626678;
    ( 0, 1, 1, 1, 0, 1, 0 ) 0.9803598551868942, 0.0196401448131058;
    ( 0, 1, 1, 1, 0, 1, 1 ) 0.9089015719236582, 0.09109842807634183;
    ( 0, 1, 1, 1, 1, 0, 0 ) 0.9981188316922553, 0.0018811683077446972;
    ( 0, 1, 1, 1, 1, 0, 1 ) 0.9854370749231399, 0.014562925076860087;
    ( 0, 1, 1, 1, 1, 1, 0 ) 0.9880817754057428, 0.011918224594257109;
    ( 0, 1, 1, 1, 1, 1, 1 ) 0.9866528514821866, 0.013347148517813344;
    ( 1, 0, 0, 0, 0, 0, 0 ) 0.9906908814672875, 0.009309118532712622;
    ( 1, 0, 0, 0, 0, 0, 1 ) 0.24254327303927203, 0.757456726960728;
    ( 1, 0, 0, 0, 0, 1, 0 ) 0.9999926439369615, 7.356063038544093e-06;
    ( 1, 0, 0, 0, 0, 1, 1 ) 0.42636162324006943, 0.5736383767599307;
    ( 1, 0, 0, 0, 1, 0, 0 ) 0.9775486314043962, 0.022451368595603812;
    ( 1, 0, 0, 0, 1, 0, 1 ) 0.15900084409439733, 0.8409991559056026;
    ( 1, 0, 0, 0, 1, 1, 0 ) 0.9999999951626166, 4.837383412195163e-09;
    ( 1, 0, 0, 0, 1, 1, 1 ) 0.23260780780436752, 0.7673921921956326;
    ( 1, 0, 0, 1, 0, 0, 0 ) 0.999999998109246, 1.890753963210457e-09;
    ( 1, 0, 0, 1, 0, 0, 1 ) 0.18812656600253175, 0.8118734339974683;
    ( 1, 0, 0, 1, 0, 1, 0 ) 0.9999999999225379, 7.746218427560904e-11;
    ( 1, 0, 0, 1, 0, 1, 1 ) 0.9999836658872693, 1.6334112730820155e-05;
    ( 1, 0, 0, 1, 1, 0, 0 ) 0.9999999997663881, 2.33611994899897e-10;
    ( 1, 0, 0, 1, 1, 0, 1 ) 0.8083535134816675, 0.19164648651833247;
    ( 1, 0, 0, 1, 1, 1, 0 ) 0.9999999999361427, 6.385722978350369e-11;
    ( 1, 0, 0, 1, 1, 1, 1 ) 0.9999969832644281, 3.0167355719998748e-06;
    ( 1, 0, 1, 0, 0, 0, 0 ) 0.7946049502941737, 0.20539504970582637;
    ( 1, 0, 1, 0, 0, 0, 1 ) 0.09226129133365658, 0.9077387086663434;
    ( 1, 0, 1, 0, 0, 1, 0 ) 0.45492498689155897, 0.545075013108441;
    ( 1, 0, 1, 0, 0, 1, 1 ) 0.3217739137770892, 0.6782260862229108;
    ( 1, 0, 1, 0, 1, 0, 0 ) 0.6231518897215355, 0.3768481102784644;
    ( 1, 0, 1, 0, 1, 0, 1 ) 0.0680002000694305, 0.9319997999305695;
    ( 1, 0, 1, 0, 1, 1, 0 ) 0.7425365261148823, 0.2574634738851178;
    ( 1, 0, 1, 0, 1, 1, 1 ) 0.0800414785465797, 0.9199585214534203;
    ( 1, 0, 1, 1, 0, 0, 0 ) 0.9999557578401573, 4.4242159842760895e-05;
    ( 1, 0, 1, 1, 0, 0, 1 ) 0.9909522145181039, 0.009047785481896114;
    ( 1, 0, 1, 1, 0, 1, 0 ) 0.9998675695495862, 0.00013243045041385788;
    ( 1, 0, 1, 1, 0, 1, 1 ) 0.9999176483891085, 8.23516108915537e-05;
    ( 1, 0, 1, 1, 1, 0, 0 ) 0.9999952283364604, 4.771663539660426e-06;
    ( 1, 0, 1, 1, 1, 0, 1 ) 0.3303108942398053, 0.6696891057601946;
    ( 1, 0, 1, 1, 1, 1, 0 ) 0.9999999990308809, 9.691190929487677e-10;
    ( 1, 0, 1, 1, 1, 1, 1 ) 0.9999445505599367, 5.5449440063293996e-05;
    ( 1, 1, 0, 0, 0, 0, 0 ) 0.9980138122435245, 0.0019861877564756342;
    ( 1, 1, 0, 0, 0, 0, 1 ) 0.11766742262369616, 0.8823325773763039;
    ( 1, 1, 0, 0, 0, 1, 0 ) 0.9999237446535492, 7.625534645080884e-05;
    ( 1, 1, 0, 0, 0, 1, 1 ) 0.013214280486009932, 0.9867857195139901;
    ( 1, 1, 0, 0, 1, 0, 0 ) 0.9799180845077885, 0.020081915492211506;
    ( 1, 1, 0, 0, 1, 0, 1 ) 0.007450390565309708, 0.9925496094346903;
    ( 1, 1, 0, 0, 1, 1, 0 ) 0.9999999923371826, 7.662817320593348e-09;
    ( 1, 1, 0, 0, 1, 1, 1 ) 0.9543593511992279, 0.04564064880077221;
    ( 1, 1, 0, 1, 0, 0, 0 ) 0.999999999742899, 2.57101014701795e-10;
    ( 1, 1, 0, 1, 0, 0, 1 ) 0.40314382821892486, 0.5968561717810752;
    ( 1, 1, 0, 1, 0, 1, 0 ) 0.9999999999208106, 7.918943002337698e-11;
    ( 1, 1, 0, 1, 0, 1, 1 ) 0.9968583347670709, 0.0031416652329291483;
    ( 1, 1, 0, 1, 1, 0, 0 ) 0.9819027271899637, 0.01809727281003636;
    ( 1, 1, 0, 1, 1, 0, 1 ) 0.9491346516869309, 0.05086534831306911;
    ( 1, 1, 0, 1, 1, 1, 0 ) 0.9999999999285899, 7.141005470940898e-11;
    ( 1, 1, 0, 1, 1, 1, 1 ) 0.9999982955633686, 1.7044366313842547e-06;
    ( 1, 1, 1, 0, 0, 0, 0 ) 0.9960668553036092, 0.0039331446963907805;
    ( 1, 1, 1, 0, 0, 0, 1 ) 0.0021360925390196536, 0.9978639074609803;
    ( 1, 1, 1, 0, 0, 1, 0 ) 0.9421400798304074, 0.05785992016959263;
    ( 1, 1, 1, 0, 0, 1, 1 ) 0.02664823426993155, 0.9733517657300684;
    ( 1, 1, 1, 0, 1, 0, 0 ) 0.9618124131127828, 0.0381875868872172;
    ( 1, 1, 1, 0, 1, 0, 1 ) 0.054361946254449345, 0.9456380537455505;
    ( 1, 1, 1, 0, 1, 1, 0 ) 0.9928316099648314, 0.007168390035168581;
    ( 1, 1, 1, 0, 1, 1, 1 ) 0.08469609089117737, 0.9153039091088225;
    ( 1, 1, 1, 1, 0, 0, 0 ) 0.999999994828437, 5.171562918801992e-09;
    ( 1, 1, 1, 1, 0, 0, 1 ) 0.7674066861909461, 0.23259331380905385;
    ( 1, 1, 1, 1, 0, 1, 0 ) 0.9999889983869784, 1.1001613021553043e-05;
    ( 1, 1, 1, 1, 0, 1, 1 ) 0.9999957560309569, 4.243969042994195e-06;
    ( 1, 1, 1, 1, 1, 0, 0 ) 0.9999998573625597, 1.4263744036744857e-07;
    ( 1, 1, 1, 1, 1, 0, 1 ) 0.9872694759927976, 0.012730524007202447;
    ( 1, 1, 1, 1, 1, 1, 0 ) 0.9999996515779489, 3.4842205115649735e-07;
    ( 1, 1, 1, 1, 1, 1, 1 ) 0.9993281688975135, 0.0006718311024864667;

}
probability ( Diet | Fruits, Veggies ) {
    ( 0, 0 ) 0.5306079848781672, 0.46939201512183276;
    ( 0, 1 ) 0.15814016023165822, 0.8418598397683419;
    ( 1, 0 ) 0.7905761545550709, 0.20942384544492915;
    ( 1, 1 ) 0.28690632563820767, 0.7130936743617924;

}
probability ( DiffWalk ) {
    table 0.8314, 0.1686 ;
}
probability ( Education ) {
    table 0.0003, 0.0173, 0.0376, 0.2537, 0.274, 0.4171 ;
}
probability ( Fruits ) {
    table 0.3607, 0.6393 ;
}
probability ( HealthcareAccess | AnyHealthcare, CholCheck, NoDocbcCost ) {
    ( 0, 0, 0 ) 0.8589757691006098, 0.1410242308993902;
    ( 0, 0, 1 ) 0.10284922903140682, 0.8971507709685932;
    ( 0, 1, 0 ) 0.9379424414712201, 0.06205755852877983;
    ( 0, 1, 1 ) 0.22803826947093514, 0.7719617305290649;
    ( 1, 0, 0 ) 0.9792479279667348, 0.020752072033265248;
    ( 1, 0, 1 ) 0.9969640202187728, 0.003035979781227171;
    ( 1, 1, 0 ) 0.19975395991984304, 0.800246040080157;
    ( 1, 1, 1 ) 0.6012769414056583, 0.39872305859434154;

}
probability ( HeartDiseaseorAttack ) {
    table 0.9051, 0.0949 ;
}
probability ( HighBP ) {
    table 0.5714, 0.4286 ;
}
probability ( HighChol ) {
    table 0.5747, 0.4253 ;
}
probability ( HvyAlcoholConsump ) {
    table 0.9427, 0.0573 ;
}
probability ( Income ) {
    table 0.0411, 0.0481, 0.0633, 0.0808, 0.107, 0.142, 0.1747, 0.343 ;
}
probability ( NoDocbcCost ) {
    table 0.9159, 0.0841 ;
}
probability ( PhysActivity ) {
    table 0.2438, 0.7562 ;
}
probability ( PhysicalHealth | BMI, DiffWalk, PhysActivity ) {
    ( 0, 0, 0 ) 0.0146297106904804, 0.9853702893095195;
    ( 0, 0, 1 ) 5.4328121099749104e-05, 0.9999456718789004;
    ( 0, 1, 0 ) 0.9999996565301164, 3.4346988370847005e-07;
    ( 0, 1, 1 ) 0.9877978460893668, 0.012202153910633182;
    ( 1, 0, 0 ) 0.07507879868544623, 0.9249212013145538;
    ( 1, 0, 1 ) 0.08183603561832543, 0.9181639643816746;
    ( 1, 1, 0 ) 0.5321581645675566, 0.46784183543244345;
    ( 1, 1, 1 ) 0.5283732902702873, 0.47162670972971266;
    ( 2, 0, 0 ) 0.3766753469642552, 0.6233246530357447;
    ( 2, 0, 1 ) 0.23628752922413349, 0.7637124707758665;
    ( 2, 1, 0 ) 0.799791490036423, 0.20020850996357686;
    ( 2, 1, 1 ) 0.7705615169424566, 0.2294384830575435;
    ( 3, 0, 0 ) 0.6264408715309816, 0.3735591284690184;
    ( 3, 0, 1 ) 0.445455451698783, 0.554544548301217;
    ( 3, 1, 0 ) 0.8623531086860727, 0.13764689131392732;
    ( 3, 1, 1 ) 0.8118066115883258, 0.18819338841167424;
    ( 4, 0, 0 ) 0.7689840211287118, 0.23101597887128822;
    ( 4, 0, 1 ) 0.7467891220822693, 0.25321087791773067;
    ( 4, 1, 0 ) 0.9999878418668054, 1.2158133194632316e-05;
    ( 4, 1, 1 ) 0.9276498465608388, 0.07235015343916122;

}
probability ( RiskFactor | HeartDiseaseorAttack, HvyAlcoholConsump, Smoker, Stroke ) {
    ( 0, 0, 0, 0 ) 0.527868528919656, 0.472131471080344;
    ( 0, 0, 0, 1 ) 0.4849807247586588, 0.5150192752413413;
    ( 0, 0, 1, 0 ) 0.1448835863409879, 0.855116413659012;
    ( 0, 0, 1, 1 ) 0.1332952547593726, 0.8667047452406274;
    ( 0, 1, 0, 0 ) 0.07276735241918586, 0.9272326475808143;
    ( 0, 1, 0, 1 ) 0.9999999999386506, 6.134942029745358e-11;
    ( 0, 1, 1, 0 ) 0.011935400995930956, 0.988064599004069;
    ( 0, 1, 1, 1 ) 0.00034270123340460326, 0.9996572987665954;
    ( 1, 0, 0, 0 ) 0.8610651334682554, 0.13893486653174467;
    ( 1, 0, 0, 1 ) 0.9942704548815033, 0.005729545118496705;
    ( 1, 0, 1, 0 ) 0.8111504209032239, 0.18884957909677616;
    ( 1, 0, 1, 1 ) 0.9112656695847325, 0.08873433041526747;
    ( 1, 1, 0, 0 ) 0.14243151268400592, 0.857568487315994;
    ( 1, 1, 0, 1 ) 0.005294166558185362, 0.9947058334418146;
    ( 1, 1, 1, 0 ) 0.007622711936269237, 0.9923772880637307;
    ( 1, 1, 1, 1 ) 0.9999992521114497, 7.478885503245415e-07;

}
probability ( Sex ) {
    table 0.5576, 0.4424 ;
}
probability ( Smoker ) {
    table 0.5485, 0.4515 ;
}
probability ( SocioeconomicStatus | Education, Income ) {
    ( 0, 0 ) 0.5, 0.5;
    ( 0, 1 ) 0.5, 0.5;
    ( 0, 2 ) 1.7565610434487916e-05, 0.9999824343895655;
    ( 0, 3 ) 0.5, 0.5;
    ( 0, 4 ) 0.00017570815974142766, 0.9998242918402586;
    ( 0, 5 ) 0.019073378954267646, 0.9809266210457324;
    ( 0, 6 ) 0.5, 0.5;
    ( 0, 7 ) 0.5, 0.5;
    ( 1, 0 ) 0.9998418473276716, 0.00015815267232848298;
    ( 1, 1 ) 0.9994041516311203, 0.0005958483688797096;
    ( 1, 2 ) 0.6930775986661218, 0.3069224013338782;
    ( 1, 3 ) 0.9677969902984175, 0.0322030097015825;
    ( 1, 4 ) 0.9999999999222011, 7.779893629695934e-11;
    ( 1, 5 ) 0.00010396246848216638, 0.9998960375315178;
    ( 1, 6 ) 1.3104683337306697e-06, 0.9999986895316663;
    ( 1, 7 ) 0.0256070325638722, 0.9743929674361278;
    ( 2, 0 ) 0.8289132451965499, 0.1710867548034502;
    ( 2, 1 ) 0.9098528193058899, 0.0901471806941101;
    ( 2, 2 ) 0.8548615677631999, 0.14513843223680006;
    ( 2, 3 ) 0.8372351192901858, 0.16276488070981418;
    ( 2, 4 ) 0.6934175097352409, 0.3065824902647591;
    ( 2, 5 ) 0.599599528124215, 0.400400471875785;
    ( 2, 6 ) 0.9935557445217197, 0.006444255478280377;
    ( 2, 7 ) 0.9696542086854292, 0.030345791314570762;
    ( 3, 0 ) 0.9877824100430624, 0.012217589956937502;
    ( 3, 1 ) 0.7096209106019897, 0.2903790893980104;
    ( 3, 2 ) 0.47134707742816, 0.5286529225718399;
    ( 3, 3 ) 0.8401120193629171, 0.15988798063708282;
    ( 3, 4 ) 0.5791765440819824, 0.4208234559180176;
    ( 3, 5 ) 0.5016941178611221, 0.49830588213887794;
    ( 3, 6 ) 0.29549926276774713, 0.7045007372322529;
    ( 3, 7 ) 0.2547430252680806, 0.7452569747319193;
    ( 4, 0 ) 0.8829178996323811, 0.11708210036761892;
    ( 4, 1 ) 0.543462851909862, 0.4565371480901381;
    ( 4, 2 ) 0.9205506761447327, 0.07944932385526733;
    ( 4, 3 ) 0.6485134135456879, 0.3514865864543121;
    ( 4, 4 ) 0.7835475959784354, 0.21645240402156457;
    ( 4, 5 ) 0.4405845156983305, 0.5594154843016694;
    ( 4, 6 ) 0.2962504856860257, 0.7037495143139743;
    ( 4, 7 ) 0.29336825728165855, 0.7066317427183414;
    ( 5, 0 ) 0.4558339954097218, 0.5441660045902782;
    ( 5, 1 ) 0.2509529211619917, 0.7490470788380083;
    ( 5, 2 ) 0.7708345884391199, 0.2291654115608802;
    ( 5, 3 ) 0.33342972321407927, 0.6665702767859207;
    ( 5, 4 ) 0.14553838192806548, 0.8544616180719344;
    ( 5, 5 ) 0.28446028848619836, 0.7155397115138017;
    ( 5, 6 ) 0.286012970455247, 0.7139870295447529;
    ( 5, 7 ) 0.05686068416735269, 0.9431393158326472;

}
probability ( Stroke ) {
    table 0.9596, 0.0404 ;
}
probability ( UnderlyingCondition | HighBP, HighChol ) {
    ( 0, 0 ) 0.994401883420358, 0.005598116579642071;
    ( 0, 1 ) 0.7545847342584556, 0.24541526574154435;
    ( 1, 0 ) 0.6873983855122257, 0.31260161448777435;
    ( 1, 1 ) 0.30414392926202066, 0.6958560707379794;

}
probability ( Veggies ) {
    table 0.1861, 0.8139 ;
}
