network unknown {
}
variable Age {
    type discrete [ 13 ] { 0, 1, 2, 3, 4, 5, 6, 7, 8, 9, 10, 11, 12 };
}
variable AnyHealthcare {
    type discrete [ 2 ] { 0, 1 };
}
variable BMI {
    type discrete [ 5 ] { 0, 1, 2, 3, 4 };
}
variable CholCheck {
    type discrete [ 2 ] { 0, 1 };
}
variable ConcurrentSymptoms {
    type discrete [ 2 ] { 0, 1 };
}
variable Diabetes_binary {
    type discrete [ 2 ] { 0, 1 };
}
variable Diet {
    type discrete [ 2 ] { 0, 1 };
}
variable DiffWalk {
    type discrete [ 2 ] { 0, 1 };
}
variable Education {
    type discrete [ 6 ] { 0, 1, 2, 3, 4, 5 };
}
variable Fruits {
    type discrete [ 2 ] { 0, 1 };
}
variable GenHlth {
    type discrete [ 3 ] { 0, 1, 2 };
}
variable HealthcareAccess {
    type discrete [ 2 ] { 0, 1 };
}
variable HeartDiseaseorAttack {
    type discrete [ 2 ] { 0, 1 };
}
variable HighBP {
    type discrete [ 2 ] { 0, 1 };
}
variable HighChol {
    type discrete [ 2 ] { 0, 1 };
}
variable HvyAlcoholConsump {
    type discrete [ 2 ] { 0, 1 };
}
variable Income {
    type discrete [ 8 ] { 0, 1, 2, 3, 4, 5, 6, 7 };
}
variable MentHlth {
    type discrete [ 3 ] { 0, 1, 2 };
}
variable NoDocbcCost {
    type discrete [ 2 ] { 0, 1 };
}
variable PhysActivity {
    type discrete [ 2 ] { 0, 1 };
}
variable PhysHlth {
    type discrete [ 3 ] { 0, 1, 2 };
}
variable PhysicalHealth {
    type discrete [ 2 ] { 0, 1 };
}
variable SelfreportedStatus {
    type discrete [ 2 ] { 0, 1 };
}
variable Sex {
    type discrete [ 2 ] { 0, 1 };
}
variable Smoker {
    type discrete [ 2 ] { 0, 1 };
}
variable SocioeconomicStatus {
    type discrete [ 2 ] { 0, 1 };
}
variable Stroke {
    type discrete [ 2 ] { 0, 1 };
}
variable Veggies {
    type discrete [ 2 ] { 0, 1 };
}
probability ( Age ) {
    table 0.0224, 0.0307, 0.0429, 0.054, 0.06225, 0.0776, 0.10475, 0.1208, 0.13155, 0.12685, 0.09535, 0.0625, 0.06835 ;
}
probability ( AnyHealthcare ) {
    table 0.04755, 0.95245 ;
}
probability ( BMI ) {
    table 0.01325, 0.3361, 0.36065, 0.17565, 0.11435 ;
}
probability ( CholCheck ) {
    table 0.03795, 0.96205 ;
}
probability ( ConcurrentSymptoms | DiffWalk, HeartDiseaseorAttack, Stroke ) {
    ( 0, 0, 0 ) 0.5820858961801785, 0.4179141038198215;
    ( 0, 0, 1 ) 0.622679459950469, 0.3773205400495309;
    ( 0, 1, 0 ) 0.39781061476287755, 0.6021893852371225;
    ( 0, 1, 1 ) 0.17885762253721404, 0.821142377462786;
    ( 1, 0, 0 ) 0.27904527644639426, 0.7209547235536058;
    ( 1, 0, 1 ) 0.8072589894034915, 0.19274101059650853;
    ( 1, 1, 0 ) 0.9443931288713824, 0.055606871128617695;
    ( 1, 1, 1 ) 0.9907974087609399, 0.009202591239060177;

}
probability ( Diabetes_binary | ConcurrentSymptoms, Diet, HealthcareAccess, PhysicalHealth, SelfreportedStatus, SocioeconomicStatus ) {
    ( 0, 0, 0, 0, 0, 0 ) 0.9999973799507093, 2.6200492907373534e-06;
    ( 0, 0, 0, 0, 0, 1 ) 0.00021481249398473803, 0.9997851875060153;
    ( 0, 0, 0, 0, 1, 0 ) 0.9999999673549215, 3.264507858207508e-08;
    ( 0, 0, 0, 0, 1, 1 ) 0.9194767184543176, 0.08052328154568235;
    ( 0, 0, 0, 1, 0, 0 ) 0.9999999999256032, 7.439677808227332e-11;
    ( 0, 0, 0, 1, 0, 1 ) 0.7902443393248018, 0.20975566067519832;
    ( 0, 0, 0, 1, 1, 0 ) 0.9999999999361171, 6.388295276265583e-11;
    ( 0, 0, 0, 1, 1, 1 ) 0.9999999189753535, 8.102464655177874e-08;
    ( 0, 0, 1, 0, 0, 0 ) 0.9999303984791827, 6.960152081719074e-05;
    ( 0, 0, 1, 0, 0, 1 ) 1.2310455367288206e-05, 0.9999876895446327;
    ( 0, 0, 1, 0, 1, 0 ) 0.99999996990056, 3.0099440042683696e-08;
    ( 0, 0, 1, 0, 1, 1 ) 0.6214094662515348, 0.37859053374846513;
    ( 0, 0, 1, 1, 0, 0 ) 0.9999999999316234, 6.837669091080556e-11;
    ( 0, 0, 1, 1, 0, 1 ) 0.9223977234283672, 0.07760227657163277;
    ( 0, 0, 1, 1, 1, 0 ) 0.9999999999455245, 5.4475601843479866e-11;
    ( 0, 0, 1, 1, 1, 1 ) 0.9999999990082501, 9.917498970978502e-10;
    ( 0, 1, 0, 0, 0, 0 ) 0.991034601772213, 0.008965398227786931;
    ( 0, 1, 0, 0, 0, 1 ) 0.0016630594944327974, 0.9983369405055671;
    ( 0, 1, 0, 0, 1, 0 ) 0.9999996653064858, 3.346935142326791e-07;
    ( 0, 1, 0, 0, 1, 1 ) 0.9461838348854535, 0.05381616511454651;
    ( 0, 1, 0, 1, 0, 0 ) 0.9999999999200758, 7.992418815507982e-11;
    ( 0, 1, 0, 1, 0, 1 ) 0.9299395962765876, 0.07006040372341246;
    ( 0, 1, 0, 1, 1, 0 ) 0.9999999999346817, 6.53183266695059e-11;
    ( 0, 1, 0, 1, 1, 1 ) 0.9999999433036668, 5.669633313965705e-08;
    ( 0, 1, 1, 0, 0, 0 ) 0.9992639888484917, 0.0007360111515082497;
    ( 0, 1, 1, 0, 0, 1 ) 0.14808088777281675, 0.8519191122271833;
    ( 0, 1, 1, 0, 1, 0 ) 0.9999999982479757, 1.7520243422734989e-09;
    ( 0, 1, 1, 0, 1, 1 ) 0.9660940981756632, 0.03390590182433687;
    ( 0, 1, 1, 1, 0, 0 ) 0.9999999999352298, 6.477013027972985e-11;
    ( 0, 1, 1, 1, 0, 1 ) 0.9998821840843694, 0.0001178159156306211;
    ( 0, 1, 1, 1, 1, 0 ) 0.9999999999451672, 5.483289257947317e-11;
    ( 0, 1, 1, 1, 1, 1 ) 0.9999999996260843, 3.7391560417549563e-10;
    ( 1, 0, 0, 0, 0, 0 ) 0.9999913396514822, 8.660348517807411e-06;
    ( 1, 0, 0, 0, 0, 1 ) 0.06840229802946285, 0.931597701970537;
    ( 1, 0, 0, 0, 1, 0 ) 0.9999971525165396, 2.847483460412885e-06;
    ( 1, 0, 0, 0, 1, 1 ) 0.5262722237095064, 0.4737277762904935;
    ( 1, 0, 0, 1, 0, 0 ) 0.9999999999220961, 7.790383117921822e-11;
    ( 1, 0, 0, 1, 0, 1 ) 0.8447531852352456, 0.1552468147647544;
    ( 1, 0, 0, 1, 1, 0 ) 0.9999999999350865, 6.491352854544235e-11;
    ( 1, 0, 0, 1, 1, 1 ) 0.999998702595174, 1.2974048260000322e-06;
    ( 1, 0, 1, 0, 0, 0 ) 0.9999995929740614, 4.070259385875976e-07;
    ( 1, 0, 1, 0, 0, 1 ) 0.0978342707016724, 0.9021657292983276;
    ( 1, 0, 1, 0, 1, 0 ) 0.9999998687561648, 1.3124383522452746e-07;
    ( 1, 0, 1, 0, 1, 1 ) 0.891326751885773, 0.10867324811422693;
    ( 1, 0, 1, 1, 0, 0 ) 0.9999999999305481, 6.94518692742045e-11;
    ( 1, 0, 1, 1, 0, 1 ) 0.9959390401095654, 0.004060959890434681;
    ( 1, 0, 1, 1, 1, 0 ) 0.9999999999448399, 5.516004725699499e-11;
    ( 1, 0, 1, 1, 1, 1 ) 0.9999999055661953, 9.443380471591409e-08;
    ( 1, 1, 0, 0, 0, 0 ) 0.5462741124311723, 0.45372588756882776;
    ( 1, 1, 0, 0, 0, 1 ) 0.3197797825248195, 0.6802202174751805;
    ( 1, 1, 0, 0, 1, 0 ) 0.9999773998972966, 2.2600102703391632e-05;
    ( 1, 1, 0, 0, 1, 1 ) 0.786297326480486, 0.21370267351951386;
    ( 1, 1, 0, 1, 0, 0 ) 0.999999990407792, 9.592208025841403e-09;
    ( 1, 1, 0, 1, 0, 1 ) 0.9772362131624172, 0.02276378683758285;
    ( 1, 1, 0, 1, 1, 0 ) 0.9999999999327653, 6.723464171582554e-11;
    ( 1, 1, 0, 1, 1, 1 ) 0.9999991080025552, 8.919974447322878e-07;
    ( 1, 1, 1, 0, 0, 0 ) 0.9978344925987452, 0.0021655074012547426;
    ( 1, 1, 1, 0, 0, 1 ) 0.3339899200112892, 0.6660100799887108;
    ( 1, 1, 1, 0, 1, 0 ) 0.9999999529543315, 4.7045668539629e-08;
    ( 1, 1, 1, 0, 1, 1 ) 0.9321861457892595, 0.0678138542107405;
    ( 1, 1, 1, 1, 0, 0 ) 0.9999999999326715, 6.732834309464059e-11;
    ( 1, 1, 1, 1, 0, 1 ) 0.9999533122734751, 4.668772652494493e-05;
    ( 1, 1, 1, 1, 1, 0 ) 0.9999999999440051, 5.5994904378400427e-11;
    ( 1, 1, 1, 1, 1, 1 ) 0.9999999922903542, 7.709645933050516e-09;

}
probability ( Diet | Fruits, HvyAlcoholConsump, Smoker, Veggies ) {
    ( 0, 0, 0, 0 ) 0.007926510278845396, 0.9920734897211546;
    ( 0, 0, 0, 1 ) 0.7810245566954159, 0.21897544330458407;
    ( 0, 0, 1, 0 ) 0.46667120632177644, 0.5333287936782236;
    ( 0, 0, 1, 1 ) 0.8739350608647564, 0.1260649391352437;
    ( 0, 1, 0, 0 ) 0.8840850912026111, 0.11591490879738886;
    ( 0, 1, 0, 1 ) 0.30868605716169306, 0.691313942838307;
    ( 0, 1, 1, 0 ) 0.6512280799363228, 0.34877192006367724;
    ( 0, 1, 1, 1 ) 0.7225598916051414, 0.27744010839485855;
    ( 1, 0, 0, 0 ) 0.9148386083451613, 0.08516139165483864;
    ( 1, 0, 0, 1 ) 0.5679483786364176, 0.4320516213635825;
    ( 1, 0, 1, 0 ) 0.8792501721605317, 0.12074982783946835;
    ( 1, 0, 1, 1 ) 0.8302723424667637, 0.16972765753323618;
    ( 1, 1, 0, 0 ) 0.7146683059705919, 0.28533169402940806;
    ( 1, 1, 0, 1 ) 0.1010571926084442, 0.8989428073915557;
    ( 1, 1, 1, 0 ) 0.43548162087486614, 0.5645183791251338;
    ( 1, 1, 1, 1 ) 0.6948854975703045, 0.3051145024296955;

}
probability ( DiffWalk ) {
    table 0.833, 0.167 ;
}
probability ( Education ) {
    table 0.00085, 0.0154, 0.03725, 0.2511, 0.26965, 0.42575 ;
}
probability ( Fruits ) {
    table 0.3648, 0.6352 ;
}
probability ( GenHlth ) {
    table 0.52585, 0.3011, 0.17305 ;
}
probability ( HealthcareAccess | AnyHealthcare, CholCheck, NoDocbcCost ) {
    ( 0, 0, 0 ) 0.45144372928773496, 0.548556270712265;
    ( 0, 0, 1 ) 0.33952500759813786, 0.6604749924018621;
    ( 0, 1, 0 ) 0.6264916524195938, 0.37350834758040624;
    ( 0, 1, 1 ) 0.3439928322400126, 0.6560071677599874;
    ( 1, 0, 0 ) 0.20485816991154696, 0.7951418300884531;
    ( 1, 0, 1 ) 0.06515986265809236, 0.9348401373419075;
    ( 1, 1, 0 ) 0.7949694467494707, 0.2050305532505293;
    ( 1, 1, 1 ) 0.3643957105524731, 0.6356042894475269;

}
probability ( HeartDiseaseorAttack ) {
    table 0.9028, 0.0972 ;
}
probability ( HighBP ) {
    table 0.5688, 0.4312 ;
}
probability ( HighChol ) {
    table 0.57595, 0.42405 ;
}
probability ( HvyAlcoholConsump ) {
    table 0.9419, 0.0581 ;
}
probability ( Income ) {
    table 0.0372, 0.04625, 0.06375, 0.08265, 0.10055, 0.14285, 0.16565, 0.3611 ;
}
probability ( MentHlth ) {
    table 0.8555, 0.0731, 0.0714 ;
}
probability ( NoDocbcCost ) {
    table 0.91495, 0.08505 ;
}
probability ( PhysActivity ) {
    table 0.24375, 0.75625 ;
}
probability ( PhysHlth ) {
    table 0.81395, 0.08515, 0.1009 ;
}
probability ( PhysicalHealth | BMI, HighBP, HighChol, PhysActivity ) {
    ( 0, 0, 0, 0 ) 0.0379226650083449, 0.962077334991655;
    ( 0, 0, 0, 1 ) 9.738882174519789e-05, 0.9999026111782549;
    ( 0, 0, 1, 0 ) 0.20659650286277564, 0.7934034971372244;
    ( 0, 0, 1, 1 ) 0.1730876620015176, 0.8269123379984823;
    ( 0, 1, 0, 0 ) 0.006435355393203509, 0.9935646446067965;
    ( 0, 1, 0, 1 ) 0.8268673632799923, 0.1731326367200077;
    ( 0, 1, 1, 0 ) 0.4620376404424744, 0.5379623595575256;
    ( 0, 1, 1, 1 ) 0.6061837055763776, 0.39381629442362237;
    ( 1, 0, 0, 0 ) 0.027675808310727745, 0.9723241916892722;
    ( 1, 0, 0, 1 ) 0.020547060645811518, 0.9794529393541884;
    ( 1, 0, 1, 0 ) 0.21144048250629505, 0.788559517493705;
    ( 1, 0, 1, 1 ) 0.13754076058727197, 0.8624592394127281;
    ( 1, 1, 0, 0 ) 0.20263669111186788, 0.7973633088881321;
    ( 1, 1, 0, 1 ) 0.2322494933078351, 0.7677505066921649;
    ( 1, 1, 1, 0 ) 0.5371128772818644, 0.4628871227181356;
    ( 1, 1, 1, 1 ) 0.2918385063350951, 0.7081614936649049;
    ( 2, 0, 0, 0 ) 0.22259509436892874, 0.7774049056310712;
    ( 2, 0, 0, 1 ) 0.1524160983115703, 0.8475839016884297;
    ( 2, 0, 1, 0 ) 0.36813366307673223, 0.6318663369232678;
    ( 2, 0, 1, 1 ) 0.37613877571438054, 0.6238612242856195;
    ( 2, 1, 0, 0 ) 0.417959891404279, 0.582040108595721;
    ( 2, 1, 0, 1 ) 0.4095367003972567, 0.5904632996027434;
    ( 2, 1, 1, 0 ) 0.7082464791506397, 0.2917535208493604;
    ( 2, 1, 1, 1 ) 0.654563293159978, 0.3454367068400221;
    ( 3, 0, 0, 0 ) 0.3495157676182186, 0.6504842323817814;
    ( 3, 0, 0, 1 ) 0.2548141435844554, 0.7451858564155446;
    ( 3, 0, 1, 0 ) 0.7487865611917329, 0.251213438808267;
    ( 3, 0, 1, 1 ) 0.43475224991742945, 0.5652477500825706;
    ( 3, 1, 0, 0 ) 0.5193370971541313, 0.4806629028458686;
    ( 3, 1, 0, 1 ) 0.6784038114230843, 0.32159618857691574;
    ( 3, 1, 1, 0 ) 0.9928656397915873, 0.007134360208412691;
    ( 3, 1, 1, 1 ) 0.9540143772574865, 0.04598562274251348;
    ( 4, 0, 0, 0 ) 0.396950674010588, 0.603049325989412;
    ( 4, 0, 0, 1 ) 0.3993399518872983, 0.6006600481127017;
    ( 4, 0, 1, 0 ) 0.6801993755170593, 0.3198006244829407;
    ( 4, 0, 1, 1 ) 0.8003489341615158, 0.19965106583848424;
    ( 4, 1, 0, 0 ) 0.7870812011478463, 0.2129187988521538;
    ( 4, 1, 0, 1 ) 0.7858264774212911, 0.21417352257870886;
    ( 4, 1, 1, 0 ) 0.999999999918228, 8.177204698670976e-11;
    ( 4, 1, 1, 1 ) 0.999999832734092, 1.6726590800344707e-07;

}
probability ( SelfreportedStatus | GenHlth, MentHlth, PhysHlth ) {
    ( 0, 0, 0 ) 0.22837426715603443, 0.7716257328439655;
    ( 0, 0, 1 ) 0.2928814653072578, 0.7071185346927422;
    ( 0, 0, 2 ) 0.26004489916107415, 0.7399551008389258;
    ( 0, 1, 0 ) 0.23394963317657197, 0.7660503668234281;
    ( 0, 1, 1 ) 0.1392469575964198, 0.8607530424035802;
    ( 0, 1, 2 ) 0.026547093441635722, 0.9734529065583644;
    ( 0, 2, 0 ) 0.22833232901307748, 0.7716676709869226;
    ( 0, 2, 1 ) 0.054462114377857605, 0.9455378856221425;
    ( 0, 2, 2 ) 0.9994190649300575, 0.0005809350699424259;
    ( 1, 0, 0 ) 0.7161341286584192, 0.28386587134158087;
    ( 1, 0, 1 ) 0.6461872880472881, 0.35381271195271186;
    ( 1, 0, 2 ) 0.6283654223888522, 0.37163457761114777;
    ( 1, 1, 0 ) 0.6223082018599427, 0.37769179814005727;
    ( 1, 1, 1 ) 0.4799283592846594, 0.5200716407153406;
    ( 1, 1, 2 ) 0.8881368622051901, 0.11186313779480984;
    ( 1, 2, 0 ) 0.7226283433429609, 0.27737165665703906;
    ( 1, 2, 1 ) 0.9871169108109291, 0.01288308918907092;
    ( 1, 2, 2 ) 0.4660211884343631, 0.533978811565637;
    ( 2, 0, 0 ) 0.9993120125603603, 0.0006879874396398368;
    ( 2, 0, 1 ) 0.9999981043830893, 1.8956169107036303e-06;
    ( 2, 0, 2 ) 0.9700596470412969, 0.029940352958703068;
    ( 2, 1, 0 ) 0.9992702973684261, 0.0007297026315738607;
    ( 2, 1, 1 ) 0.999929321194971, 7.067880502894378e-05;
    ( 2, 1, 2 ) 0.9999992506316192, 7.493683807780015e-07;
    ( 2, 2, 0 ) 0.9974085882296616, 0.002591411770338456;
    ( 2, 2, 1 ) 0.999983429910084, 1.6570089916000737e-05;
    ( 2, 2, 2 ) 0.9932137637190365, 0.006786236280963667;

}
probability ( Sex ) {
    table 0.5574, 0.4426 ;
}
probability ( Smoker ) {
    table 0.5525, 0.4475 ;
}
probability ( SocioeconomicStatus | Age, Education, Income, Sex ) {
    ( 0, 0, 0, 0 ) 0.5, 0.5;
    ( 0, 0, 0, 1 ) 0.5, 0.5;
    ( 0, 0, 1, 0 ) 0.5, 0.5;
    ( 0, 0, 1, 1 ) 0.5, 0.5;
    ( 0, 0, 2, 0 ) 0.5, 0.5;
    ( 0, 0, 2, 1 ) 0.5, 0.5;
    ( 0, 0, 3, 0 ) 0.5, 0.5;
    ( 0, 0, 3, 1 ) 0.5, 0.5;
    ( 0, 0, 4, 0 ) 0.5, 0.5;
    ( 0, 0, 4, 1 ) 0.5, 0.5;
    ( 0, 0, 5, 0 ) 0.5, 0.5;
    ( 0, 0, 5, 1 ) 0.5, 0.5;
    ( 0, 0, 6, 0 ) 0.5, 0.5;
    ( 0, 0, 6, 1 ) 0.5, 0.5;
    ( 0, 0, 7, 0 ) 0.5, 0.5;
    ( 0, 0, 7, 1 ) 0.5, 0.5;
    ( 0, 1, 0, 0 ) 0.5, 0.5;
    ( 0, 1, 0, 1 ) 0.5, 0.5;
    ( 0, 1, 1, 0 ) 0.5, 0.5;
    ( 0, 1, 1, 1 ) 0.5, 0.5;
    ( 0, 1, 2, 0 ) 0.5, 0.5;
    ( 0, 1, 2, 1 ) 0.5, 0.5;
    ( 0, 1, 3, 0 ) 0.5, 0.5;
    ( 0, 1, 3, 1 ) 0.5, 0.5;
    ( 0, 1, 4, 0 ) 0.5, 0.5;
    ( 0, 1, 4, 1 ) 0.5, 0.5;
    ( 0, 1, 5, 0 ) 0.5, 0.5;
    ( 0, 1, 5, 1 ) 0.5, 0.5;
    ( 0, 1, 6, 0 ) 0.5, 0.5;
    ( 0, 1, 6, 1 ) 0.5, 0.5;
    ( 0, 1, 7, 0 ) 0.5, 0.5;
    ( 0, 1, 7, 1 ) 0.5, 0.5;
    ( 0, 2, 0, 0 ) 0.5, 0.5;
    ( 0, 2, 0, 1 ) 0.9999999999447076, 5.52924561623873e-11;
    ( 0, 2, 1, 0 ) 0.5, 0.5;
    ( 0, 2, 1, 1 ) 0.564759331547232, 0.43524066845276793;
    ( 0, 2, 2, 0 ) 0.5, 0.5;
    ( 0, 2, 2, 1 ) 0.5, 0.5;
    ( 0, 2, 3, 0 ) 0.9999999451003259, 5.489967420088406e-08;
    ( 0, 2, 3, 1 ) 0.9999999617944496, 3.8205550324281945e-08;
    ( 0, 2, 4, 0 ) 0.9997492850776035, 0.0002507149223964842;
    ( 0, 2, 4, 1 ) 0.9996854809273893, 0.00031451907261081366;
    ( 0, 2, 5, 0 ) 0.9975805989813518, 0.002419401018648213;
    ( 0, 2, 5, 1 ) 0.5, 0.5;
    ( 0, 2, 6, 0 ) 0.9881934956975986, 0.011806504302401368;
    ( 0, 2, 6, 1 ) 0.907007004557668, 0.09299299544233199;
    ( 0, 2, 7, 0 ) 0.8641462487335129, 0.13585375126648724;
    ( 0, 2, 7, 1 ) 0.9830640229346055, 0.01693597706539458;
    ( 0, 3, 0, 0 ) 0.9999013006734945, 9.869932650554096e-05;
    ( 0, 3, 0, 1 ) 0.9998218939956194, 0.0001781060043806283;
    ( 0, 3, 1, 0 ) 0.9998174039207625, 0.00018259607923755528;
    ( 0, 3, 1, 1 ) 0.9987368788458028, 0.0012631211541972425;
    ( 0, 3, 2, 0 ) 0.9999309703118036, 6.902968819646488e-05;
    ( 0, 3, 2, 1 ) 0.9852425767284975, 0.014757423271502479;
    ( 0, 3, 3, 0 ) 0.1702429210317758, 0.8297570789682241;
    ( 0, 3, 3, 1 ) 0.9999639861525018, 3.601384749818731e-05;
    ( 0, 3, 4, 0 ) 0.9998457702381534, 0.00015422976184670744;
    ( 0, 3, 4, 1 ) 0.9999940168507239, 5.983149276067613e-06;
    ( 0, 3, 5, 0 ) 0.9476652741594099, 0.05233472584059006;
    ( 0, 3, 5, 1 ) 0.9999848817455677, 1.511825443239126e-05;
    ( 0, 3, 6, 0 ) 0.9996678881038825, 0.00033211189611757013;
    ( 0, 3, 6, 1 ) 0.9998252189668757, 0.00017478103312431177;
    ( 0, 3, 7, 0 ) 0.9982928662253988, 0.0017071337746011992;
    ( 0, 3, 7, 1 ) 0.5883142058832835, 0.4116857941167166;
    ( 0, 4, 0, 0 ) 0.9983512745441785, 0.001648725455821407;
    ( 0, 4, 0, 1 ) 0.9994881803559466, 0.0005118196440535174;
    ( 0, 4, 1, 0 ) 0.999241434961925, 0.0007585650380750053;
    ( 0, 4, 1, 1 ) 0.999847939134519, 0.0001520608654810134;
    ( 0, 4, 2, 0 ) 0.20664433466836835, 0.7933556653316316;
    ( 0, 4, 2, 1 ) 0.99924254775889, 0.0007574522411100737;
    ( 0, 4, 3, 0 ) 0.23368935414770928, 0.7663106458522907;
    ( 0, 4, 3, 1 ) 0.9999856105196907, 1.4389480309341256e-05;
    ( 0, 4, 4, 0 ) 0.9999838528314646, 1.614716853528155e-05;
    ( 0, 4, 4, 1 ) 0.9997702436000924, 0.00022975639990767968;
    ( 0, 4, 5, 0 ) 0.9991228017119343, 0.0008771982880656376;
    ( 0, 4, 5, 1 ) 0.9999925637803603, 7.436219639724161e-06;
    ( 0, 4, 6, 0 ) 0.9989206377642138, 0.0010793622357862685;
    ( 0, 4, 6, 1 ) 0.9999972902288027, 2.7097711973273675e-06;
    ( 0, 4, 7, 0 ) 0.9935355517878508, 0.006464448212149269;
    ( 0, 4, 7, 1 ) 0.9996610550855398, 0.00033894491446014534;
    ( 0, 5, 0, 0 ) 0.9988501261040311, 0.0011498738959688783;
    ( 0, 5, 0, 1 ) 0.8579961004727242, 0.14200389952727582;
    ( 0, 5, 1, 0 ) 0.8812002747226556, 0.11879972527734436;
    ( 0, 5, 1, 1 ) 0.9999999985795303, 1.4204697188497323e-09;
    ( 0, 5, 2, 0 ) 0.9956553160859781, 0.004344683914021767;
    ( 0, 5, 2, 1 ) 0.999999999944279, 5.5721018837241515e-11;
    ( 0, 5, 3, 0 ) 0.9995263954757443, 0.0004736045242556579;
    ( 0, 5, 3, 1 ) 0.5, 0.5;
    ( 0, 5, 4, 0 ) 0.8624120118752863, 0.1375879881247136;
    ( 0, 5, 4, 1 ) 0.9994403035767631, 0.0005596964232369714;
    ( 0, 5, 5, 0 ) 0.9965139305310567, 0.0034860694689432172;
    ( 0, 5, 5, 1 ) 0.9987092299506966, 0.0012907700493034833;
    ( 0, 5, 6, 0 ) 0.9864769092619247, 0.013523090738075366;
    ( 0, 5, 6, 1 ) 0.9868581671374133, 0.01314183286258683;
    ( 0, 5, 7, 0 ) 0.9978627576322436, 0.0021372423677564283;
    ( 0, 5, 7, 1 ) 0.9999857948142179, 1.4205185782183935e-05;
    ( 1, 0, 0, 0 ) 0.5, 0.5;
    ( 1, 0, 0, 1 ) 0.5, 0.5;
    ( 1, 0, 1, 0 ) 0.5, 0.5;
    ( 1, 0, 1, 1 ) 0.5, 0.5;
    ( 1, 0, 2, 0 ) 0.5, 0.5;
    ( 1, 0, 2, 1 ) 0.5, 0.5;
    ( 1, 0, 3, 0 ) 0.5, 0.5;
    ( 1, 0, 3, 1 ) 0.5, 0.5;
    ( 1, 0, 4, 0 ) 0.5, 0.5;
    ( 1, 0, 4, 1 ) 0.5, 0.5;
    ( 1, 0, 5, 0 ) 0.5, 0.5;
    ( 1, 0, 5, 1 ) 0.5, 0.5;
    ( 1, 0, 6, 0 ) 0.5, 0.5;
    ( 1, 0, 6, 1 ) 0.5, 0.5;
    ( 1, 0, 7, 0 ) 0.5, 0.5;
    ( 1, 0, 7, 1 ) 0.5, 0.5;
    ( 1, 1, 0, 0 ) 0.5, 0.5;
    ( 1, 1, 0, 1 ) 0.5, 0.5;
    ( 1, 1, 1, 0 ) 0.5, 0.5;
    ( 1, 1, 1, 1 ) 0.5, 0.5;
    ( 1, 1, 2, 0 ) 0.5, 0.5;
    ( 1, 1, 2, 1 ) 0.5, 0.5;
    ( 1, 1, 3, 0 ) 0.999962854427946, 3.7145572054081e-05;
    ( 1, 1, 3, 1 ) 0.5, 0.5;
    ( 1, 1, 4, 0 ) 0.9999999999441532, 5.584675787075614e-11;
    ( 1, 1, 4, 1 ) 0.5, 0.5;
    ( 1, 1, 5, 0 ) 0.5, 0.5;
    ( 1, 1, 5, 1 ) 0.5, 0.5;
    ( 1, 1, 6, 0 ) 0.5, 0.5;
    ( 1, 1, 6, 1 ) 0.5, 0.5;
    ( 1, 1, 7, 0 ) 0.5, 0.5;
    ( 1, 1, 7, 1 ) 0.5, 0.5;
    ( 1, 2, 0, 0 ) 0.9999999999526226, 4.737743114239197e-11;
    ( 1, 2, 0, 1 ) 0.2218217067689923, 0.7781782932310077;
    ( 1, 2, 1, 0 ) 0.5, 0.5;
    ( 1, 2, 1, 1 ) 0.9999999999488535, 5.114650813722295e-11;
    ( 1, 2, 2, 0 ) 0.9999866372505293, 1.3362749470688774e-05;
    ( 1, 2, 2, 1 ) 0.9999523624849149, 4.763751508504642e-05;
    ( 1, 2, 3, 0 ) 0.5, 0.5;
    ( 1, 2, 3, 1 ) 0.5, 0.5;
    ( 1, 2, 4, 0 ) 0.5, 0.5;
    ( 1, 2, 4, 1 ) 0.9999999999401881, 5.981188548249647e-11;
    ( 1, 2, 5, 0 ) 0.9999999999371071, 6.289291147995654e-11;
    ( 1, 2, 5, 1 ) 0.99999992603521, 7.396479002975041e-08;
    ( 1, 2, 6, 0 ) 0.5, 0.5;
    ( 1, 2, 6, 1 ) 0.958144957422812, 0.04185504257718792;
    ( 1, 2, 7, 0 ) 0.5, 0.5;
    ( 1, 2, 7, 1 ) 0.9055974789865304, 0.0944025210134696;
    ( 1, 3, 0, 0 ) 0.988077158804459, 0.011922841195540981;
    ( 1, 3, 0, 1 ) 0.9712885166871251, 0.02871148331287488;
    ( 1, 3, 1, 0 ) 0.9986031526964867, 0.0013968473035133335;
    ( 1, 3, 1, 1 ) 0.9999999999333693, 6.663065171739305e-11;
    ( 1, 3, 2, 0 ) 0.9990692186456342, 0.0009307813543656982;
    ( 1, 3, 2, 1 ) 0.9995380765955657, 0.0004619234044342268;
    ( 1, 3, 3, 0 ) 0.9999999053130053, 9.468699470844149e-08;
    ( 1, 3, 3, 1 ) 0.9999996634904212, 3.365095787453641e-07;
    ( 1, 3, 4, 0 ) 0.9999999400215932, 5.997840682657498e-08;
    ( 1, 3, 4, 1 ) 0.7429346489678413, 0.2570653510321586;
    ( 1, 3, 5, 0 ) 1.3664004462923407e-05, 0.999986335995537;
    ( 1, 3, 5, 1 ) 0.9999585887572785, 4.1411242721410896e-05;
    ( 1, 3, 6, 0 ) 0.9999991343226616, 8.656773384191604e-07;
    ( 1, 3, 6, 1 ) 0.9999935452290398, 6.454770960268466e-06;
    ( 1, 3, 7, 0 ) 0.9993462589382566, 0.0006537410617435072;
    ( 1, 3, 7, 1 ) 0.9999990404323603, 9.595676396963345e-07;
    ( 1, 4, 0, 0 ) 0.9999928517270544, 7.148272945543452e-06;
    ( 1, 4, 0, 1 ) 0.9993612230107042, 0.0006387769892958056;
    ( 1, 4, 1, 0 ) 0.999977538155623, 2.246184437704422e-05;
    ( 1, 4, 1, 1 ) 0.999999969688197, 3.031180292097655e-08;
    ( 1, 4, 2, 0 ) 0.19109390169157012, 0.8089060983084299;
    ( 1, 4, 2, 1 ) 0.9237089463215772, 0.0762910536784227;
    ( 1, 4, 3, 0 ) 0.7151693430532774, 0.2848306569467226;
    ( 1, 4, 3, 1 ) 0.9999625056051457, 3.7494394854332645e-05;
    ( 1, 4, 4, 0 ) 0.9995555224637793, 0.0004444775362206555;
    ( 1, 4, 4, 1 ) 0.9994992284030262, 0.0005007715969737519;
    ( 1, 4, 5, 0 ) 0.9999997841298126, 2.1587018732005063e-07;
    ( 1, 4, 5, 1 ) 0.25697622791743824, 0.7430237720825618;
    ( 1, 4, 6, 0 ) 0.9998536475556092, 0.00014635244439077774;
    ( 1, 4, 6, 1 ) 0.18233320998735814, 0.8176667900126419;
    ( 1, 4, 7, 0 ) 0.9999438951971663, 5.610480283358701e-05;
    ( 1, 4, 7, 1 ) 0.9995907825695627, 0.0004092174304373578;
    ( 1, 5, 0, 0 ) 0.9981923710202738, 0.0018076289797261795;
    ( 1, 5, 0, 1 ) 0.9999321578722565, 6.784212774350152e-05;
    ( 1, 5, 1, 0 ) 0.9999165550081401, 8.344499185981544e-05;
    ( 1, 5, 1, 1 ) 0.5, 0.5;
    ( 1, 5, 2, 0 ) 0.9999960965112186, 3.903488781378744e-06;
    ( 1, 5, 2, 1 ) 0.9999999986864612, 1.3135388355474836e-09;
    ( 1, 5, 3, 0 ) 0.9996884506978839, 0.00031154930211605325;
    ( 1, 5, 3, 1 ) 0.9999999995701339, 4.298660773569129e-10;
    ( 1, 5, 4, 0 ) 0.9976438931468546, 0.0023561068531452825;
    ( 1, 5, 4, 1 ) 0.9999717454212849, 2.825457871522446e-05;
    ( 1, 5, 5, 0 ) 0.9999735488473459, 2.645115265414794e-05;
    ( 1, 5, 5, 1 ) 0.594282919935871, 0.40571708006412893;
    ( 1, 5, 6, 0 ) 0.9992372092270786, 0.0007627907729213998;
    ( 1, 5, 6, 1 ) 0.9974631511855592, 0.002536848814440782;
    ( 1, 5, 7, 0 ) 0.9983406497176156, 0.0016593502823843771;
    ( 1, 5, 7, 1 ) 0.9997792220997596, 0.00022077790024040847;
    ( 2, 0, 0, 0 ) 0.5, 0.5;
    ( 2, 0, 0, 1 ) 0.5, 0.5;
    ( 2, 0, 1, 0 ) 0.5, 0.5;
    ( 2, 0, 1, 1 ) 0.5, 0.5;
    ( 2, 0, 2, 0 ) 0.5, 0.5;
    ( 2, 0, 2, 1 ) 0.5, 0.5;
    ( 2, 0, 3, 0 ) 0.5, 0.5;
    ( 2, 0, 3, 1 ) 0.5, 0.5;
    ( 2, 0, 4, 0 ) 0.5, 0.5;
    ( 2, 0, 4, 1 ) 0.5, 0.5;
    ( 2, 0, 5, 0 ) 0.5, 0.5;
    ( 2, 0, 5, 1 ) 0.5, 0.5;
    ( 2, 0, 6, 0 ) 0.5, 0.5;
    ( 2, 0, 6, 1 ) 0.5, 0.5;
    ( 2, 0, 7, 0 ) 0.5, 0.5;
    ( 2, 0, 7, 1 ) 0.5, 0.5;
    ( 2, 1, 0, 0 ) 0.5, 0.5;
    ( 2, 1, 0, 1 ) 0.5, 0.5;
    ( 2, 1, 1, 0 ) 0.5, 0.5;
    ( 2, 1, 1, 1 ) 0.5, 0.5;
    ( 2, 1, 2, 0 ) 0.5, 0.5;
    ( 2, 1, 2, 1 ) 0.9995442372793022, 0.00045576272069782414;
    ( 2, 1, 3, 0 ) 0.5, 0.5;
    ( 2, 1, 3, 1 ) 0.9999999999386259, 6.137413905803548e-11;
    ( 2, 1, 4, 0 ) 0.5, 0.5;
    ( 2, 1, 4, 1 ) 0.5, 0.5;
    ( 2, 1, 5, 0 ) 0.9999999999377692, 6.223083672340569e-11;
    ( 2, 1, 5, 1 ) 0.5, 0.5;
    ( 2, 1, 6, 0 ) 0.5, 0.5;
    ( 2, 1, 6, 1 ) 0.5, 0.5;
    ( 2, 1, 7, 0 ) 0.5, 0.5;
    ( 2, 1, 7, 1 ) 0.5, 0.5;
    ( 2, 2, 0, 0 ) 0.9999798322413659, 2.0167758634065993e-05;
    ( 2, 2, 0, 1 ) 0.5, 0.5;
    ( 2, 2, 1, 0 ) 0.5, 0.5;
    ( 2, 2, 1, 1 ) 0.5, 0.5;
    ( 2, 2, 2, 0 ) 0.9999999486918877, 5.130811224849767e-08;
    ( 2, 2, 2, 1 ) 0.9999999999371093, 6.289077123619464e-11;
    ( 2, 2, 3, 0 ) 0.9999987644620045, 1.2355379954387e-06;
    ( 2, 2, 3, 1 ) 0.9999999760718208, 2.392817919433245e-08;
    ( 2, 2, 4, 0 ) 0.9999999806633388, 1.9336661157810064e-08;
    ( 2, 2, 4, 1 ) 0.9999999999325455, 6.74544575495747e-11;
    ( 2, 2, 5, 0 ) 0.9992054322396675, 0.0007945677603325096;
    ( 2, 2, 5, 1 ) 0.5, 0.5;
    ( 2, 2, 6, 0 ) 0.5, 0.5;
    ( 2, 2, 6, 1 ) 0.9448966589497347, 0.05510334105026536;
    ( 2, 2, 7, 0 ) 0.9680437861761989, 0.03195621382380108;
    ( 2, 2, 7, 1 ) 0.9997269195974162, 0.0002730804025836759;
    ( 2, 3, 0, 0 ) 0.46610323943108467, 0.5338967605689153;
    ( 2, 3, 0, 1 ) 0.9888162347957228, 0.011183765204277265;
    ( 2, 3, 1, 0 ) 0.9999999999408482, 5.915180482069195e-11;
    ( 2, 3, 1, 1 ) 0.9992467316652482, 0.0007532683347517458;
    ( 2, 3, 2, 0 ) 0.9999999990180709, 9.819290399274108e-10;
    ( 2, 3, 2, 1 ) 0.9892665921797061, 0.01073340782029389;
    ( 2, 3, 3, 0 ) 0.023006917250892364, 0.9769930827491077;
    ( 2, 3, 3, 1 ) 0.9999999999340394, 6.59606318545003e-11;
    ( 2, 3, 4, 0 ) 0.9999999782837544, 2.1716245679451806e-08;
    ( 2, 3, 4, 1 ) 0.2946730747979751, 0.7053269252020249;
    ( 2, 3, 5, 0 ) 0.20611276155598715, 0.7938872384440129;
    ( 2, 3, 5, 1 ) 0.999999983782665, 1.6217335081673302e-08;
    ( 2, 3, 6, 0 ) 0.9999810754162604, 1.892458373969511e-05;
    ( 2, 3, 6, 1 ) 0.999999997377257, 2.62274294116225e-09;
    ( 2, 3, 7, 0 ) 0.477359458176066, 0.5226405418239339;
    ( 2, 3, 7, 1 ) 0.6481553320699179, 0.35184466793008196;
    ( 2, 4, 0, 0 ) 0.9999999999470254, 5.297460470256981e-11;
    ( 2, 4, 0, 1 ) 0.9999834551799425, 1.654482005759061e-05;
    ( 2, 4, 1, 0 ) 0.9999991580668599, 8.419331401185621e-07;
    ( 2, 4, 1, 1 ) 0.9598804773253123, 0.040119522674687665;
    ( 2, 4, 2, 0 ) 0.4143521242134576, 0.5856478757865425;
    ( 2, 4, 2, 1 ) 0.9999999999298469, 7.015312444711321e-11;
    ( 2, 4, 3, 0 ) 0.6124196848607837, 0.38758031513921626;
    ( 2, 4, 3, 1 ) 0.9999999982378819, 1.7621181005414726e-09;
    ( 2, 4, 4, 0 ) 0.730520339092946, 0.26947966090705394;
    ( 2, 4, 4, 1 ) 0.9999999929292724, 7.070727509464429e-09;
    ( 2, 4, 5, 0 ) 0.9999998584576076, 1.415423922902493e-07;
    ( 2, 4, 5, 1 ) 0.5998518224481169, 0.40014817755188314;
    ( 2, 4, 6, 0 ) 0.9999995657131027, 4.3428689738657607e-07;
    ( 2, 4, 6, 1 ) 0.8205632829140619, 0.17943671708593806;
    ( 2, 4, 7, 0 ) 0.7813420400117504, 0.21865795998824958;
    ( 2, 4, 7, 1 ) 0.7148022770064043, 0.2851977229935957;
    ( 2, 5, 0, 0 ) 0.9999230705221954, 7.6929477804555e-05;
    ( 2, 5, 0, 1 ) 0.9999417824439759, 5.821755602413929e-05;
    ( 2, 5, 1, 0 ) 0.9999997513101254, 2.48689874526785e-07;
    ( 2, 5, 1, 1 ) 0.9962414141074707, 0.0037585858925292637;
    ( 2, 5, 2, 0 ) 0.999867817128279, 0.00013218287172111882;
    ( 2, 5, 2, 1 ) 0.9809748678671829, 0.019025132132817146;
    ( 2, 5, 3, 0 ) 0.9999996330566652, 3.669433348524555e-07;
    ( 2, 5, 3, 1 ) 0.9999999923690095, 7.630990458910858e-09;
    ( 2, 5, 4, 0 ) 0.999999999930298, 6.970204088160023e-11;
    ( 2, 5, 4, 1 ) 0.9999675203420949, 3.247965790510057e-05;
    ( 2, 5, 5, 0 ) 0.6783324997737998, 0.3216675002262002;
    ( 2, 5, 5, 1 ) 0.9999510875743995, 4.891242560060223e-05;
    ( 2, 5, 6, 0 ) 0.8384579733909034, 0.16154202660909653;
    ( 2, 5, 6, 1 ) 0.9999857528372577, 1.4247162742241315e-05;
    ( 2, 5, 7, 0 ) 0.6107562135620587, 0.38924378643794133;
    ( 2, 5, 7, 1 ) 0.8534927141627379, 0.14650728583726208;
    ( 3, 0, 0, 0 ) 0.5, 0.5;
    ( 3, 0, 0, 1 ) 0.5, 0.5;
    ( 3, 0, 1, 0 ) 0.5, 0.5;
    ( 3, 0, 1, 1 ) 0.5, 0.5;
    ( 3, 0, 2, 0 ) 0.5, 0.5;
    ( 3, 0, 2, 1 ) 0.5, 0.5;
    ( 3, 0, 3, 0 ) 0.5, 0.5;
    ( 3, 0, 3, 1 ) 0.5, 0.5;
    ( 3, 0, 4, 0 ) 0.5, 0.5;
    ( 3, 0, 4, 1 ) 0.5, 0.5;
    ( 3, 0, 5, 0 ) 0.5, 0.5;
    ( 3, 0, 5, 1 ) 0.5, 0.5;
    ( 3, 0, 6, 0 ) 0.5, 0.5;
    ( 3, 0, 6, 1 ) 0.5, 0.5;
    ( 3, 0, 7, 0 ) 0.5, 0.5;
    ( 3, 0, 7, 1 ) 0.5, 0.5;
    ( 3, 1, 0, 0 ) 0.5, 0.5;
    ( 3, 1, 0, 1 ) 0.5, 0.5;
    ( 3, 1, 1, 0 ) 0.5, 0.5;
    ( 3, 1, 1, 1 ) 0.9999999562856375, 4.37143624455414e-08;
    ( 3, 1, 2, 0 ) 0.9737838720140806, 0.026216127985919397;
    ( 3, 1, 2, 1 ) 0.5, 0.5;
    ( 3, 1, 3, 0 ) 0.9983004612269804, 0.001699538773019614;
    ( 3, 1, 3, 1 ) 0.5, 0.5;
    ( 3, 1, 4, 0 ) 0.9999999999557198, 4.428034987023027e-11;
    ( 3, 1, 4, 1 ) 0.9999999999521767, 4.782329430397407e-11;
    ( 3, 1, 5, 0 ) 0.5, 0.5;
    ( 3, 1, 5, 1 ) 0.9999119594476507, 8.804055234924923e-05;
    ( 3, 1, 6, 0 ) 0.5, 0.5;
    ( 3, 1, 6, 1 ) 0.5559092320686488, 0.4440907679313512;
    ( 3, 1, 7, 0 ) 0.5, 0.5;
    ( 3, 1, 7, 1 ) 0.5, 0.5;
    ( 3, 2, 0, 0 ) 0.5, 0.5;
    ( 3, 2, 0, 1 ) 0.9999787969562702, 2.1203043729758066e-05;
    ( 3, 2, 1, 0 ) 0.6290752607716054, 0.37092473922839464;
    ( 3, 2, 1, 1 ) 0.9999999911254049, 8.874595073579315e-09;
    ( 3, 2, 2, 0 ) 0.99999302816035, 6.9718396499837145e-06;
    ( 3, 2, 2, 1 ) 0.9999996231071405, 3.768928595294472e-07;
    ( 3, 2, 3, 0 ) 0.9999999998644756, 1.3552435305225487e-10;
    ( 3, 2, 3, 1 ) 0.9999999999422158, 5.778418107330296e-11;
    ( 3, 2, 4, 0 ) 5.6557658258492114e-11, 0.9999999999434424;
    ( 3, 2, 4, 1 ) 0.9999999981006426, 1.899357370829137e-09;
    ( 3, 2, 5, 0 ) 0.5, 0.5;
    ( 3, 2, 5, 1 ) 0.05236577805240561, 0.9476342219475944;
    ( 3, 2, 6, 0 ) 0.9997618519144049, 0.00023814808559508453;
    ( 3, 2, 6, 1 ) 0.9997175421045913, 0.0002824578954086615;
    ( 3, 2, 7, 0 ) 0.5, 0.5;
    ( 3, 2, 7, 1 ) 5.906659885751454e-11, 0.9999999999409335;
    ( 3, 3, 0, 0 ) 0.10594339151763114, 0.8940566084823689;
    ( 3, 3, 0, 1 ) 0.30621460804929945, 0.6937853919507005;
    ( 3, 3, 1, 0 ) 0.44015606123672935, 0.5598439387632707;
    ( 3, 3, 1, 1 ) 0.40875291724169927, 0.5912470827583007;
    ( 3, 3, 2, 0 ) 0.4371306478670036, 0.5628693521329964;
    ( 3, 3, 2, 1 ) 0.05071286433289001, 0.94928713566711;
    ( 3, 3, 3, 0 ) 0.4345134551482879, 0.5654865448517121;
    ( 3, 3, 3, 1 ) 0.00731290423663782, 0.9926870957633622;
    ( 3, 3, 4, 0 ) 0.5900636965725677, 0.40993630342743226;
    ( 3, 3, 4, 1 ) 0.9999999991115708, 8.884292868182552e-10;
    ( 3, 3, 5, 0 ) 0.9999999978977703, 2.102229657976119e-09;
    ( 3, 3, 5, 1 ) 0.9999995089715306, 4.910284693772264e-07;
    ( 3, 3, 6, 0 ) 0.044884890088156604, 0.9551151099118435;
    ( 3, 3, 6, 1 ) 0.33183227600552906, 0.668167723994471;
    ( 3, 3, 7, 0 ) 0.16952640978440672, 0.8304735902155933;
    ( 3, 3, 7, 1 ) 0.8372366449464831, 0.16276335505351686;
    ( 3, 4, 0, 0 ) 0.03359512532496155, 0.9664048746750385;
    ( 3, 4, 0, 1 ) 0.9999999980827042, 1.9172957812550454e-09;
    ( 3, 4, 1, 0 ) 0.37808016896056, 0.6219198310394399;
    ( 3, 4, 1, 1 ) 0.9999999992517686, 7.48231403904223e-10;
    ( 3, 4, 2, 0 ) 0.3411687891142809, 0.658831210885719;
    ( 3, 4, 2, 1 ) 0.009810969847762488, 0.9901890301522376;
    ( 3, 4, 3, 0 ) 0.500916999028096, 0.49908300097190395;
    ( 3, 4, 3, 1 ) 0.9999997913388077, 2.086611923169583e-07;
    ( 3, 4, 4, 0 ) 0.8738030330575883, 0.12619696694241175;
    ( 3, 4, 4, 1 ) 0.538529932519974, 0.46147006748002595;
    ( 3, 4, 5, 0 ) 0.48639719820670513, 0.5136028017932949;
    ( 3, 4, 5, 1 ) 0.764335117923964, 0.23566488207603598;
    ( 3, 4, 6, 0 ) 0.5194610611099262, 0.48053893889007376;
    ( 3, 4, 6, 1 ) 0.7634744881018136, 0.23652551189818644;
    ( 3, 4, 7, 0 ) 0.516749596975929, 0.48325040302407096;
    ( 3, 4, 7, 1 ) 0.8389301778789019, 0.16106982212109808;
    ( 3, 5, 0, 0 ) 0.9999999999355125, 6.448757818592533e-11;
    ( 3, 5, 0, 1 ) 0.9969296963756165, 0.0030703036243835465;
    ( 3, 5, 1, 0 ) 0.08500638033271485, 0.9149936196672851;
    ( 3, 5, 1, 1 ) 0.5, 0.5;
    ( 3, 5, 2, 0 ) 0.9999999997780463, 2.2195376028656819e-10;
    ( 3, 5, 2, 1 ) 0.9999999999466747, 5.332524331922884e-11;
    ( 3, 5, 3, 0 ) 0.2797254005340595, 0.7202745994659406;
    ( 3, 5, 3, 1 ) 0.9999999999460258, 5.3974145140150895e-11;
    ( 3, 5, 4, 0 ) 0.7463542470108175, 0.25364575298918246;
    ( 3, 5, 4, 1 ) 0.9999997626950371, 2.3730496289823446e-07;
    ( 3, 5, 5, 0 ) 0.9240451235245496, 0.07595487647545043;
    ( 3, 5, 5, 1 ) 0.9999925508556019, 7.449144398086652e-06;
    ( 3, 5, 6, 0 ) 0.9999926796047525, 7.320395247526188e-06;
    ( 3, 5, 6, 1 ) 0.9999879910191701, 1.200898082998793e-05;
    ( 3, 5, 7, 0 ) 0.9744927287226629, 0.02550727127733713;
    ( 3, 5, 7, 1 ) 0.9320711790582086, 0.06792882094179147;
    ( 4, 0, 0, 0 ) 0.5, 0.5;
    ( 4, 0, 0, 1 ) 0.5, 0.5;
    ( 4, 0, 1, 0 ) 0.5, 0.5;
    ( 4, 0, 1, 1 ) 0.5, 0.5;
    ( 4, 0, 2, 0 ) 0.5, 0.5;
    ( 4, 0, 2, 1 ) 0.5, 0.5;
    ( 4, 0, 3, 0 ) 0.5, 0.5;
    ( 4, 0, 3, 1 ) 0.5, 0.5;
    ( 4, 0, 4, 0 ) 0.5, 0.5;
    ( 4, 0, 4, 1 ) 0.5, 0.5;
    ( 4, 0, 5, 0 ) 0.5, 0.5;
    ( 4, 0, 5, 1 ) 0.5, 0.5;
    ( 4, 0, 6, 0 ) 0.5, 0.5;
    ( 4, 0, 6, 1 ) 0.5, 0.5;
    ( 4, 0, 7, 0 ) 0.5, 0.5;
    ( 4, 0, 7, 1 ) 0.5, 0.5;
    ( 4, 1, 0, 0 ) 0.9999999999317486, 6.825145984666085e-11;
    ( 4, 1, 0, 1 ) 3.0103786839912525e-13, 0.999999999999699;
    ( 4, 1, 1, 0 ) 0.9999999999516734, 4.832658208499205e-11;
    ( 4, 1, 1, 1 ) 0.5, 0.5;
    ( 4, 1, 2, 0 ) 0.999993342785305, 6.6572146949826265e-06;
    ( 4, 1, 2, 1 ) 3.200333929895962e-09, 0.9999999967996661;
    ( 4, 1, 3, 0 ) 0.9999990389003985, 9.610996014520036e-07;
    ( 4, 1, 3, 1 ) 0.9967535515890523, 0.003246448410947697;
    ( 4, 1, 4, 0 ) 0.9153574668051937, 0.08464253319480639;
    ( 4, 1, 4, 1 ) 0.9999443258499113, 5.5674150088756394e-05;
    ( 4, 1, 5, 0 ) 0.5, 0.5;
    ( 4, 1, 5, 1 ) 0.9999999999430044, 5.69956220031031e-11;
    ( 4, 1, 6, 0 ) 0.9999999991846237, 8.153763520387614e-10;
    ( 4, 1, 6, 1 ) 0.5, 0.5;
    ( 4, 1, 7, 0 ) 0.5, 0.5;
    ( 4, 1, 7, 1 ) 0.5, 0.5;
    ( 4, 2, 0, 0 ) 0.9976987667087587, 0.002301233291241289;
    ( 4, 2, 0, 1 ) 0.9999999999494362, 5.056380983620502e-11;
    ( 4, 2, 1, 0 ) 0.9999999999543668, 4.5633081803841915e-11;
    ( 4, 2, 1, 1 ) 5.078525144301162e-11, 0.9999999999492147;
    ( 4, 2, 2, 0 ) 0.539452773696103, 0.460547226303897;
    ( 4, 2, 2, 1 ) 0.9999999985871862, 1.4128137244164052e-09;
    ( 4, 2, 3, 0 ) 0.9999999999405813, 5.941872957694171e-11;
    ( 4, 2, 3, 1 ) 7.263595359321045e-11, 0.9999999999273641;
    ( 4, 2, 4, 0 ) 0.9999999567738577, 4.322614233536613e-08;
    ( 4, 2, 4, 1 ) 5.0478343707466e-09, 0.9999999949521657;
    ( 4, 2, 5, 0 ) 0.9999999985058218, 1.4941781946491578e-09;
    ( 4, 2, 5, 1 ) 2.769093598826536e-12, 0.9999999999972309;
    ( 4, 2, 6, 0 ) 0.9999999999454457, 5.4554292397005985e-11;
    ( 4, 2, 6, 1 ) 0.9999999999453902, 5.4609750931927874e-11;
    ( 4, 2, 7, 0 ) 0.984072157414648, 0.01592784258535203;
    ( 4, 2, 7, 1 ) 4.550949642869703e-12, 0.999999999995449;
    ( 4, 3, 0, 0 ) 0.875543695039354, 0.12445630496064607;
    ( 4, 3, 0, 1 ) 0.1779056260906436, 0.8220943739093565;
    ( 4, 3, 1, 0 ) 0.9999999999362789, 6.372123628165344e-11;
    ( 4, 3, 1, 1 ) 0.6193539947878687, 0.3806460052121313;
    ( 4, 3, 2, 0 ) 0.0915474201441974, 0.9084525798558026;
    ( 4, 3, 2, 1 ) 0.999999999929671, 7.032901509460108e-11;
    ( 4, 3, 3, 0 ) 0.5923521818610539, 0.4076478181389462;
    ( 4, 3, 3, 1 ) 0.0009461102544856765, 0.9990538897455142;
    ( 4, 3, 4, 0 ) 0.029252401392400266, 0.9707475986075997;
    ( 4, 3, 4, 1 ) 0.5060388036432777, 0.49396119635672225;
    ( 4, 3, 5, 0 ) 0.4559850843940674, 0.5440149156059325;
    ( 4, 3, 5, 1 ) 0.7526072656534676, 0.24739273434653236;
    ( 4, 3, 6, 0 ) 0.9999999945920511, 5.407948898064838e-09;
    ( 4, 3, 6, 1 ) 0.8381566550728515, 0.1618433449271485;
    ( 4, 3, 7, 0 ) 0.7250571924190612, 0.2749428075809388;
    ( 4, 3, 7, 1 ) 0.7287412705074608, 0.27125872949253915;
    ( 4, 4, 0, 0 ) 2.473092294621758e-07, 0.9999997526907706;
    ( 4, 4, 0, 1 ) 0.5919360020713175, 0.40806399792868253;
    ( 4, 4, 1, 0 ) 0.0001068737340566231, 0.9998931262659433;
    ( 4, 4, 1, 1 ) 0.9999999999276263, 7.237361072674576e-11;
    ( 4, 4, 2, 0 ) 0.4022264616542416, 0.5977735383457584;
    ( 4, 4, 2, 1 ) 0.9999507218088505, 4.9278191149522905e-05;
    ( 4, 4, 3, 0 ) 1.3215811011628634e-06, 0.9999986784188989;
    ( 4, 4, 3, 1 ) 0.1309351365485609, 0.8690648634514391;
    ( 4, 4, 4, 0 ) 0.9999999999389865, 6.101351657182062e-11;
    ( 4, 4, 4, 1 ) 0.3291686963348485, 0.6708313036651515;
    ( 4, 4, 5, 0 ) 0.670946117971058, 0.329053882028942;
    ( 4, 4, 5, 1 ) 0.8060206261584614, 0.1939793738415387;
    ( 4, 4, 6, 0 ) 0.350431677491549, 0.649568322508451;
    ( 4, 4, 6, 1 ) 0.8536096526579859, 0.14639034734201412;
    ( 4, 4, 7, 0 ) 0.9999980034381208, 1.9965618793043702e-06;
    ( 4, 4, 7, 1 ) 0.9873583164093418, 0.012641683590658228;
    ( 4, 5, 0, 0 ) 0.9999999296453417, 7.0354658245879e-08;
    ( 4, 5, 0, 1 ) 0.9992591451145346, 0.0007408548854653132;
    ( 4, 5, 1, 0 ) 0.9998490099547978, 0.00015099004520220078;
    ( 4, 5, 1, 1 ) 0.9999996002605814, 3.9973941851405695e-07;
    ( 4, 5, 2, 0 ) 1.023371570963128e-07, 0.9999998976628429;
    ( 4, 5, 2, 1 ) 0.42884413327589926, 0.5711558667241007;
    ( 4, 5, 3, 0 ) 0.9999999965397528, 3.460247205761685e-09;
    ( 4, 5, 3, 1 ) 4.3867689199020586e-05, 0.999956132310801;
    ( 4, 5, 4, 0 ) 0.9999824696456882, 1.7530354311841405e-05;
    ( 4, 5, 4, 1 ) 0.9943562995718108, 0.005643700428189177;
    ( 4, 5, 5, 0 ) 0.6550567122037505, 0.3449432877962495;
    ( 4, 5, 5, 1 ) 0.09817589174432252, 0.9018241082556775;
    ( 4, 5, 6, 0 ) 0.6625021936193866, 0.3374978063806135;
    ( 4, 5, 6, 1 ) 0.5966317083291199, 0.4033682916708802;
    ( 4, 5, 7, 0 ) 0.8947756327820744, 0.1052243672179257;
    ( 4, 5, 7, 1 ) 0.7624308727118375, 0.2375691272881624;
    ( 5, 0, 0, 0 ) 0.5, 0.5;
    ( 5, 0, 0, 1 ) 0.5, 0.5;
    ( 5, 0, 1, 0 ) 0.5, 0.5;
    ( 5, 0, 1, 1 ) 0.5, 0.5;
    ( 5, 0, 2, 0 ) 0.5, 0.5;
    ( 5, 0, 2, 1 ) 0.5, 0.5;
    ( 5, 0, 3, 0 ) 0.999999999929076, 7.092399447447931e-11;
    ( 5, 0, 3, 1 ) 0.5, 0.5;
    ( 5, 0, 4, 0 ) 0.5, 0.5;
    ( 5, 0, 4, 1 ) 0.5, 0.5;
    ( 5, 0, 5, 0 ) 0.5, 0.5;
    ( 5, 0, 5, 1 ) 0.5, 0.5;
    ( 5, 0, 6, 0 ) 0.5, 0.5;
    ( 5, 0, 6, 1 ) 0.5, 0.5;
    ( 5, 0, 7, 0 ) 0.5, 0.5;
    ( 5, 0, 7, 1 ) 0.5, 0.5;
    ( 5, 1, 0, 0 ) 0.5, 0.5;
    ( 5, 1, 0, 1 ) 1.117275576869333e-09, 0.9999999988827244;
    ( 5, 1, 1, 0 ) 0.9999999999839883, 1.6011778370463872e-11;
    ( 5, 1, 1, 1 ) 0.5, 0.5;
    ( 5, 1, 2, 0 ) 0.9999999999525856, 4.741442527209995e-11;
    ( 5, 1, 2, 1 ) 0.05438738473895459, 0.9456126152610455;
    ( 5, 1, 3, 0 ) 0.5, 0.5;
    ( 5, 1, 3, 1 ) 0.9999999999401704, 5.982967556094727e-11;
    ( 5, 1, 4, 0 ) 0.5, 0.5;
    ( 5, 1, 4, 1 ) 5.578938974159491e-11, 0.9999999999442106;
    ( 5, 1, 5, 0 ) 0.9999465601317129, 5.343986828718437e-05;
    ( 5, 1, 5, 1 ) 0.5, 0.5;
    ( 5, 1, 6, 0 ) 0.9998997057734045, 0.00010029422659552294;
    ( 5, 1, 6, 1 ) 0.9999999985861764, 1.4138236355113696e-09;
    ( 5, 1, 7, 0 ) 0.5, 0.5;
    ( 5, 1, 7, 1 ) 0.9976444823309342, 0.002355517669065824;
    ( 5, 2, 0, 0 ) 2.465136901493199e-08, 0.999999975348631;
    ( 5, 2, 0, 1 ) 0.005360054557771483, 0.9946399454422286;
    ( 5, 2, 1, 0 ) 0.9999999999583581, 4.1641920216300183e-11;
    ( 5, 2, 1, 1 ) 0.9999999830354953, 1.6964504635763237e-08;
    ( 5, 2, 2, 0 ) 0.2696713948647169, 0.7303286051352832;
    ( 5, 2, 2, 1 ) 0.9999999999289861, 7.101385260160753e-11;
    ( 5, 2, 3, 0 ) 5.234212953626973e-10, 0.9999999994765787;
    ( 5, 2, 3, 1 ) 5.753539108183456e-11, 0.9999999999424646;
    ( 5, 2, 4, 0 ) 0.9999999999436211, 5.637889669743754e-11;
    ( 5, 2, 4, 1 ) 0.9999999186135672, 8.13864328158589e-08;
    ( 5, 2, 5, 0 ) 3.848716880797178e-11, 0.9999999999615129;
    ( 5, 2, 5, 1 ) 0.5, 0.5;
    ( 5, 2, 6, 0 ) 0.9999999999976622, 2.3377709325578174e-12;
    ( 5, 2, 6, 1 ) 0.9999999999362764, 6.372362860750992e-11;
    ( 5, 2, 7, 0 ) 0.5, 0.5;
    ( 5, 2, 7, 1 ) 0.999999999931659, 6.834104217498137e-11;
    ( 5, 3, 0, 0 ) 0.821509973871225, 0.178490026128775;
    ( 5, 3, 0, 1 ) 0.7730033282464959, 0.22699667175350413;
    ( 5, 3, 1, 0 ) 0.4420458642780752, 0.5579541357219249;
    ( 5, 3, 1, 1 ) 0.3470302509295793, 0.6529697490704207;
    ( 5, 3, 2, 0 ) 0.5488851470959979, 0.4511148529040021;
    ( 5, 3, 2, 1 ) 0.61434477021876, 0.38565522978124006;
    ( 5, 3, 3, 0 ) 0.7999842380006867, 0.2000157619993132;
    ( 5, 3, 3, 1 ) 0.7461343791508345, 0.2538656208491656;
    ( 5, 3, 4, 0 ) 0.2974699105759372, 0.7025300894240628;
    ( 5, 3, 4, 1 ) 0.33443461133310565, 0.6655653886668944;
    ( 5, 3, 5, 0 ) 0.41512992660867526, 0.5848700733913248;
    ( 5, 3, 5, 1 ) 0.5889360035512171, 0.411063996448783;
    ( 5, 3, 6, 0 ) 0.6286112457213673, 0.3713887542786328;
    ( 5, 3, 6, 1 ) 0.6094185939110416, 0.3905814060889584;
    ( 5, 3, 7, 0 ) 0.7141206825847196, 0.2858793174152804;
    ( 5, 3, 7, 1 ) 0.7031904412378658, 0.2968095587621343;
    ( 5, 4, 0, 0 ) 0.00021277408806295845, 0.9997872259119371;
    ( 5, 4, 0, 1 ) 0.9999999999453079, 5.4692194521866194e-11;
    ( 5, 4, 1, 0 ) 0.8276669769623073, 0.17233302303769266;
    ( 5, 4, 1, 1 ) 0.000762105649120122, 0.9992378943508798;
    ( 5, 4, 2, 0 ) 0.12762369384266378, 0.8723763061573362;
    ( 5, 4, 2, 1 ) 0.4467215986431916, 0.5532784013568083;
    ( 5, 4, 3, 0 ) 0.8021126477032572, 0.19788735229674287;
    ( 5, 4, 3, 1 ) 0.4414094101229433, 0.5585905898770567;
    ( 5, 4, 4, 0 ) 0.9999999217164234, 7.828357655394262e-08;
    ( 5, 4, 4, 1 ) 0.5555293470994827, 0.4444706529005174;
    ( 5, 4, 5, 0 ) 0.9071052193968108, 0.09289478060318931;
    ( 5, 4, 5, 1 ) 0.9255984921737815, 0.07440150782621849;
    ( 5, 4, 6, 0 ) 0.9137610328652289, 0.08623896713477108;
    ( 5, 4, 6, 1 ) 0.37198330146415926, 0.6280166985358406;
    ( 5, 4, 7, 0 ) 0.8285297750708824, 0.1714702249291175;
    ( 5, 4, 7, 1 ) 0.894900907970925, 0.10509909202907494;
    ( 5, 5, 0, 0 ) 0.9999982387629872, 1.7612370127577995e-06;
    ( 5, 5, 0, 1 ) 0.9999999999413988, 5.860122417315981e-11;
    ( 5, 5, 1, 0 ) 0.22812892267765378, 0.7718710773223463;
    ( 5, 5, 1, 1 ) 0.975525839552033, 0.024474160447966978;
    ( 5, 5, 2, 0 ) 0.176952169045951, 0.8230478309540491;
    ( 5, 5, 2, 1 ) 0.9999990184318036, 9.81568196340921e-07;
    ( 5, 5, 3, 0 ) 0.6855689903233427, 0.3144310096766573;
    ( 5, 5, 3, 1 ) 0.39841428803424006, 0.6015857119657599;
    ( 5, 5, 4, 0 ) 0.8511818997939203, 0.14881810020607966;
    ( 5, 5, 4, 1 ) 2.6549619369309715e-07, 0.9999997345038063;
    ( 5, 5, 5, 0 ) 0.8912568085451841, 0.1087431914548159;
    ( 5, 5, 5, 1 ) 0.2794798325836332, 0.7205201674163668;
    ( 5, 5, 6, 0 ) 0.8250901723510969, 0.174909827648903;
    ( 5, 5, 6, 1 ) 0.996066582049753, 0.003933417950247041;
    ( 5, 5, 7, 0 ) 0.9199559108501452, 0.08004408914985496;
    ( 5, 5, 7, 1 ) 0.8256618348750001, 0.174338165125;
    ( 6, 0, 0, 0 ) 0.5, 0.5;
    ( 6, 0, 0, 1 ) 0.9999999999543107, 4.5689311713703455e-11;
    ( 6, 0, 1, 0 ) 0.5, 0.5;
    ( 6, 0, 1, 1 ) 0.5, 0.5;
    ( 6, 0, 2, 0 ) 0.5, 0.5;
    ( 6, 0, 2, 1 ) 0.5, 0.5;
    ( 6, 0, 3, 0 ) 0.9999999999381666, 6.183352879373965e-11;
    ( 6, 0, 3, 1 ) 0.5, 0.5;
    ( 6, 0, 4, 0 ) 0.5, 0.5;
    ( 6, 0, 4, 1 ) 0.5, 0.5;
    ( 6, 0, 5, 0 ) 0.5, 0.5;
    ( 6, 0, 5, 1 ) 0.5, 0.5;
    ( 6, 0, 6, 0 ) 0.5, 0.5;
    ( 6, 0, 6, 1 ) 0.5, 0.5;
    ( 6, 0, 7, 0 ) 0.5, 0.5;
    ( 6, 0, 7, 1 ) 0.5, 0.5;
    ( 6, 1, 0, 0 ) 0.9827650092040261, 0.017234990795973838;
    ( 6, 1, 0, 1 ) 0.9999999999376431, 6.235690990284975e-11;
    ( 6, 1, 1, 0 ) 0.36234280717765704, 0.6376571928223429;
    ( 6, 1, 1, 1 ) 7.47416639197365e-07, 0.9999992525833609;
    ( 6, 1, 2, 0 ) 3.941117295319773e-11, 0.9999999999605889;
    ( 6, 1, 2, 1 ) 6.145727025840006e-13, 0.9999999999993854;
    ( 6, 1, 3, 0 ) 0.9999998793382819, 1.2066171803312448e-07;
    ( 6, 1, 3, 1 ) 0.615325692792837, 0.38467430720716306;
    ( 6, 1, 4, 0 ) 0.9997037901358219, 0.00029620986417810844;
    ( 6, 1, 4, 1 ) 4.422746115689042e-12, 0.9999999999955772;
    ( 6, 1, 5, 0 ) 0.9982011357134438, 0.001798864286556194;
    ( 6, 1, 5, 1 ) 0.9999999999357463, 6.425371811352976e-11;
    ( 6, 1, 6, 0 ) 0.5, 0.5;
    ( 6, 1, 6, 1 ) 0.9999852507057433, 1.474929425672506e-05;
    ( 6, 1, 7, 0 ) 0.5, 0.5;
    ( 6, 1, 7, 1 ) 0.9999999999261009, 7.389915808866438e-11;
    ( 6, 2, 0, 0 ) 0.9999999999256287, 7.437131413115469e-11;
    ( 6, 2, 0, 1 ) 0.2365078013503419, 0.7634921986496581;
    ( 6, 2, 1, 0 ) 0.0004149194009441808, 0.9995850805990558;
    ( 6, 2, 1, 1 ) 0.999999999946534, 5.3466091809204494e-11;
    ( 6, 2, 2, 0 ) 0.7250598987020053, 0.27494010129799473;
    ( 6, 2, 2, 1 ) 0.01764233726876663, 0.9823576627312333;
    ( 6, 2, 3, 0 ) 0.443941789933431, 0.5560582100665691;
    ( 6, 2, 3, 1 ) 0.5718290393310635, 0.42817096066893634;
    ( 6, 2, 4, 0 ) 0.4997620891980716, 0.5002379108019285;
    ( 6, 2, 4, 1 ) 0.9999999999333311, 6.666884683632075e-11;
    ( 6, 2, 5, 0 ) 0.9999999999791533, 2.08465480034284e-11;
    ( 6, 2, 5, 1 ) 6.113149259773965e-11, 0.9999999999388685;
    ( 6, 2, 6, 0 ) 0.9999999999662617, 3.3738361675131816e-11;
    ( 6, 2, 6, 1 ) 0.00023224920956470488, 0.9997677507904353;
    ( 6, 2, 7, 0 ) 0.99999999993726, 6.274003404281687e-11;
    ( 6, 2, 7, 1 ) 0.9812086772367616, 0.018791322763238374;
    ( 6, 3, 0, 0 ) 0.41821429670561006, 0.5817857032943899;
    ( 6, 3, 0, 1 ) 0.6284523198618902, 0.3715476801381098;
    ( 6, 3, 1, 0 ) 0.5192493106155056, 0.4807506893844945;
    ( 6, 3, 1, 1 ) 0.4780304325160536, 0.5219695674839463;
    ( 6, 3, 2, 0 ) 0.4168628283568483, 0.5831371716431517;
    ( 6, 3, 2, 1 ) 0.05431949122286138, 0.9456805087771385;
    ( 6, 3, 3, 0 ) 0.015466893440143199, 0.9845331065598567;
    ( 6, 3, 3, 1 ) 0.8341926030174062, 0.16580739698259378;
    ( 6, 3, 4, 0 ) 0.7455343862760654, 0.25446561372393467;
    ( 6, 3, 4, 1 ) 0.4945006795689224, 0.5054993204310776;
    ( 6, 3, 5, 0 ) 0.5433664778607681, 0.4566335221392319;
    ( 6, 3, 5, 1 ) 0.7699999848541309, 0.23000001514586912;
    ( 6, 3, 6, 0 ) 0.32641171098601546, 0.6735882890139845;
    ( 6, 3, 6, 1 ) 0.6619038474486595, 0.3380961525513405;
    ( 6, 3, 7, 0 ) 0.6712572181031553, 0.32874278189684464;
    ( 6, 3, 7, 1 ) 0.8061105018277055, 0.19388949817229442;
    ( 6, 4, 0, 0 ) 2.6426679427593317e-06, 0.9999973573320572;
    ( 6, 4, 0, 1 ) 0.7299101899807814, 0.27008981001921867;
    ( 6, 4, 1, 0 ) 0.3659697397845087, 0.6340302602154914;
    ( 6, 4, 1, 1 ) 0.6804369002577164, 0.3195630997422837;
    ( 6, 4, 2, 0 ) 0.16961976508213603, 0.8303802349178641;
    ( 6, 4, 2, 1 ) 0.2985211839883974, 0.7014788160116026;
    ( 6, 4, 3, 0 ) 0.4044494371429328, 0.5955505628570672;
    ( 6, 4, 3, 1 ) 0.45342786538115487, 0.5465721346188451;
    ( 6, 4, 4, 0 ) 0.7005585259665283, 0.29944147403347166;
    ( 6, 4, 4, 1 ) 0.46760189158747173, 0.5323981084125283;
    ( 6, 4, 5, 0 ) 0.6061150774031996, 0.3938849225968004;
    ( 6, 4, 5, 1 ) 0.6380343844312631, 0.3619656155687369;
    ( 6, 4, 6, 0 ) 0.3623138845420933, 0.6376861154579067;
    ( 6, 4, 6, 1 ) 0.7602848656417823, 0.23971513435821765;
    ( 6, 4, 7, 0 ) 0.6775866007183798, 0.3224133992816201;
    ( 6, 4, 7, 1 ) 0.6347072685038057, 0.3652927314961944;
    ( 6, 5, 0, 0 ) 0.5821433974228103, 0.41785660257718965;
    ( 6, 5, 0, 1 ) 0.5410283574576445, 0.4589716425423555;
    ( 6, 5, 1, 0 ) 0.9999962924794176, 3.707520582430118e-06;
    ( 6, 5, 1, 1 ) 0.9999999999483288, 5.1671297601657806e-11;
    ( 6, 5, 2, 0 ) 0.3590390414623987, 0.6409609585376014;
    ( 6, 5, 2, 1 ) 0.0001643971487986439, 0.9998356028512013;
    ( 6, 5, 3, 0 ) 0.9999991654382543, 8.345617458385243e-07;
    ( 6, 5, 3, 1 ) 0.059460839396889884, 0.9405391606031102;
    ( 6, 5, 4, 0 ) 2.9910994577694806e-05, 0.9999700890054223;
    ( 6, 5, 4, 1 ) 0.5360208211771693, 0.46397917882283074;
    ( 6, 5, 5, 0 ) 0.7285511688294307, 0.27144883117056934;
    ( 6, 5, 5, 1 ) 0.9993331341485959, 0.0006668658514041396;
    ( 6, 5, 6, 0 ) 0.6890710010217908, 0.3109289989782093;
    ( 6, 5, 6, 1 ) 0.561686873936127, 0.43831312606387296;
    ( 6, 5, 7, 0 ) 0.8008047634597429, 0.19919523654025703;
    ( 6, 5, 7, 1 ) 0.6283978413083884, 0.3716021586916116;
    ( 7, 0, 0, 0 ) 0.9999999998126924, 1.8730757057960533e-10;
    ( 7, 0, 0, 1 ) 0.5, 0.5;
    ( 7, 0, 1, 0 ) 0.5, 0.5;
    ( 7, 0, 1, 1 ) 0.5, 0.5;
    ( 7, 0, 2, 0 ) 0.5, 0.5;
    ( 7, 0, 2, 1 ) 0.5, 0.5;
    ( 7, 0, 3, 0 ) 0.5, 0.5;
    ( 7, 0, 3, 1 ) 0.5, 0.5;
    ( 7, 0, 4, 0 ) 0.5, 0.5;
    ( 7, 0, 4, 1 ) 0.5, 0.5;
    ( 7, 0, 5, 0 ) 0.5, 0.5;
    ( 7, 0, 5, 1 ) 0.5, 0.5;
    ( 7, 0, 6, 0 ) 0.5, 0.5;
    ( 7, 0, 6, 1 ) 0.5, 0.5;
    ( 7, 0, 7, 0 ) 0.5, 0.5;
    ( 7, 0, 7, 1 ) 0.5, 0.5;
    ( 7, 1, 0, 0 ) 0.11564333344790427, 0.8843566665520958;
    ( 7, 1, 0, 1 ) 0.9999999999495408, 5.045914953327592e-11;
    ( 7, 1, 1, 0 ) 5.235192258194614e-11, 0.9999999999476481;
    ( 7, 1, 1, 1 ) 0.9999999999804675, 1.9532479095178673e-11;
    ( 7, 1, 2, 0 ) 0.9999983866301437, 1.6133698562240536e-06;
    ( 7, 1, 2, 1 ) 0.999999998233894, 1.7661059848088473e-09;
    ( 7, 1, 3, 0 ) 5.953894967812101e-11, 0.9999999999404611;
    ( 7, 1, 3, 1 ) 0.9999999999399849, 6.001505091992377e-11;
    ( 7, 1, 4, 0 ) 1.1342441321319469e-08, 0.9999999886575586;
    ( 7, 1, 4, 1 ) 0.9999999999350586, 6.494143659422514e-11;
    ( 7, 1, 5, 0 ) 0.9999999995644393, 4.3556065420858597e-10;
    ( 7, 1, 5, 1 ) 0.9999999999697369, 3.026307878118671e-11;
    ( 7, 1, 6, 0 ) 0.5, 0.5;
    ( 7, 1, 6, 1 ) 1.433525510237505e-09, 0.9999999985664746;
    ( 7, 1, 7, 0 ) 0.5, 0.5;
    ( 7, 1, 7, 1 ) 6.424372889829264e-11, 0.9999999999357563;
    ( 7, 2, 0, 0 ) 0.4336777653075343, 0.5663222346924657;
    ( 7, 2, 0, 1 ) 0.39172283810775865, 0.6082771618922413;
    ( 7, 2, 1, 0 ) 0.1376625262465844, 0.8623374737534156;
    ( 7, 2, 1, 1 ) 2.6385770350607096e-12, 0.9999999999973613;
    ( 7, 2, 2, 0 ) 2.2590052192218425e-06, 0.9999977409947808;
    ( 7, 2, 2, 1 ) 2.0720236439977914e-07, 0.9999997927976356;
    ( 7, 2, 3, 0 ) 7.426649950230298e-11, 0.9999999999257335;
    ( 7, 2, 3, 1 ) 0.9999999999757873, 2.4212753077738307e-11;
    ( 7, 2, 4, 0 ) 0.24548085561871102, 0.754519144381289;
    ( 7, 2, 4, 1 ) 1.3298843726758355e-08, 0.9999999867011563;
    ( 7, 2, 5, 0 ) 0.9946007136641856, 0.005399286335814523;
    ( 7, 2, 5, 1 ) 0.04544544762267536, 0.9545545523773247;
    ( 7, 2, 6, 0 ) 0.9147548218425626, 0.08524517815743732;
    ( 7, 2, 6, 1 ) 1.2559344573150506e-12, 0.9999999999987441;
    ( 7, 2, 7, 0 ) 0.41460585978703124, 0.5853941402129689;
    ( 7, 2, 7, 1 ) 0.9999434411210519, 5.655887894806311e-05;
    ( 7, 3, 0, 0 ) 0.47873806404153224, 0.5212619359584678;
    ( 7, 3, 0, 1 ) 0.5218157434432933, 0.4781842565567066;
    ( 7, 3, 1, 0 ) 0.7883747571195692, 0.21162524288043086;
    ( 7, 3, 1, 1 ) 0.4628889523221053, 0.5371110476778946;
    ( 7, 3, 2, 0 ) 0.5281735152250385, 0.4718264847749615;
    ( 7, 3, 2, 1 ) 0.028535923892416035, 0.971464076107584;
    ( 7, 3, 3, 0 ) 0.3308834279135621, 0.6691165720864379;
    ( 7, 3, 3, 1 ) 0.3201594896456227, 0.6798405103543773;
    ( 7, 3, 4, 0 ) 0.6220816593096409, 0.3779183406903591;
    ( 7, 3, 4, 1 ) 0.22408446995452816, 0.7759155300454719;
    ( 7, 3, 5, 0 ) 0.3773744050337824, 0.6226255949662175;
    ( 7, 3, 5, 1 ) 0.7082728064109899, 0.29172719358901006;
    ( 7, 3, 6, 0 ) 0.5080618991120183, 0.49193810088798173;
    ( 7, 3, 6, 1 ) 0.6170113681060815, 0.38298863189391846;
    ( 7, 3, 7, 0 ) 0.41964240631103455, 0.5803575936889654;
    ( 7, 3, 7, 1 ) 0.6781824496682826, 0.3218175503317174;
    ( 7, 4, 0, 0 ) 0.5846263101679227, 0.41537368983207734;
    ( 7, 4, 0, 1 ) 0.5679646653826954, 0.43203533461730453;
    ( 7, 4, 1, 0 ) 0.6044140551860394, 0.3955859448139606;
    ( 7, 4, 1, 1 ) 0.3808239190451838, 0.6191760809548162;
    ( 7, 4, 2, 0 ) 0.2855432104107414, 0.7144567895892586;
    ( 7, 4, 2, 1 ) 0.5542510225116494, 0.44574897748835074;
    ( 7, 4, 3, 0 ) 0.5400250535172224, 0.4599749464827776;
    ( 7, 4, 3, 1 ) 0.5353308624684717, 0.4646691375315283;
    ( 7, 4, 4, 0 ) 0.7294819592145617, 0.2705180407854383;
    ( 7, 4, 4, 1 ) 0.3755150274223873, 0.6244849725776127;
    ( 7, 4, 5, 0 ) 0.45067424792948535, 0.5493257520705147;
    ( 7, 4, 5, 1 ) 0.6608150404915392, 0.33918495950846084;
    ( 7, 4, 6, 0 ) 0.628946320473615, 0.37105367952638507;
    ( 7, 4, 6, 1 ) 0.5333228478164431, 0.4666771521835569;
    ( 7, 4, 7, 0 ) 0.6551785951008946, 0.34482140489910534;
    ( 7, 4, 7, 1 ) 0.4988857247211913, 0.5011142752788087;
    ( 7, 5, 0, 0 ) 0.5365870306448899, 0.46341296935511;
    ( 7, 5, 0, 1 ) 0.3387489199450035, 0.6612510800549966;
    ( 7, 5, 1, 0 ) 0.5175128958279435, 0.48248710417205654;
    ( 7, 5, 1, 1 ) 0.9930131022273508, 0.006986897772649207;
    ( 7, 5, 2, 0 ) 0.9989627656348965, 0.0010372343651034767;
    ( 7, 5, 2, 1 ) 0.45714593051996705, 0.542854069480033;
    ( 7, 5, 3, 0 ) 0.26173114619870685, 0.7382688538012931;
    ( 7, 5, 3, 1 ) 0.12311947468375092, 0.876880525316249;
    ( 7, 5, 4, 0 ) 0.3326134745150704, 0.6673865254849296;
    ( 7, 5, 4, 1 ) 0.206627146026979, 0.793372853973021;
    ( 7, 5, 5, 0 ) 0.31380795630970787, 0.6861920436902922;
    ( 7, 5, 5, 1 ) 0.5371312539042326, 0.4628687460957674;
    ( 7, 5, 6, 0 ) 0.7729475731958244, 0.22705242680417556;
    ( 7, 5, 6, 1 ) 0.4605904165069098, 0.5394095834930902;
    ( 7, 5, 7, 0 ) 0.7977550314886018, 0.20224496851139825;
    ( 7, 5, 7, 1 ) 0.6346726329368465, 0.36532736706315344;
    ( 8, 0, 0, 0 ) 6.1098376427820305e-12, 0.9999999999938902;
    ( 8, 0, 0, 1 ) 0.5, 0.5;
    ( 8, 0, 1, 0 ) 0.5, 0.5;
    ( 8, 0, 1, 1 ) 0.5, 0.5;
    ( 8, 0, 2, 0 ) 0.5, 0.5;
    ( 8, 0, 2, 1 ) 0.5, 0.5;
    ( 8, 0, 3, 0 ) 0.5, 0.5;
    ( 8, 0, 3, 1 ) 0.5, 0.5;
    ( 8, 0, 4, 0 ) 0.5, 0.5;
    ( 8, 0, 4, 1 ) 0.5, 0.5;
    ( 8, 0, 5, 0 ) 0.5, 0.5;
    ( 8, 0, 5, 1 ) 0.5, 0.5;
    ( 8, 0, 6, 0 ) 0.5, 0.5;
    ( 8, 0, 6, 1 ) 0.5, 0.5;
    ( 8, 0, 7, 0 ) 0.9999999999693818, 3.061820729385815e-11;
    ( 8, 0, 7, 1 ) 0.5, 0.5;
    ( 8, 1, 0, 0 ) 0.9999999999327676, 6.723238475179869e-11;
    ( 8, 1, 0, 1 ) 6.369062332919923e-11, 0.9999999999363093;
    ( 8, 1, 1, 0 ) 8.129197044123745e-11, 0.999999999918708;
    ( 8, 1, 1, 1 ) 0.22965434175979257, 0.7703456582402074;
    ( 8, 1, 2, 0 ) 0.005421589255071773, 0.9945784107449283;
    ( 8, 1, 2, 1 ) 2.030686178141101e-05, 0.9999796931382186;
    ( 8, 1, 3, 0 ) 5.456608397272824e-11, 0.999999999945434;
    ( 8, 1, 3, 1 ) 3.721215592527841e-11, 0.9999999999627879;
    ( 8, 1, 4, 0 ) 0.9999999999431795, 5.682061171962023e-11;
    ( 8, 1, 4, 1 ) 6.105068033429994e-11, 0.9999999999389493;
    ( 8, 1, 5, 0 ) 0.9999998644472307, 1.355527693921257e-07;
    ( 8, 1, 5, 1 ) 2.2439455060229195e-12, 0.9999999999977561;
    ( 8, 1, 6, 0 ) 0.9999999796135305, 2.0386469550769213e-08;
    ( 8, 1, 6, 1 ) 0.5, 0.5;
    ( 8, 1, 7, 0 ) 0.9999999278223468, 7.21776531876701e-08;
    ( 8, 1, 7, 1 ) 0.5, 0.5;
    ( 8, 2, 0, 0 ) 0.17474887213149384, 0.8252511278685062;
    ( 8, 2, 0, 1 ) 0.9999999999565626, 4.343732805777605e-11;
    ( 8, 2, 1, 0 ) 0.0013147643308772572, 0.9986852356691227;
    ( 8, 2, 1, 1 ) 0.010491769620067062, 0.989508230379933;
    ( 8, 2, 2, 0 ) 0.3869507943324428, 0.6130492056675572;
    ( 8, 2, 2, 1 ) 0.2535363865672339, 0.7464636134327661;
    ( 8, 2, 3, 0 ) 0.0020737620998073562, 0.9979262379001926;
    ( 8, 2, 3, 1 ) 0.6842950518290428, 0.31570494817095723;
    ( 8, 2, 4, 0 ) 5.842402464236316e-11, 0.999999999941576;
    ( 8, 2, 4, 1 ) 0.6928424493460388, 0.30715755065396116;
    ( 8, 2, 5, 0 ) 0.23452073825277445, 0.7654792617472256;
    ( 8, 2, 5, 1 ) 0.044968355897397484, 0.9550316441026026;
    ( 8, 2, 6, 0 ) 0.5, 0.5;
    ( 8, 2, 6, 1 ) 0.00010272353403002955, 0.9998972764659699;
    ( 8, 2, 7, 0 ) 4.065762990393272e-11, 0.9999999999593423;
    ( 8, 2, 7, 1 ) 6.68936542622678e-11, 0.9999999999331064;
    ( 8, 3, 0, 0 ) 0.29080180188253785, 0.7091981981174621;
    ( 8, 3, 0, 1 ) 0.24619838456259985, 0.7538016154374001;
    ( 8, 3, 1, 0 ) 0.6351417443298353, 0.3648582556701648;
    ( 8, 3, 1, 1 ) 0.3514619900242373, 0.6485380099757627;
    ( 8, 3, 2, 0 ) 0.18143405470867158, 0.8185659452913284;
    ( 8, 3, 2, 1 ) 0.17771560732330424, 0.8222843926766958;
    ( 8, 3, 3, 0 ) 0.3438075103869307, 0.6561924896130693;
    ( 8, 3, 3, 1 ) 0.10343583394160542, 0.8965641660583946;
    ( 8, 3, 4, 0 ) 0.5450712902706657, 0.45492870972933425;
    ( 8, 3, 4, 1 ) 0.606057621468718, 0.393942378531282;
    ( 8, 3, 5, 0 ) 0.5834920953137035, 0.41650790468629645;
    ( 8, 3, 5, 1 ) 0.6348212440412616, 0.3651787559587384;
    ( 8, 3, 6, 0 ) 0.669521229506765, 0.3304787704932351;
    ( 8, 3, 6, 1 ) 0.3737325408121198, 0.6262674591878802;
    ( 8, 3, 7, 0 ) 0.4595113188576124, 0.5404886811423876;
    ( 8, 3, 7, 1 ) 0.5158738616005223, 0.4841261383994777;
    ( 8, 4, 0, 0 ) 0.08063771434096273, 0.9193622856590373;
    ( 8, 4, 0, 1 ) 0.007791254511537128, 0.9922087454884629;
    ( 8, 4, 1, 0 ) 0.538893327381053, 0.461106672618947;
    ( 8, 4, 1, 1 ) 0.1602228696110185, 0.8397771303889815;
    ( 8, 4, 2, 0 ) 0.39731298355912203, 0.602687016440878;
    ( 8, 4, 2, 1 ) 0.05996217718115523, 0.9400378228188447;
    ( 8, 4, 3, 0 ) 0.3233633203544603, 0.6766366796455396;
    ( 8, 4, 3, 1 ) 0.5625954944860936, 0.4374045055139064;
    ( 8, 4, 4, 0 ) 0.2793470507417301, 0.72065294925827;
    ( 8, 4, 4, 1 ) 0.4754537539994755, 0.5245462460005246;
    ( 8, 4, 5, 0 ) 0.5646218040642752, 0.43537819593572485;
    ( 8, 4, 5, 1 ) 0.3410890952883788, 0.6589109047116212;
    ( 8, 4, 6, 0 ) 0.20989491192641158, 0.7901050880735885;
    ( 8, 4, 6, 1 ) 0.2093722304464832, 0.7906277695535168;
    ( 8, 4, 7, 0 ) 0.28661863289096573, 0.7133813671090343;
    ( 8, 4, 7, 1 ) 0.49198848788088373, 0.5080115121191162;
    ( 8, 5, 0, 0 ) 6.129464174116011e-11, 0.9999999999387054;
    ( 8, 5, 0, 1 ) 0.999999834896459, 1.6510354094261407e-07;
    ( 8, 5, 1, 0 ) 0.3626385932979543, 0.6373614067020457;
    ( 8, 5, 1, 1 ) 0.7178610127131021, 0.2821389872868979;
    ( 8, 5, 2, 0 ) 0.4576303015417413, 0.5423696984582588;
    ( 8, 5, 2, 1 ) 0.5567242196173701, 0.44327578038263;
    ( 8, 5, 3, 0 ) 0.39851594004005053, 0.6014840599599495;
    ( 8, 5, 3, 1 ) 0.00187390260918016, 0.9981260973908199;
    ( 8, 5, 4, 0 ) 0.5612772645461022, 0.4387227354538978;
    ( 8, 5, 4, 1 ) 0.19352243290519872, 0.8064775670948012;
    ( 8, 5, 5, 0 ) 0.5778076246451909, 0.4221923753548091;
    ( 8, 5, 5, 1 ) 0.5564738864191311, 0.4435261135808689;
    ( 8, 5, 6, 0 ) 0.42610606589874067, 0.5738939341012593;
    ( 8, 5, 6, 1 ) 0.21706674798396763, 0.7829332520160324;
    ( 8, 5, 7, 0 ) 0.6690645237744227, 0.3309354762255773;
    ( 8, 5, 7, 1 ) 0.4678334711892468, 0.5321665288107532;
    ( 9, 0, 0, 0 ) 0.9999999999514556, 4.854436672155557e-11;
    ( 9, 0, 0, 1 ) 0.5, 0.5;
    ( 9, 0, 1, 0 ) 0.5, 0.5;
    ( 9, 0, 1, 1 ) 0.9999999999416208, 5.837921178440801e-11;
    ( 9, 0, 2, 0 ) 0.5, 0.5;
    ( 9, 0, 2, 1 ) 0.5, 0.5;
    ( 9, 0, 3, 0 ) 0.5, 0.5;
    ( 9, 0, 3, 1 ) 0.5, 0.5;
    ( 9, 0, 4, 0 ) 0.5, 0.5;
    ( 9, 0, 4, 1 ) 0.5, 0.5;
    ( 9, 0, 5, 0 ) 0.5, 0.5;
    ( 9, 0, 5, 1 ) 0.5, 0.5;
    ( 9, 0, 6, 0 ) 0.9999994523667234, 5.476332767083059e-07;
    ( 9, 0, 6, 1 ) 0.5, 0.5;
    ( 9, 0, 7, 0 ) 1.0093750340214294e-11, 0.9999999999899063;
    ( 9, 0, 7, 1 ) 0.5, 0.5;
    ( 9, 1, 0, 0 ) 0.6428704124085558, 0.3571295875914441;
    ( 9, 1, 0, 1 ) 0.0020947989580177837, 0.9979052010419823;
    ( 9, 1, 1, 0 ) 0.4512272022080579, 0.5487727977919421;
    ( 9, 1, 1, 1 ) 0.5, 0.5;
    ( 9, 1, 2, 0 ) 0.4324557584331298, 0.5675442415668703;
    ( 9, 1, 2, 1 ) 0.5, 0.5;
    ( 9, 1, 3, 0 ) 2.436048442250016e-12, 0.999999999997564;
    ( 9, 1, 3, 1 ) 0.9999999999441739, 5.582622309746453e-11;
    ( 9, 1, 4, 0 ) 0.9999590391898363, 4.0960810163782945e-05;
    ( 9, 1, 4, 1 ) 1.5651884793783187e-12, 0.9999999999984348;
    ( 9, 1, 5, 0 ) 0.5, 0.5;
    ( 9, 1, 5, 1 ) 0.3045780487712385, 0.6954219512287615;
    ( 9, 1, 6, 0 ) 0.5, 0.5;
    ( 9, 1, 6, 1 ) 0.5, 0.5;
    ( 9, 1, 7, 0 ) 0.5, 0.5;
    ( 9, 1, 7, 1 ) 0.9999999999343347, 6.566521830650504e-11;
    ( 9, 2, 0, 0 ) 0.07619354601396723, 0.9238064539860328;
    ( 9, 2, 0, 1 ) 0.5, 0.5;
    ( 9, 2, 1, 0 ) 0.16219834451441106, 0.837801655485589;
    ( 9, 2, 1, 1 ) 0.9999999999412177, 5.87823565762214e-11;
    ( 9, 2, 2, 0 ) 0.43628433801492056, 0.5637156619850794;
    ( 9, 2, 2, 1 ) 0.0005181076400387183, 0.9994818923599613;
    ( 9, 2, 3, 0 ) 0.4459082596524595, 0.5540917403475405;
    ( 9, 2, 3, 1 ) 6.054548426319415e-11, 0.9999999999394544;
    ( 9, 2, 4, 0 ) 0.0004392248218388783, 0.9995607751781611;
    ( 9, 2, 4, 1 ) 0.0649510500538567, 0.9350489499461433;
    ( 9, 2, 5, 0 ) 0.9999999999484472, 5.155272362491428e-11;
    ( 9, 2, 5, 1 ) 0.040005956382600204, 0.9599940436173997;
    ( 9, 2, 6, 0 ) 0.9998914615171014, 0.00010853848289869031;
    ( 9, 2, 6, 1 ) 0.9999999999379358, 6.206420648640607e-11;
    ( 9, 2, 7, 0 ) 0.5, 0.5;
    ( 9, 2, 7, 1 ) 0.501493218329062, 0.4985067816709379;
    ( 9, 3, 0, 0 ) 0.01473980103212273, 0.9852601989678773;
    ( 9, 3, 0, 1 ) 0.5820053245865403, 0.4179946754134597;
    ( 9, 3, 1, 0 ) 0.29205442835543766, 0.7079455716445624;
    ( 9, 3, 1, 1 ) 0.348344336895707, 0.651655663104293;
    ( 9, 3, 2, 0 ) 0.0194374590786314, 0.9805625409213686;
    ( 9, 3, 2, 1 ) 0.32209359157726775, 0.6779064084227323;
    ( 9, 3, 3, 0 ) 0.3557455169034718, 0.6442544830965282;
    ( 9, 3, 3, 1 ) 0.39381374982160117, 0.6061862501783989;
    ( 9, 3, 4, 0 ) 0.37455951285693095, 0.6254404871430691;
    ( 9, 3, 4, 1 ) 0.3854303373284362, 0.6145696626715638;
    ( 9, 3, 5, 0 ) 0.4103764816514845, 0.5896235183485156;
    ( 9, 3, 5, 1 ) 0.3070344582798019, 0.6929655417201981;
    ( 9, 3, 6, 0 ) 0.9276657005179969, 0.07233429948200316;
    ( 9, 3, 6, 1 ) 0.668645983610718, 0.33135401638928197;
    ( 9, 3, 7, 0 ) 0.4057869756229773, 0.5942130243770227;
    ( 9, 3, 7, 1 ) 0.35799937237744434, 0.6420006276225557;
    ( 9, 4, 0, 0 ) 0.45292586344046953, 0.5470741365595304;
    ( 9, 4, 0, 1 ) 1.7243398331174014e-12, 0.9999999999982757;
    ( 9, 4, 1, 0 ) 0.0007412646494512763, 0.9992587353505488;
    ( 9, 4, 1, 1 ) 0.677442504779415, 0.3225574952205851;
    ( 9, 4, 2, 0 ) 0.27577212830792885, 0.7242278716920711;
    ( 9, 4, 2, 1 ) 2.0028575986649657e-07, 0.9999997997142401;
    ( 9, 4, 3, 0 ) 0.06216883153486199, 0.9378311684651381;
    ( 9, 4, 3, 1 ) 0.527772293406157, 0.47222770659384306;
    ( 9, 4, 4, 0 ) 0.02772187780761539, 0.9722781221923846;
    ( 9, 4, 4, 1 ) 0.05167303967220229, 0.9483269603277977;
    ( 9, 4, 5, 0 ) 0.6750220346782639, 0.32497796532173606;
    ( 9, 4, 5, 1 ) 0.3986515953358004, 0.6013484046641997;
    ( 9, 4, 6, 0 ) 0.5200812217525127, 0.47991877824748724;
    ( 9, 4, 6, 1 ) 0.4760740971752429, 0.523925902824757;
    ( 9, 4, 7, 0 ) 0.4821024902958794, 0.5178975097041205;
    ( 9, 4, 7, 1 ) 0.4960425748340331, 0.503957425165967;
    ( 9, 5, 0, 0 ) 0.5353062492922148, 0.4646937507077852;
    ( 9, 5, 0, 1 ) 0.4340229500036809, 0.565977049996319;
    ( 9, 5, 1, 0 ) 0.5061724533453648, 0.4938275466546353;
    ( 9, 5, 1, 1 ) 0.3762356892459335, 0.6237643107540666;
    ( 9, 5, 2, 0 ) 0.6781697710953928, 0.3218302289046071;
    ( 9, 5, 2, 1 ) 0.2566313861128096, 0.7433686138871903;
    ( 9, 5, 3, 0 ) 0.4008247401919342, 0.5991752598080657;
    ( 9, 5, 3, 1 ) 0.254848151654379, 0.745151848345621;
    ( 9, 5, 4, 0 ) 0.1123806398943318, 0.8876193601056682;
    ( 9, 5, 4, 1 ) 0.2225789119707627, 0.7774210880292373;
    ( 9, 5, 5, 0 ) 0.38600151713394293, 0.6139984828660571;
    ( 9, 5, 5, 1 ) 0.3713286647328388, 0.6286713352671611;
    ( 9, 5, 6, 0 ) 0.4254837487329132, 0.5745162512670868;
    ( 9, 5, 6, 1 ) 0.3764666425757844, 0.6235333574242157;
    ( 9, 5, 7, 0 ) 0.5955729023301936, 0.40442709766980645;
    ( 9, 5, 7, 1 ) 0.5558283150121742, 0.4441716849878258;
    ( 10, 0, 0, 0 ) 0.5, 0.5;
    ( 10, 0, 0, 1 ) 0.5, 0.5;
    ( 10, 0, 1, 0 ) 0.5, 0.5;
    ( 10, 0, 1, 1 ) 3.5621666128261055e-12, 0.9999999999964378;
    ( 10, 0, 2, 0 ) 0.5, 0.5;
    ( 10, 0, 2, 1 ) 1.3082153464497012e-12, 0.9999999999986918;
    ( 10, 0, 3, 0 ) 0.5, 0.5;
    ( 10, 0, 3, 1 ) 0.5, 0.5;
    ( 10, 0, 4, 0 ) 0.5, 0.5;
    ( 10, 0, 4, 1 ) 0.5, 0.5;
    ( 10, 0, 5, 0 ) 0.5, 0.5;
    ( 10, 0, 5, 1 ) 0.5, 0.5;
    ( 10, 0, 6, 0 ) 0.5, 0.5;
    ( 10, 0, 6, 1 ) 0.5, 0.5;
    ( 10, 0, 7, 0 ) 0.5, 0.5;
    ( 10, 0, 7, 1 ) 0.5, 0.5;
    ( 10, 1, 0, 0 ) 5.514618805259684e-07, 0.9999994485381195;
    ( 10, 1, 0, 1 ) 6.809382827326215e-11, 0.9999999999319061;
    ( 10, 1, 1, 0 ) 0.3668561255366861, 0.6331438744633139;
    ( 10, 1, 1, 1 ) 1.5427750283237425e-12, 0.9999999999984572;
    ( 10, 1, 2, 0 ) 6.362592970788702e-11, 0.9999999999363741;
    ( 10, 1, 2, 1 ) 0.6371015893148467, 0.36289841068515327;
    ( 10, 1, 3, 0 ) 8.362425180344841e-13, 0.9999999999991638;
    ( 10, 1, 3, 1 ) 0.5291334342784529, 0.470866565721547;
    ( 10, 1, 4, 0 ) 0.9999999999491497, 5.085027073832631e-11;
    ( 10, 1, 4, 1 ) 0.5, 0.5;
    ( 10, 1, 5, 0 ) 0.5, 0.5;
    ( 10, 1, 5, 1 ) 0.9993909880633579, 0.0006090119366421273;
    ( 10, 1, 6, 0 ) 0.5, 0.5;
    ( 10, 1, 6, 1 ) 0.5, 0.5;
    ( 10, 1, 7, 0 ) 0.5, 0.5;
    ( 10, 1, 7, 1 ) 0.9986263609958519, 0.0013736390041480782;
    ( 10, 2, 0, 0 ) 7.356148752344642e-11, 0.9999999999264386;
    ( 10, 2, 0, 1 ) 0.9985749571737341, 0.0014250428262658661;
    ( 10, 2, 1, 0 ) 1.455239265854143e-06, 0.9999985447607341;
    ( 10, 2, 1, 1 ) 0.6577444987429449, 0.3422555012570551;
    ( 10, 2, 2, 0 ) 0.7606861658323092, 0.23931383416769075;
    ( 10, 2, 2, 1 ) 0.7321693755570741, 0.267830624442926;
    ( 10, 2, 3, 0 ) 0.3489286480162503, 0.6510713519837498;
    ( 10, 2, 3, 1 ) 0.26790703304956687, 0.7320929669504331;
    ( 10, 2, 4, 0 ) 0.6198478789583897, 0.38015212104161034;
    ( 10, 2, 4, 1 ) 0.0008289709930511499, 0.9991710290069489;
    ( 10, 2, 5, 0 ) 9.508350177951952e-11, 0.9999999999049165;
    ( 10, 2, 5, 1 ) 3.845981626724991e-11, 0.9999999999615402;
    ( 10, 2, 6, 0 ) 0.9999999994537484, 5.462515642167153e-10;
    ( 10, 2, 6, 1 ) 0.9999999999564955, 4.350449744230586e-11;
    ( 10, 2, 7, 0 ) 0.5, 0.5;
    ( 10, 2, 7, 1 ) 0.9999999969847296, 3.0152704648769147e-09;
    ( 10, 3, 0, 0 ) 0.2140154732683894, 0.7859845267316106;
    ( 10, 3, 0, 1 ) 0.0051798704164187125, 0.9948201295835813;
    ( 10, 3, 1, 0 ) 3.877898346345302e-06, 0.9999961221016537;
    ( 10, 3, 1, 1 ) 2.9774132438717127e-08, 0.9999999702258675;
    ( 10, 3, 2, 0 ) 0.4027952171735031, 0.5972047828264969;
    ( 10, 3, 2, 1 ) 0.3476401571242839, 0.6523598428757161;
    ( 10, 3, 3, 0 ) 0.29679108590214137, 0.7032089140978586;
    ( 10, 3, 3, 1 ) 0.08605782256804931, 0.9139421774319507;
    ( 10, 3, 4, 0 ) 0.34844828284151047, 0.6515517171584896;
    ( 10, 3, 4, 1 ) 0.22948156374514958, 0.7705184362548504;
    ( 10, 3, 5, 0 ) 0.3834650261741509, 0.6165349738258491;
    ( 10, 3, 5, 1 ) 0.3463947608716633, 0.6536052391283367;
    ( 10, 3, 6, 0 ) 0.3020772056851631, 0.697922794314837;
    ( 10, 3, 6, 1 ) 0.20537346700376785, 0.7946265329962321;
    ( 10, 3, 7, 0 ) 0.7803406634818925, 0.21965933651810748;
    ( 10, 3, 7, 1 ) 0.38297393510193756, 0.6170260648980624;
    ( 10, 4, 0, 0 ) 0.22618925832172568, 0.7738107416782742;
    ( 10, 4, 0, 1 ) 0.999999999972903, 2.7097039912143864e-11;
    ( 10, 4, 1, 0 ) 0.4683032066582502, 0.5316967933417498;
    ( 10, 4, 1, 1 ) 0.2962528325704402, 0.7037471674295598;
    ( 10, 4, 2, 0 ) 0.19008826669784493, 0.809911733302155;
    ( 10, 4, 2, 1 ) 0.5335529893197413, 0.46644701068025873;
    ( 10, 4, 3, 0 ) 0.40335139421586985, 0.5966486057841301;
    ( 10, 4, 3, 1 ) 0.2693665854109739, 0.7306334145890262;
    ( 10, 4, 4, 0 ) 0.5068592114787766, 0.4931407885212235;
    ( 10, 4, 4, 1 ) 3.887369166114809e-09, 0.9999999961126309;
    ( 10, 4, 5, 0 ) 0.3723483569152197, 0.6276516430847802;
    ( 10, 4, 5, 1 ) 0.2700497883952179, 0.7299502116047821;
    ( 10, 4, 6, 0 ) 0.6197318706244752, 0.3802681293755248;
    ( 10, 4, 6, 1 ) 0.026371447982893936, 0.9736285520171061;
    ( 10, 4, 7, 0 ) 0.5246339756273378, 0.47536602437266223;
    ( 10, 4, 7, 1 ) 0.5251225937517351, 0.47487740624826497;
    ( 10, 5, 0, 0 ) 7.090227792954625e-08, 0.9999999290977221;
    ( 10, 5, 0, 1 ) 0.9999999999351573, 6.484267794701545e-11;
    ( 10, 5, 1, 0 ) 0.49617659287654386, 0.5038234071234561;
    ( 10, 5, 1, 1 ) 0.02164946393002123, 0.9783505360699788;
    ( 10, 5, 2, 0 ) 0.06496779068397356, 0.9350322093160265;
    ( 10, 5, 2, 1 ) 1.9007001540198076e-05, 0.9999809929984598;
    ( 10, 5, 3, 0 ) 7.542708137592569e-11, 0.999999999924573;
    ( 10, 5, 3, 1 ) 0.22903011023758335, 0.7709698897624168;
    ( 10, 5, 4, 0 ) 0.29760743918270793, 0.7023925608172921;
    ( 10, 5, 4, 1 ) 0.1718769896466404, 0.8281230103533597;
    ( 10, 5, 5, 0 ) 0.6910520838261573, 0.30894791617384254;
    ( 10, 5, 5, 1 ) 0.33669449706275467, 0.6633055029372454;
    ( 10, 5, 6, 0 ) 0.43859561189288354, 0.5614043881071163;
    ( 10, 5, 6, 1 ) 0.38620676143828275, 0.6137932385617172;
    ( 10, 5, 7, 0 ) 0.5746069935968496, 0.4253930064031503;
    ( 10, 5, 7, 1 ) 0.496013612749655, 0.503986387250345;
    ( 11, 0, 0, 0 ) 3.3128874507133195e-12, 0.9999999999966872;
    ( 11, 0, 0, 1 ) 0.5, 0.5;
    ( 11, 0, 1, 0 ) 0.5, 0.5;
    ( 11, 0, 1, 1 ) 0.5, 0.5;
    ( 11, 0, 2, 0 ) 0.5, 0.5;
    ( 11, 0, 2, 1 ) 0.5, 0.5;
    ( 11, 0, 3, 0 ) 0.5, 0.5;
    ( 11, 0, 3, 1 ) 0.5, 0.5;
    ( 11, 0, 4, 0 ) 0.5, 0.5;
    ( 11, 0, 4, 1 ) 0.5, 0.5;
    ( 11, 0, 5, 0 ) 0.9993756814154785, 0.0006243185845215247;
    ( 11, 0, 5, 1 ) 0.5, 0.5;
    ( 11, 0, 6, 0 ) 0.5, 0.5;
    ( 11, 0, 6, 1 ) 0.5, 0.5;
    ( 11, 0, 7, 0 ) 0.5, 0.5;
    ( 11, 0, 7, 1 ) 0.5, 0.5;
    ( 11, 1, 0, 0 ) 0.2867104379874142, 0.7132895620125858;
    ( 11, 1, 0, 1 ) 0.0004531716571288933, 0.9995468283428711;
    ( 11, 1, 1, 0 ) 0.511604637250735, 0.488395362749265;
    ( 11, 1, 1, 1 ) 0.9999999999597262, 4.027368954155426e-11;
    ( 11, 1, 2, 0 ) 0.9999999999239211, 7.607893790548939e-11;
    ( 11, 1, 2, 1 ) 0.019182061897297507, 0.9808179381027025;
    ( 11, 1, 3, 0 ) 3.213242121439503e-12, 0.9999999999967868;
    ( 11, 1, 3, 1 ) 0.9999999785674013, 2.143259869307468e-08;
    ( 11, 1, 4, 0 ) 5.7459224848104236e-11, 0.9999999999425409;
    ( 11, 1, 4, 1 ) 0.9992779983610846, 0.0007220016389155553;
    ( 11, 1, 5, 0 ) 0.9999999999547782, 4.5221857765775376e-11;
    ( 11, 1, 5, 1 ) 0.9999998342395816, 1.6576041834471158e-07;
    ( 11, 1, 6, 0 ) 0.5, 0.5;
    ( 11, 1, 6, 1 ) 0.999999892394434, 1.0760556611801038e-07;
    ( 11, 1, 7, 0 ) 0.5, 0.5;
    ( 11, 1, 7, 1 ) 0.5, 0.5;
    ( 11, 2, 0, 0 ) 6.592947689820919e-06, 0.9999934070523101;
    ( 11, 2, 0, 1 ) 0.27599922555747863, 0.7240007744425213;
    ( 11, 2, 1, 0 ) 6.384847492540814e-11, 0.9999999999361515;
    ( 11, 2, 1, 1 ) 5.6012865712454495e-06, 0.9999943987134288;
    ( 11, 2, 2, 0 ) 0.5522118369173905, 0.4477881630826095;
    ( 11, 2, 2, 1 ) 7.305975712028124e-11, 0.9999999999269402;
    ( 11, 2, 3, 0 ) 0.4378742216171438, 0.5621257783828562;
    ( 11, 2, 3, 1 ) 0.2803351669347588, 0.7196648330652411;
    ( 11, 2, 4, 0 ) 0.18218956707340167, 0.8178104329265983;
    ( 11, 2, 4, 1 ) 6.931650722645486e-11, 0.9999999999306834;
    ( 11, 2, 5, 0 ) 0.09582225390138503, 0.904177746098615;
    ( 11, 2, 5, 1 ) 1.8708468637207515e-09, 0.9999999981291532;
    ( 11, 2, 6, 0 ) 0.9999999635527489, 3.644725113145359e-08;
    ( 11, 2, 6, 1 ) 0.9999999999494092, 5.0590779854935767e-11;
    ( 11, 2, 7, 0 ) 0.9999998735480623, 1.2645193777189057e-07;
    ( 11, 2, 7, 1 ) 0.9999999967452641, 3.2547359296039833e-09;
    ( 11, 3, 0, 0 ) 0.999999999938469, 6.153110711870517e-11;
    ( 11, 3, 0, 1 ) 4.193896441887143e-09, 0.9999999958061035;
    ( 11, 3, 1, 0 ) 0.22200889957599418, 0.7779911004240059;
    ( 11, 3, 1, 1 ) 0.40888866476228714, 0.591111335237713;
    ( 11, 3, 2, 0 ) 0.47001827827714476, 0.5299817217228552;
    ( 11, 3, 2, 1 ) 0.32581846311765694, 0.6741815368823431;
    ( 11, 3, 3, 0 ) 0.6912726952982043, 0.3087273047017956;
    ( 11, 3, 3, 1 ) 0.561600370165785, 0.43839962983421504;
    ( 11, 3, 4, 0 ) 0.043226537183911, 0.956773462816089;
    ( 11, 3, 4, 1 ) 0.14813314610351858, 0.8518668538964814;
    ( 11, 3, 5, 0 ) 0.25688344185405926, 0.7431165581459408;
    ( 11, 3, 5, 1 ) 0.3733393387024088, 0.6266606612975912;
    ( 11, 3, 6, 0 ) 0.6332054025255853, 0.3667945974744146;
    ( 11, 3, 6, 1 ) 0.2235467395890172, 0.7764532604109827;
    ( 11, 3, 7, 0 ) 0.9999999999253705, 7.462952843956714e-11;
    ( 11, 3, 7, 1 ) 0.9999999999157709, 8.422907760332362e-11;
    ( 11, 4, 0, 0 ) 0.49265426266969525, 0.5073457373303047;
    ( 11, 4, 0, 1 ) 0.8171283528306201, 0.18287164716937995;
    ( 11, 4, 1, 0 ) 0.048360677798869225, 0.9516393222011308;
    ( 11, 4, 1, 1 ) 0.3216032016489808, 0.6783967983510192;
    ( 11, 4, 2, 0 ) 0.6537681849546823, 0.34623181504531775;
    ( 11, 4, 2, 1 ) 0.9999999996955007, 3.044993613598422e-10;
    ( 11, 4, 3, 0 ) 0.5402947620007276, 0.45970523799927243;
    ( 11, 4, 3, 1 ) 0.16419220114709462, 0.8358077988529055;
    ( 11, 4, 4, 0 ) 0.6004393868792147, 0.3995606131207853;
    ( 11, 4, 4, 1 ) 0.28665649764366624, 0.7133435023563337;
    ( 11, 4, 5, 0 ) 0.812516640278389, 0.187483359721611;
    ( 11, 4, 5, 1 ) 6.077083505491103e-09, 0.9999999939229166;
    ( 11, 4, 6, 0 ) 0.8772536737511247, 0.12274632624887531;
    ( 11, 4, 6, 1 ) 0.25051741418971873, 0.7494825858102814;
    ( 11, 4, 7, 0 ) 0.2088643811417319, 0.7911356188582681;
    ( 11, 4, 7, 1 ) 0.001686567086458666, 0.9983134329135414;
    ( 11, 5, 0, 0 ) 5.23220001377186e-11, 0.999999999947678;
    ( 11, 5, 0, 1 ) 0.5, 0.5;
    ( 11, 5, 1, 0 ) 0.9956990086363333, 0.0043009913636667795;
    ( 11, 5, 1, 1 ) 0.9999834048815441, 1.6595118455849008e-05;
    ( 11, 5, 2, 0 ) 0.6089405806264349, 0.39105941937356514;
    ( 11, 5, 2, 1 ) 0.5, 0.5;
    ( 11, 5, 3, 0 ) 0.9999807881137328, 1.9211886267132277e-05;
    ( 11, 5, 3, 1 ) 0.6604039883354821, 0.3395960116645179;
    ( 11, 5, 4, 0 ) 0.4187045782346263, 0.5812954217653736;
    ( 11, 5, 4, 1 ) 0.0008788328063935968, 0.9991211671936064;
    ( 11, 5, 5, 0 ) 0.4402945712373286, 0.5597054287626713;
    ( 11, 5, 5, 1 ) 0.12050125449244856, 0.8794987455075515;
    ( 11, 5, 6, 0 ) 0.3377673141975106, 0.6622326858024894;
    ( 11, 5, 6, 1 ) 0.1197388649367631, 0.8802611350632369;
    ( 11, 5, 7, 0 ) 0.47615241896786414, 0.5238475810321358;
    ( 11, 5, 7, 1 ) 0.3201866290475463, 0.6798133709524538;
    ( 12, 0, 0, 0 ) 0.5, 0.5;
    ( 12, 0, 0, 1 ) 0.5, 0.5;
    ( 12, 0, 1, 0 ) 0.9993600417200303, 0.0006399582799696545;
    ( 12, 0, 1, 1 ) 0.5, 0.5;
    ( 12, 0, 2, 0 ) 0.5, 0.5;
    ( 12, 0, 2, 1 ) 0.5, 0.5;
    ( 12, 0, 3, 0 ) 0.5, 0.5;
    ( 12, 0, 3, 1 ) 0.5, 0.5;
    ( 12, 0, 4, 0 ) 0.5, 0.5;
    ( 12, 0, 4, 1 ) 0.5, 0.5;
    ( 12, 0, 5, 0 ) 0.5, 0.5;
    ( 12, 0, 5, 1 ) 0.5, 0.5;
    ( 12, 0, 6, 0 ) 0.5, 0.5;
    ( 12, 0, 6, 1 ) 0.5, 0.5;
    ( 12, 0, 7, 0 ) 0.5, 0.5;
    ( 12, 0, 7, 1 ) 0.5, 0.5;
    ( 12, 1, 0, 0 ) 7.437607269204069e-11, 0.9999999999256239;
    ( 12, 1, 0, 1 ) 0.5, 0.5;
    ( 12, 1, 1, 0 ) 4.434240475940541e-11, 0.9999999999556576;
    ( 12, 1, 1, 1 ) 0.9999999345957163, 6.540428372459027e-08;
    ( 12, 1, 2, 0 ) 5.6705119549586015e-11, 0.9999999999432948;
    ( 12, 1, 2, 1 ) 0.9999999992867383, 7.132616235122602e-10;
    ( 12, 1, 3, 0 ) 0.2567839092214153, 0.7432160907785846;
    ( 12, 1, 3, 1 ) 0.9999999999411386, 5.886127164112242e-11;
    ( 12, 1, 4, 0 ) 0.2658710528471657, 0.7341289471528343;
    ( 12, 1, 4, 1 ) 0.3058676840408958, 0.6941323159591042;
    ( 12, 1, 5, 0 ) 0.9999999999439574, 5.6042591184773263e-11;
    ( 12, 1, 5, 1 ) 2.1693256870082164e-12, 0.9999999999978306;
    ( 12, 1, 6, 0 ) 0.5, 0.5;
    ( 12, 1, 6, 1 ) 0.5, 0.5;
    ( 12, 1, 7, 0 ) 0.9999999543374751, 4.566252489576429e-08;
    ( 12, 1, 7, 1 ) 3.5996703375826166e-12, 0.9999999999964003;
    ( 12, 2, 0, 0 ) 0.46016409482480686, 0.5398359051751932;
    ( 12, 2, 0, 1 ) 0.9999995872856868, 4.1271431317109337e-07;
    ( 12, 2, 1, 0 ) 0.3158031129910397, 0.6841968870089603;
    ( 12, 2, 1, 1 ) 4.118183133907579e-11, 0.9999999999588182;
    ( 12, 2, 2, 0 ) 0.5360943655068199, 0.46390563449318023;
    ( 12, 2, 2, 1 ) 0.999999999939308, 6.069197832433929e-11;
    ( 12, 2, 3, 0 ) 0.3482847409280444, 0.6517152590719556;
    ( 12, 2, 3, 1 ) 5.7329865098445676e-11, 0.9999999999426702;
    ( 12, 2, 4, 0 ) 0.9999999911916576, 8.808342475086912e-09;
    ( 12, 2, 4, 1 ) 0.08706058787016065, 0.9129394121298394;
    ( 12, 2, 5, 0 ) 7.755691991469274e-11, 0.9999999999224432;
    ( 12, 2, 5, 1 ) 0.7015994761293036, 0.29840052387069643;
    ( 12, 2, 6, 0 ) 0.5, 0.5;
    ( 12, 2, 6, 1 ) 0.9999999999289179, 7.108219010531595e-11;
    ( 12, 2, 7, 0 ) 0.9999999999538909, 4.610916699318837e-11;
    ( 12, 2, 7, 1 ) 0.9973183880250197, 0.0026816119749803334;
    ( 12, 3, 0, 0 ) 0.249091082925583, 0.750908917074417;
    ( 12, 3, 0, 1 ) 0.9999999999362806, 6.371936236929155e-11;
    ( 12, 3, 1, 0 ) 0.0003122357707397868, 0.9996877642292602;
    ( 12, 3, 1, 1 ) 0.9999999999575025, 4.249740162573915e-11;
    ( 12, 3, 2, 0 ) 0.6925383924863665, 0.3074616075136335;
    ( 12, 3, 2, 1 ) 0.5833553833155809, 0.41664461668441916;
    ( 12, 3, 3, 0 ) 0.36058449942092474, 0.6394155005790753;
    ( 12, 3, 3, 1 ) 0.11027730419226407, 0.8897226958077359;
    ( 12, 3, 4, 0 ) 0.5933833543779553, 0.4066166456220447;
    ( 12, 3, 4, 1 ) 0.2638206518278418, 0.7361793481721581;
    ( 12, 3, 5, 0 ) 0.5802672035236035, 0.41973279647639655;
    ( 12, 3, 5, 1 ) 0.6401763516064831, 0.3598236483935168;
    ( 12, 3, 6, 0 ) 0.1064721355937022, 0.8935278644062977;
    ( 12, 3, 6, 1 ) 0.2908375559980253, 0.7091624440019747;
    ( 12, 3, 7, 0 ) 0.999999998070285, 1.9297151173992867e-09;
    ( 12, 3, 7, 1 ) 0.3260933187959379, 0.6739066812040622;
    ( 12, 4, 0, 0 ) 0.08076484964451536, 0.9192351503554846;
    ( 12, 4, 0, 1 ) 5.744327102502632e-11, 0.9999999999425568;
    ( 12, 4, 1, 0 ) 0.30682923243041854, 0.6931707675695815;
    ( 12, 4, 1, 1 ) 0.3198388472089723, 0.6801611527910277;
    ( 12, 4, 2, 0 ) 0.6095660975222937, 0.3904339024777062;
    ( 12, 4, 2, 1 ) 0.04994960751675021, 0.9500503924832499;
    ( 12, 4, 3, 0 ) 0.5644025638698524, 0.4355974361301475;
    ( 12, 4, 3, 1 ) 0.5051255951121293, 0.49487440488787066;
    ( 12, 4, 4, 0 ) 0.5348812485951764, 0.4651187514048236;
    ( 12, 4, 4, 1 ) 0.9999999999236149, 7.638509999949825e-11;
    ( 12, 4, 5, 0 ) 0.2473343331151273, 0.7526656668848727;
    ( 12, 4, 5, 1 ) 0.27484782709029804, 0.725152172909702;
    ( 12, 4, 6, 0 ) 0.5561011118130863, 0.44389888818691364;
    ( 12, 4, 6, 1 ) 0.3878595485637438, 0.6121404514362563;
    ( 12, 4, 7, 0 ) 0.7184077034113057, 0.2815922965886943;
    ( 12, 4, 7, 1 ) 0.0014716351063195833, 0.9985283648936804;
    ( 12, 5, 0, 0 ) 0.9999999997421375, 2.5786255728064767e-10;
    ( 12, 5, 0, 1 ) 0.999999938140437, 6.185956302168244e-08;
    ( 12, 5, 1, 0 ) 4.146546854046021e-06, 0.999995853453146;
    ( 12, 5, 1, 1 ) 6.206663690778571e-11, 0.9999999999379334;
    ( 12, 5, 2, 0 ) 0.35731520236697323, 0.6426847976330268;
    ( 12, 5, 2, 1 ) 0.5705172525271421, 0.429482747472858;
    ( 12, 5, 3, 0 ) 0.2592794282491292, 0.7407205717508708;
    ( 12, 5, 3, 1 ) 0.0005587320695097034, 0.9994412679304904;
    ( 12, 5, 4, 0 ) 0.4781023483197305, 0.5218976516802695;
    ( 12, 5, 4, 1 ) 0.18642570936692915, 0.8135742906330709;
    ( 12, 5, 5, 0 ) 0.4796197100665509, 0.5203802899334491;
    ( 12, 5, 5, 1 ) 0.10134004964036075, 0.8986599503596393;
    ( 12, 5, 6, 0 ) 0.34822157444638674, 0.6517784255536132;
    ( 12, 5, 6, 1 ) 0.3349576311982838, 0.6650423688017162;
    ( 12, 5, 7, 0 ) 0.27085021428723527, 0.7291497857127647;
    ( 12, 5, 7, 1 ) 0.4598690382321988, 0.5401309617678012;

}
probability ( Stroke ) {
    table 0.9586, 0.0414 ;
}
probability ( Veggies ) {
    table 0.19015, 0.80985 ;
}
