network unknown {
}
variable Age {
    type discrete [ 13 ] { 0, 1, 2, 3, 4, 5, 6, 7, 8, 9, 10, 11, 12 };
}
variable AnyHealthcare {
    type discrete [ 2 ] { 0, 1 };
}
variable BMI {
    type discrete [ 5 ] { 0, 1, 2, 3, 4 };
}
variable CholCheck {
    type discrete [ 2 ] { 0, 1 };
}
variable Diabetes_binary {
    type discrete [ 2 ] { 0, 1 };
}
variable Diet {
    type discrete [ 2 ] { 0, 1 };
}
variable DiffWalk {
    type discrete [ 2 ] { 0, 1 };
}
variable Education {
    type discrete [ 6 ] { 0, 1, 2, 3, 4, 5 };
}
variable Fruits {
    type discrete [ 2 ] { 0, 1 };
}
variable GenHlth {
    type discrete [ 3 ] { 0, 1, 2 };
}
variable HealthcareAccess {
    type discrete [ 2 ] { 0, 1 };
}
variable HighBP {
    type discrete [ 2 ] { 0, 1 };
}
variable HighChol {
    type discrete [ 2 ] { 0, 1 };
}
variable Income {
    type discrete [ 8 ] { 0, 1, 2, 3, 4, 5, 6, 7 };
}
variable Lifestyle {
    type discrete [ 2 ] { 0, 1 };
}
variable PhysActivity {
    type discrete [ 2 ] { 0, 1 };
}
variable PhysHlth {
    type discrete [ 2 ] { 0, 1 };
}
variable Sex {
    type discrete [ 2 ] { 0, 1 };
}
variable Smoker {
    type discrete [ 2 ] { 0, 1 };
}
variable SocioecStatus {
    type discrete [ 2 ] { 0, 1 };
}
variable Veggies {
    type discrete [ 2 ] { 0, 1 };
}
probability ( Age ) {
    table 0.01465, 0.01835, 0.0286, 0.03755, 0.0514, 0.06905, 0.10315, 0.12745, 0.13955, 0.1518, 0.1117, 0.0749, 0.07185 ;
}
probability ( AnyHealthcare ) {
    table 0.05025, 0.94975 ;
}
probability ( BMI ) {
    table 0.00945, 0.26875, 0.35225, 0.21415, 0.1554 ;
}
probability ( CholCheck ) {
    table 0.0251, 0.9749 ;
}
probability ( Diabetes_binary | Diet, HealthcareAccess, Lifestyle, PhysHlth, SocioecStatus ) {
    ( 0, 0, 0, 0, 0 ) 0.9999999999595228, 4.0477184985855e-11;
    ( 0, 0, 0, 0, 1 ) 0.9999999999267151, 7.328496455936927e-11;
    ( 0, 0, 0, 1, 0 ) 0.9999999999406511, 5.934890930216107e-11;
    ( 0, 0, 0, 1, 1 ) 0.9686698824837371, 0.03133011751626292;
    ( 0, 0, 1, 0, 0 ) 0.9999999999377555, 6.224458630652533e-11;
    ( 0, 0, 1, 0, 1 ) 0.9014429695791183, 0.09855703042088165;
    ( 0, 0, 1, 1, 0 ) 0.9996552632434793, 0.0003447367565207101;
    ( 0, 0, 1, 1, 1 ) 8.139675508781412e-09, 0.9999999918603245;
    ( 0, 1, 0, 0, 0 ) 0.9999999738267457, 2.6173254269893817e-08;
    ( 0, 1, 0, 0, 1 ) 0.804305790301211, 0.195694209698789;
    ( 0, 1, 0, 1, 0 ) 0.9965384435795833, 0.0034615564204167216;
    ( 0, 1, 0, 1, 1 ) 0.016524726396576504, 0.9834752736034235;
    ( 0, 1, 1, 0, 0 ) 0.9999093392220614, 9.066077793859388e-05;
    ( 0, 1, 1, 0, 1 ) 0.16488501901198738, 0.8351149809880126;
    ( 0, 1, 1, 1, 0 ) 0.2375870531556007, 0.7624129468443993;
    ( 0, 1, 1, 1, 1 ) 1.2782049501590393e-07, 0.999999872179505;
    ( 1, 0, 0, 0, 0 ) 0.9999999999466885, 5.3311458031148393e-11;
    ( 1, 0, 0, 0, 1 ) 0.9998301618620793, 0.00016983813792074742;
    ( 1, 0, 0, 1, 0 ) 0.9999999999365923, 6.340776052393087e-11;
    ( 1, 0, 0, 1, 1 ) 0.35339879627708787, 0.6466012037229122;
    ( 1, 0, 1, 0, 0 ) 0.9999999999366882, 6.331173363343649e-11;
    ( 1, 0, 1, 0, 1 ) 0.9548723114994275, 0.0451276885005725;
    ( 1, 0, 1, 1, 0 ) 0.9999998900443104, 1.0995568950270292e-07;
    ( 1, 0, 1, 1, 1 ) 2.5190166274927213e-07, 0.9999997480983372;
    ( 1, 1, 0, 0, 0 ) 0.9999999824991606, 1.7500839378595706e-08;
    ( 1, 1, 0, 0, 1 ) 0.9941470933204769, 0.005852906679523097;
    ( 1, 1, 0, 1, 0 ) 0.99962922020611, 0.0003707797938900072;
    ( 1, 1, 0, 1, 1 ) 0.0025203782078830395, 0.997479621792117;
    ( 1, 1, 1, 0, 0 ) 0.9999888126172091, 1.1187382790882096e-05;
    ( 1, 1, 1, 0, 1 ) 0.029089474352435182, 0.9709105256475649;
    ( 1, 1, 1, 1, 0 ) 0.543613090278477, 0.45638690972152296;
    ( 1, 1, 1, 1, 1 ) 2.48265023199955e-07, 0.9999997517349768;

}
probability ( Diet | Fruits, Veggies ) {
    ( 0, 0 ) 0.31599432386282084, 0.6840056761371792;
    ( 0, 1 ) 0.7616967196739037, 0.23830328032609624;
    ( 1, 0 ) 0.1880784339063733, 0.8119215660936268;
    ( 1, 1 ) 0.5556454165510198, 0.44435458344898016;

}
probability ( DiffWalk ) {
    table 0.7764, 0.2236 ;
}
probability ( Education ) {
    table 0.001, 0.0278, 0.05095, 0.28585, 0.2804, 0.354 ;
}
probability ( Fruits ) {
    table 0.41295, 0.58705 ;
}
probability ( GenHlth ) {
    table 0.4025, 0.3485, 0.249 ;
}
probability ( HealthcareAccess | AnyHealthcare, CholCheck ) {
    ( 0, 0 ) 0.5978713091945457, 0.4021286908054544;
    ( 0, 1 ) 0.08194778166217845, 0.9180522183378216;
    ( 1, 0 ) 0.999947936394803, 5.206360519703589e-05;
    ( 1, 1 ) 0.015459923715858763, 0.9845400762841412;

}
probability ( HighBP ) {
    table 0.45125, 0.54875 ;
}
probability ( HighChol ) {
    table 0.4957, 0.5043 ;
}
probability ( Income ) {
    table 0.0568, 0.0657, 0.07895, 0.09295, 0.1149, 0.14305, 0.1591, 0.28855 ;
}
probability ( Lifestyle | GenHlth, PhysActivity, Smoker ) {
    ( 0, 0, 0 ) 0.7372004121430416, 0.2627995878569584;
    ( 0, 0, 1 ) 0.7429885886384, 0.2570114113616;
    ( 0, 1, 0 ) 0.9953321198743064, 0.004667880125693713;
    ( 0, 1, 1 ) 0.9950162045712913, 0.004983795428708722;
    ( 1, 0, 0 ) 0.25081552287072123, 0.7491844771292787;
    ( 1, 0, 1 ) 0.432989698195862, 0.5670103018041379;
    ( 1, 1, 0 ) 0.3626541656071567, 0.6373458343928433;
    ( 1, 1, 1 ) 0.5649912715578514, 0.4350087284421485;
    ( 2, 0, 0 ) 0.0003630350098354632, 0.9996369649901645;
    ( 2, 0, 1 ) 0.2026092412788775, 0.7973907587211225;
    ( 2, 1, 0 ) 0.2284934383993663, 0.7715065616006337;
    ( 2, 1, 1 ) 0.49140347750441593, 0.5085965224955841;

}
probability ( PhysActivity ) {
    table 0.317, 0.683 ;
}
probability ( PhysHlth | BMI, DiffWalk, HighBP, HighChol ) {
    ( 0, 0, 0, 0 ) 0.9996927072787481, 0.0003072927212518488;
    ( 0, 0, 0, 1 ) 0.864771300665202, 0.13522869933479797;
    ( 0, 0, 1, 0 ) 0.999998669870852, 1.3301291479416753e-06;
    ( 0, 0, 1, 1 ) 0.9054574966782185, 0.09454250332178148;
    ( 0, 1, 0, 0 ) 0.9999999999552904, 4.470956807587788e-11;
    ( 0, 1, 0, 1 ) 0.9999999999373076, 6.269242283948838e-11;
    ( 0, 1, 1, 0 ) 0.33752109843366684, 0.6624789015663332;
    ( 0, 1, 1, 1 ) 0.5608653763527496, 0.4391346236472504;
    ( 1, 0, 0, 0 ) 0.9315389335972755, 0.06846106640272463;
    ( 1, 0, 0, 1 ) 0.8065802505907128, 0.19341974940928722;
    ( 1, 0, 1, 0 ) 0.5776887020407049, 0.4223112979592951;
    ( 1, 0, 1, 1 ) 0.3557542517950591, 0.6442457482049408;
    ( 1, 1, 0, 0 ) 0.9999998989724304, 1.0102756965208437e-07;
    ( 1, 1, 0, 1 ) 0.663198675559821, 0.33680132444017885;
    ( 1, 1, 1, 0 ) 0.6918854390469397, 0.3081145609530603;
    ( 1, 1, 1, 1 ) 0.5069093807090449, 0.4930906192909551;
    ( 2, 0, 0, 0 ) 0.7564979683394046, 0.2435020316605953;
    ( 2, 0, 0, 1 ) 0.5809913012131306, 0.41900869878686936;
    ( 2, 0, 1, 0 ) 0.36931507439346506, 0.630684925606535;
    ( 2, 0, 1, 1 ) 0.18178553083514462, 0.8182144691648553;
    ( 2, 1, 0, 0 ) 0.7896258888613487, 0.21037411113865123;
    ( 2, 1, 0, 1 ) 0.6486798150229135, 0.35132018497708656;
    ( 2, 1, 1, 0 ) 0.512147629778281, 0.487852370221719;
    ( 2, 1, 1, 1 ) 0.2758651229463427, 0.7241348770536573;
    ( 3, 0, 0, 0 ) 0.5241654818805873, 0.4758345181194127;
    ( 3, 0, 0, 1 ) 0.38402544537499583, 0.6159745546250042;
    ( 3, 0, 1, 0 ) 0.2296777746868459, 0.7703222253131541;
    ( 3, 0, 1, 1 ) 0.012971958261085263, 0.9870280417389148;
    ( 3, 1, 0, 0 ) 0.4291808396741132, 0.5708191603258868;
    ( 3, 1, 0, 1 ) 0.45155847746559163, 0.5484415225344085;
    ( 3, 1, 1, 0 ) 0.12940369647452069, 0.8705963035254793;
    ( 3, 1, 1, 1 ) 0.007712909601272921, 0.9922870903987271;
    ( 4, 0, 0, 0 ) 0.4880131472747088, 0.5119868527252912;
    ( 4, 0, 0, 1 ) 0.36761517876766014, 0.6323848212323399;
    ( 4, 0, 1, 0 ) 0.0976708218938985, 0.9023291781061015;
    ( 4, 0, 1, 1 ) 0.00038500091830885103, 0.9996149990816912;
    ( 4, 1, 0, 0 ) 0.2925254048384126, 0.7074745951615874;
    ( 4, 1, 0, 1 ) 0.33477421625798576, 0.6652257837420142;
    ( 4, 1, 1, 0 ) 0.19987105115011564, 0.8001289488498844;
    ( 4, 1, 1, 1 ) 4.0127769406139146e-05, 0.9999598722305939;

}
probability ( Sex ) {
    table 0.5824, 0.4176 ;
}
probability ( Smoker ) {
    table 0.5604, 0.4396 ;
}
probability ( SocioecStatus | Age, Education, Income, Sex ) {
    ( 0, 0, 0, 0 ) 0.5, 0.5;
    ( 0, 0, 0, 1 ) 0.5, 0.5;
    ( 0, 0, 1, 0 ) 0.5, 0.5;
    ( 0, 0, 1, 1 ) 0.5, 0.5;
    ( 0, 0, 2, 0 ) 0.5, 0.5;
    ( 0, 0, 2, 1 ) 0.5, 0.5;
    ( 0, 0, 3, 0 ) 0.5, 0.5;
    ( 0, 0, 3, 1 ) 5.489198675853461e-13, 0.999999999999451;
    ( 0, 0, 4, 0 ) 0.5, 0.5;
    ( 0, 0, 4, 1 ) 0.5, 0.5;
    ( 0, 0, 5, 0 ) 0.5, 0.5;
    ( 0, 0, 5, 1 ) 0.5, 0.5;
    ( 0, 0, 6, 0 ) 0.5, 0.5;
    ( 0, 0, 6, 1 ) 0.5, 0.5;
    ( 0, 0, 7, 0 ) 0.5, 0.5;
    ( 0, 0, 7, 1 ) 0.5, 0.5;
    ( 0, 1, 0, 0 ) 0.5, 0.5;
    ( 0, 1, 0, 1 ) 0.5, 0.5;
    ( 0, 1, 1, 0 ) 0.5, 0.5;
    ( 0, 1, 1, 1 ) 0.5, 0.5;
    ( 0, 1, 2, 0 ) 0.5, 0.5;
    ( 0, 1, 2, 1 ) 0.5, 0.5;
    ( 0, 1, 3, 0 ) 0.5, 0.5;
    ( 0, 1, 3, 1 ) 4.773837566556657e-13, 0.9999999999995226;
    ( 0, 1, 4, 0 ) 0.5, 0.5;
    ( 0, 1, 4, 1 ) 0.9999999999306189, 6.938100671589633e-11;
    ( 0, 1, 5, 0 ) 0.5, 0.5;
    ( 0, 1, 5, 1 ) 0.5, 0.5;
    ( 0, 1, 6, 0 ) 0.5, 0.5;
    ( 0, 1, 6, 1 ) 0.5, 0.5;
    ( 0, 1, 7, 0 ) 0.5, 0.5;
    ( 0, 1, 7, 1 ) 0.5, 0.5;
    ( 0, 2, 0, 0 ) 0.40982861290335926, 0.5901713870966407;
    ( 0, 2, 0, 1 ) 0.5, 0.5;
    ( 0, 2, 1, 0 ) 0.9999999999458874, 5.4112590978692206e-11;
    ( 0, 2, 1, 1 ) 0.5, 0.5;
    ( 0, 2, 2, 0 ) 0.9999999999494055, 5.0594429010857606e-11;
    ( 0, 2, 2, 1 ) 0.5, 0.5;
    ( 0, 2, 3, 0 ) 0.5, 0.5;
    ( 0, 2, 3, 1 ) 0.5, 0.5;
    ( 0, 2, 4, 0 ) 2.3084390655377365e-11, 0.9999999999769156;
    ( 0, 2, 4, 1 ) 0.999999779529197, 2.204708029510354e-07;
    ( 0, 2, 5, 0 ) 0.9999999999618592, 3.8140806392505786e-11;
    ( 0, 2, 5, 1 ) 0.9999999999541337, 4.5866319839893914e-11;
    ( 0, 2, 6, 0 ) 0.9999999999651011, 3.489888090767558e-11;
    ( 0, 2, 6, 1 ) 0.5, 0.5;
    ( 0, 2, 7, 0 ) 0.5, 0.5;
    ( 0, 2, 7, 1 ) 0.5, 0.5;
    ( 0, 3, 0, 0 ) 0.9999999999447868, 5.521323084727326e-11;
    ( 0, 3, 0, 1 ) 0.9999999999207162, 7.928382000992012e-11;
    ( 0, 3, 1, 0 ) 0.5627361224729782, 0.4372638775270218;
    ( 0, 3, 1, 1 ) 0.9999999999581234, 4.18765741567375e-11;
    ( 0, 3, 2, 0 ) 0.6895414735093538, 0.3104585264906462;
    ( 0, 3, 2, 1 ) 0.4239197996214625, 0.5760802003785376;
    ( 0, 3, 3, 0 ) 0.2533322807445675, 0.7466677192554325;
    ( 0, 3, 3, 1 ) 0.9999999999526975, 4.730250985038602e-11;
    ( 0, 3, 4, 0 ) 0.8311129288380109, 0.16888707116198914;
    ( 0, 3, 4, 1 ) 0.999999999945519, 5.448098750508291e-11;
    ( 0, 3, 5, 0 ) 7.479353354147187e-11, 0.9999999999252065;
    ( 0, 3, 5, 1 ) 0.7530419617567798, 0.2469580382432202;
    ( 0, 3, 6, 0 ) 7.232316014861392e-11, 0.9999999999276769;
    ( 0, 3, 6, 1 ) 0.4715702734431557, 0.5284297265568444;
    ( 0, 3, 7, 0 ) 0.015021504273208686, 0.9849784957267913;
    ( 0, 3, 7, 1 ) 0.3115346713483088, 0.6884653286516913;
    ( 0, 4, 0, 0 ) 0.9999999999342127, 6.5787159729281e-11;
    ( 0, 4, 0, 1 ) 0.9999999999662629, 3.3737161501922766e-11;
    ( 0, 4, 1, 0 ) 0.9999999999351517, 6.484845727610437e-11;
    ( 0, 4, 1, 1 ) 0.9994969494956581, 0.0005030505043417873;
    ( 0, 4, 2, 0 ) 0.42193722884772156, 0.5780627711522783;
    ( 0, 4, 2, 1 ) 0.9999999999697634, 3.023652942856694e-11;
    ( 0, 4, 3, 0 ) 0.9999999999461706, 5.382943431322918e-11;
    ( 0, 4, 3, 1 ) 0.9999999999504543, 4.954578396137069e-11;
    ( 0, 4, 4, 0 ) 0.7636773020707, 0.23632269792930002;
    ( 0, 4, 4, 1 ) 0.9999999999501135, 4.9886433019277435e-11;
    ( 0, 4, 5, 0 ) 0.6088966331660984, 0.3911033668339017;
    ( 0, 4, 5, 1 ) 0.7185340894551012, 0.28146591054489867;
    ( 0, 4, 6, 0 ) 0.9999999999348945, 6.510544027441684e-11;
    ( 0, 4, 6, 1 ) 0.8978466098367741, 0.1021533901632258;
    ( 0, 4, 7, 0 ) 0.8778381671592, 0.12216183284079994;
    ( 0, 4, 7, 1 ) 0.6634306384226029, 0.3365693615773971;
    ( 0, 5, 0, 0 ) 0.999999999942895, 5.710494068067074e-11;
    ( 0, 5, 0, 1 ) 0.9999502592511396, 4.9740748860439765e-05;
    ( 0, 5, 1, 0 ) 0.6977465396624191, 0.3022534603375809;
    ( 0, 5, 1, 1 ) 0.5, 0.5;
    ( 0, 5, 2, 0 ) 4.1608362172234324e-08, 0.9999999583916379;
    ( 0, 5, 2, 1 ) 2.6927343695730807e-11, 0.9999999999730727;
    ( 0, 5, 3, 0 ) 0.999999999972287, 2.7713106957984092e-11;
    ( 0, 5, 3, 1 ) 0.9998161711016786, 0.00018382889832135128;
    ( 0, 5, 4, 0 ) 0.9999999999518207, 4.8179350802198693e-11;
    ( 0, 5, 4, 1 ) 0.9999999999350497, 6.495028057563756e-11;
    ( 0, 5, 5, 0 ) 0.9999999999334994, 6.650054494513816e-11;
    ( 0, 5, 5, 1 ) 0.9999999999430518, 5.694819077339956e-11;
    ( 0, 5, 6, 0 ) 0.7273347869838545, 0.27266521301614544;
    ( 0, 5, 6, 1 ) 0.9999999999434238, 5.657614092310622e-11;
    ( 0, 5, 7, 0 ) 0.8524172650979407, 0.14758273490205923;
    ( 0, 5, 7, 1 ) 0.5325790804864543, 0.46742091951354564;
    ( 1, 0, 0, 0 ) 0.5, 0.5;
    ( 1, 0, 0, 1 ) 0.5, 0.5;
    ( 1, 0, 1, 0 ) 0.5, 0.5;
    ( 1, 0, 1, 1 ) 0.5, 0.5;
    ( 1, 0, 2, 0 ) 0.5, 0.5;
    ( 1, 0, 2, 1 ) 0.5, 0.5;
    ( 1, 0, 3, 0 ) 0.5, 0.5;
    ( 1, 0, 3, 1 ) 0.5, 0.5;
    ( 1, 0, 4, 0 ) 0.5, 0.5;
    ( 1, 0, 4, 1 ) 0.5, 0.5;
    ( 1, 0, 5, 0 ) 0.5, 0.5;
    ( 1, 0, 5, 1 ) 0.5, 0.5;
    ( 1, 0, 6, 0 ) 0.5, 0.5;
    ( 1, 0, 6, 1 ) 0.5, 0.5;
    ( 1, 0, 7, 0 ) 0.5, 0.5;
    ( 1, 0, 7, 1 ) 0.5, 0.5;
    ( 1, 1, 0, 0 ) 2.0436612015928667e-11, 0.9999999999795635;
    ( 1, 1, 0, 1 ) 4.349343589686926e-12, 0.9999999999956507;
    ( 1, 1, 1, 0 ) 0.5, 0.5;
    ( 1, 1, 1, 1 ) 0.5, 0.5;
    ( 1, 1, 2, 0 ) 0.3155369170184798, 0.6844630829815203;
    ( 1, 1, 2, 1 ) 0.5, 0.5;
    ( 1, 1, 3, 0 ) 0.5, 0.5;
    ( 1, 1, 3, 1 ) 0.5, 0.5;
    ( 1, 1, 4, 0 ) 0.5, 0.5;
    ( 1, 1, 4, 1 ) 0.999999999966015, 3.398501655379442e-11;
    ( 1, 1, 5, 0 ) 0.5, 0.5;
    ( 1, 1, 5, 1 ) 0.5, 0.5;
    ( 1, 1, 6, 0 ) 0.5, 0.5;
    ( 1, 1, 6, 1 ) 0.5, 0.5;
    ( 1, 1, 7, 0 ) 0.5, 0.5;
    ( 1, 1, 7, 1 ) 0.5, 0.5;
    ( 1, 2, 0, 0 ) 3.235549562245184e-11, 0.9999999999676445;
    ( 1, 2, 0, 1 ) 0.00011121990147445774, 0.9998887800985256;
    ( 1, 2, 1, 0 ) 0.9999999551829152, 4.481708480480633e-08;
    ( 1, 2, 1, 1 ) 0.999999999986019, 1.3980945110588727e-11;
    ( 1, 2, 2, 0 ) 0.9999999999639537, 3.6046372606426024e-11;
    ( 1, 2, 2, 1 ) 0.5, 0.5;
    ( 1, 2, 3, 0 ) 0.5, 0.5;
    ( 1, 2, 3, 1 ) 0.5, 0.5;
    ( 1, 2, 4, 0 ) 0.9999999999366739, 6.332611299574903e-11;
    ( 1, 2, 4, 1 ) 0.5, 0.5;
    ( 1, 2, 5, 0 ) 0.9999999999473266, 5.2673319057832126e-11;
    ( 1, 2, 5, 1 ) 0.5, 0.5;
    ( 1, 2, 6, 0 ) 0.5, 0.5;
    ( 1, 2, 6, 1 ) 0.5, 0.5;
    ( 1, 2, 7, 0 ) 0.5, 0.5;
    ( 1, 2, 7, 1 ) 0.5, 0.5;
    ( 1, 3, 0, 0 ) 0.06222118311199044, 0.9377788168880096;
    ( 1, 3, 0, 1 ) 0.8164270138422967, 0.18357298615770343;
    ( 1, 3, 1, 0 ) 0.4755133674251054, 0.5244866325748946;
    ( 1, 3, 1, 1 ) 0.9999999938126023, 6.1873976790764735e-09;
    ( 1, 3, 2, 0 ) 0.9999999999644738, 3.5526295825030834e-11;
    ( 1, 3, 2, 1 ) 0.9999997309777736, 2.6902222646859063e-07;
    ( 1, 3, 3, 0 ) 0.9999999999616153, 3.838476329949775e-11;
    ( 1, 3, 3, 1 ) 0.999999999961377, 3.862296031235613e-11;
    ( 1, 3, 4, 0 ) 0.9999999999424259, 5.757412079829759e-11;
    ( 1, 3, 4, 1 ) 0.9999999999474087, 5.2591272344303526e-11;
    ( 1, 3, 5, 0 ) 0.9999999999618592, 3.814080639250582e-11;
    ( 1, 3, 5, 1 ) 0.9999999999452512, 5.4748711232519e-11;
    ( 1, 3, 6, 0 ) 0.9999999999465832, 5.3416778396341435e-11;
    ( 1, 3, 6, 1 ) 0.9999999999476632, 5.233685312253632e-11;
    ( 1, 3, 7, 0 ) 4.903066551273777e-11, 0.9999999999509693;
    ( 1, 3, 7, 1 ) 0.43293331016470127, 0.5670666898352988;
    ( 1, 4, 0, 0 ) 0.4169591673974886, 0.5830408326025114;
    ( 1, 4, 0, 1 ) 0.9999999999265882, 7.341179376186473e-11;
    ( 1, 4, 1, 0 ) 0.9999999999386618, 6.133810770106125e-11;
    ( 1, 4, 1, 1 ) 0.9999999999909841, 9.015882637518896e-12;
    ( 1, 4, 2, 0 ) 0.05992374072815427, 0.9400762592718458;
    ( 1, 4, 2, 1 ) 0.9999999999401388, 5.986128219142444e-11;
    ( 1, 4, 3, 0 ) 0.9999410799578834, 5.8920042116575e-05;
    ( 1, 4, 3, 1 ) 0.9999999999394885, 6.051144669086955e-11;
    ( 1, 4, 4, 0 ) 0.21053431779214762, 0.7894656822078524;
    ( 1, 4, 4, 1 ) 0.6084795620645538, 0.3915204379354463;
    ( 1, 4, 5, 0 ) 0.8043684010082188, 0.19563159899178117;
    ( 1, 4, 5, 1 ) 0.9958867912247757, 0.004113208775224239;
    ( 1, 4, 6, 0 ) 0.9999999999477607, 5.223928958005588e-11;
    ( 1, 4, 6, 1 ) 0.9999999999573075, 4.269251053834671e-11;
    ( 1, 4, 7, 0 ) 0.9999999999451912, 5.480874424628954e-11;
    ( 1, 4, 7, 1 ) 0.9999999999442741, 5.572580755131172e-11;
    ( 1, 5, 0, 0 ) 0.9999999999282533, 7.174672644785021e-11;
    ( 1, 5, 0, 1 ) 0.9999999999261842, 7.381586195311327e-11;
    ( 1, 5, 1, 0 ) 0.9999999999677313, 3.2268847658269216e-11;
    ( 1, 5, 1, 1 ) 0.9999999999350496, 6.495028057563757e-11;
    ( 1, 5, 2, 0 ) 0.009250202623540362, 0.9907497973764596;
    ( 1, 5, 2, 1 ) 0.9999999999585762, 4.142374775188521e-11;
    ( 1, 5, 3, 0 ) 0.9999999999533412, 4.665876504563812e-11;
    ( 1, 5, 3, 1 ) 0.9999999999671576, 3.2842377602459656e-11;
    ( 1, 5, 4, 0 ) 0.9999999999429163, 5.708370181088208e-11;
    ( 1, 5, 4, 1 ) 0.9999999993220611, 6.779389581599272e-10;
    ( 1, 5, 5, 0 ) 0.9999999999472696, 5.27304581928013e-11;
    ( 1, 5, 5, 1 ) 0.8031812556752648, 0.1968187443247352;
    ( 1, 5, 6, 0 ) 0.8543519270340745, 0.1456480729659256;
    ( 1, 5, 6, 1 ) 0.9999999999009263, 9.907371315784086e-11;
    ( 1, 5, 7, 0 ) 0.9999999999387145, 6.128561947666725e-11;
    ( 1, 5, 7, 1 ) 0.9999999999385486, 6.145148091330006e-11;
    ( 2, 0, 0, 0 ) 0.5, 0.5;
    ( 2, 0, 0, 1 ) 0.5, 0.5;
    ( 2, 0, 1, 0 ) 0.5, 0.5;
    ( 2, 0, 1, 1 ) 0.5, 0.5;
    ( 2, 0, 2, 0 ) 0.9999999999665009, 3.3499187519587844e-11;
    ( 2, 0, 2, 1 ) 0.5, 0.5;
    ( 2, 0, 3, 0 ) 0.5, 0.5;
    ( 2, 0, 3, 1 ) 0.5, 0.5;
    ( 2, 0, 4, 0 ) 0.5, 0.5;
    ( 2, 0, 4, 1 ) 0.5, 0.5;
    ( 2, 0, 5, 0 ) 0.5, 0.5;
    ( 2, 0, 5, 1 ) 0.5, 0.5;
    ( 2, 0, 6, 0 ) 0.5, 0.5;
    ( 2, 0, 6, 1 ) 0.5, 0.5;
    ( 2, 0, 7, 0 ) 0.5, 0.5;
    ( 2, 0, 7, 1 ) 0.5, 0.5;
    ( 2, 1, 0, 0 ) 0.999999999965795, 3.4204925399447e-11;
    ( 2, 1, 0, 1 ) 0.5, 0.5;
    ( 2, 1, 1, 0 ) 0.9999999999765717, 2.3428255981948807e-11;
    ( 2, 1, 1, 1 ) 0.5, 0.5;
    ( 2, 1, 2, 0 ) 0.5, 0.5;
    ( 2, 1, 2, 1 ) 0.5, 0.5;
    ( 2, 1, 3, 0 ) 0.5, 0.5;
    ( 2, 1, 3, 1 ) 0.5, 0.5;
    ( 2, 1, 4, 0 ) 0.5, 0.5;
    ( 2, 1, 4, 1 ) 0.9999998250770756, 1.7492292439504026e-07;
    ( 2, 1, 5, 0 ) 0.5, 0.5;
    ( 2, 1, 5, 1 ) 0.5, 0.5;
    ( 2, 1, 6, 0 ) 0.5, 0.5;
    ( 2, 1, 6, 1 ) 0.5, 0.5;
    ( 2, 1, 7, 0 ) 0.5, 0.5;
    ( 2, 1, 7, 1 ) 0.999999999949805, 5.019497835339813e-11;
    ( 2, 2, 0, 0 ) 0.9999999999642665, 3.5733440358457934e-11;
    ( 2, 2, 0, 1 ) 0.546894041366592, 0.45310595863340797;
    ( 2, 2, 1, 0 ) 0.9999999999765127, 2.3487335653430576e-11;
    ( 2, 2, 1, 1 ) 0.9999999999692734, 3.072673262531323e-11;
    ( 2, 2, 2, 0 ) 0.011903676184713139, 0.9880963238152869;
    ( 2, 2, 2, 1 ) 0.999999999977666, 2.2334071042394997e-11;
    ( 2, 2, 3, 0 ) 3.191523499240273e-11, 0.9999999999680849;
    ( 2, 2, 3, 1 ) 0.5, 0.5;
    ( 2, 2, 4, 0 ) 0.6756069223956449, 0.32439307760435515;
    ( 2, 2, 4, 1 ) 0.5805238944532317, 0.41947610554676834;
    ( 2, 2, 5, 0 ) 2.6261475274960128e-11, 0.9999999999737386;
    ( 2, 2, 5, 1 ) 0.9999999999278643, 7.213574734139923e-11;
    ( 2, 2, 6, 0 ) 0.5, 0.5;
    ( 2, 2, 6, 1 ) 0.5, 0.5;
    ( 2, 2, 7, 0 ) 0.5, 0.5;
    ( 2, 2, 7, 1 ) 0.9999999999465501, 5.344997679181899e-11;
    ( 2, 3, 0, 0 ) 0.9712394332530992, 0.028760566746900695;
    ( 2, 3, 0, 1 ) 0.00046341231475288707, 0.9995365876852471;
    ( 2, 3, 1, 0 ) 0.368143549616607, 0.631856450383393;
    ( 2, 3, 1, 1 ) 0.5, 0.5;
    ( 2, 3, 2, 0 ) 0.5870169961701031, 0.41298300382989694;
    ( 2, 3, 2, 1 ) 0.032808144467114074, 0.9671918555328859;
    ( 2, 3, 3, 0 ) 0.6235245378784857, 0.3764754621215143;
    ( 2, 3, 3, 1 ) 0.9999999999364061, 6.359388539127117e-11;
    ( 2, 3, 4, 0 ) 0.9999999999634438, 3.655618842432585e-11;
    ( 2, 3, 4, 1 ) 0.5750588535022125, 0.42494114649778736;
    ( 2, 3, 5, 0 ) 0.5825875952759875, 0.41741240472401253;
    ( 2, 3, 5, 1 ) 0.9999999999757722, 2.422788495799726e-11;
    ( 2, 3, 6, 0 ) 0.880104333082636, 0.119895666917364;
    ( 2, 3, 6, 1 ) 0.9999999999485845, 5.1415513701547474e-11;
    ( 2, 3, 7, 0 ) 0.5828805724426002, 0.41711942755739995;
    ( 2, 3, 7, 1 ) 0.8004812814947981, 0.19951871850520186;
    ( 2, 4, 0, 0 ) 0.486255510827606, 0.513744489172394;
    ( 2, 4, 0, 1 ) 0.5, 0.5;
    ( 2, 4, 1, 0 ) 0.6967790071752107, 0.30322099282478937;
    ( 2, 4, 1, 1 ) 0.9999981436093031, 1.8563906969614392e-06;
    ( 2, 4, 2, 0 ) 0.9999999999394097, 6.059029121003399e-11;
    ( 2, 4, 2, 1 ) 0.9999999999503116, 4.9688422804597224e-11;
    ( 2, 4, 3, 0 ) 0.9999999999565947, 4.3405266083065266e-11;
    ( 2, 4, 3, 1 ) 0.8903210159601628, 0.10967898403983724;
    ( 2, 4, 4, 0 ) 0.6804497188898794, 0.31955028111012057;
    ( 2, 4, 4, 1 ) 0.9999999999491438, 5.085620685589586e-11;
    ( 2, 4, 5, 0 ) 0.858480578976512, 0.141519421023488;
    ( 2, 4, 5, 1 ) 0.9999999999478809, 5.2119119246991386e-11;
    ( 2, 4, 6, 0 ) 0.9999999999320819, 6.791817357230947e-11;
    ( 2, 4, 6, 1 ) 0.48758313220056737, 0.5124168677994326;
    ( 2, 4, 7, 0 ) 0.8437325810834237, 0.15626741891657617;
    ( 2, 4, 7, 1 ) 0.8398226450167924, 0.16017735498320754;
    ( 2, 5, 0, 0 ) 0.779486847924157, 0.22051315207584302;
    ( 2, 5, 0, 1 ) 0.9999999999820484, 1.79516168558409e-11;
    ( 2, 5, 1, 0 ) 0.999999999947788, 5.2212036054286874e-11;
    ( 2, 5, 1, 1 ) 0.9999999999522565, 4.774345483824508e-11;
    ( 2, 5, 2, 0 ) 0.9999999999713476, 2.8652358773881356e-11;
    ( 2, 5, 2, 1 ) 0.9999999999323079, 6.769213983918136e-11;
    ( 2, 5, 3, 0 ) 0.999999999932441, 6.755887170849975e-11;
    ( 2, 5, 3, 1 ) 0.4875456931051224, 0.5124543068948777;
    ( 2, 5, 4, 0 ) 0.9999999999478918, 5.210821220538468e-11;
    ( 2, 5, 4, 1 ) 0.7819932906538887, 0.21800670934611133;
    ( 2, 5, 5, 0 ) 0.7581438110188126, 0.24185618898118744;
    ( 2, 5, 5, 1 ) 0.8921386036515113, 0.10786139634848876;
    ( 2, 5, 6, 0 ) 0.6947835912793222, 0.30521640872067773;
    ( 2, 5, 6, 1 ) 0.8311855896940548, 0.1688144103059452;
    ( 2, 5, 7, 0 ) 0.8333693097247876, 0.16663069027521243;
    ( 2, 5, 7, 1 ) 0.9619300291097395, 0.038069970890260534;
    ( 3, 0, 0, 0 ) 0.5, 0.5;
    ( 3, 0, 0, 1 ) 0.5, 0.5;
    ( 3, 0, 1, 0 ) 0.5, 0.5;
    ( 3, 0, 1, 1 ) 0.5, 0.5;
    ( 3, 0, 2, 0 ) 0.5, 0.5;
    ( 3, 0, 2, 1 ) 0.5, 0.5;
    ( 3, 0, 3, 0 ) 0.5, 0.5;
    ( 3, 0, 3, 1 ) 0.5, 0.5;
    ( 3, 0, 4, 0 ) 0.5, 0.5;
    ( 3, 0, 4, 1 ) 0.5, 0.5;
    ( 3, 0, 5, 0 ) 0.5, 0.5;
    ( 3, 0, 5, 1 ) 0.5, 0.5;
    ( 3, 0, 6, 0 ) 0.5, 0.5;
    ( 3, 0, 6, 1 ) 0.5, 0.5;
    ( 3, 0, 7, 0 ) 0.5, 0.5;
    ( 3, 0, 7, 1 ) 0.5, 0.5;
    ( 3, 1, 0, 0 ) 2.6424623971539382e-11, 0.9999999999735754;
    ( 3, 1, 0, 1 ) 0.9999999999743724, 2.562770525430211e-11;
    ( 3, 1, 1, 0 ) 0.5, 0.5;
    ( 3, 1, 1, 1 ) 0.5, 0.5;
    ( 3, 1, 2, 0 ) 0.5, 0.5;
    ( 3, 1, 2, 1 ) 0.999999999969128, 3.087202284944245e-11;
    ( 3, 1, 3, 0 ) 0.9999999999592425, 4.075747795017237e-11;
    ( 3, 1, 3, 1 ) 0.9999999999701574, 2.9842578755021556e-11;
    ( 3, 1, 4, 0 ) 0.9999999999514612, 4.8538853149637824e-11;
    ( 3, 1, 4, 1 ) 0.9999999999619534, 3.8046603354047724e-11;
    ( 3, 1, 5, 0 ) 0.5, 0.5;
    ( 3, 1, 5, 1 ) 0.00019323180990462335, 0.9998067681900954;
    ( 3, 1, 6, 0 ) 0.9999999999564175, 4.358249777043314e-11;
    ( 3, 1, 6, 1 ) 0.9999999940904011, 5.909598937311153e-09;
    ( 3, 1, 7, 0 ) 0.5, 0.5;
    ( 3, 1, 7, 1 ) 0.5, 0.5;
    ( 3, 2, 0, 0 ) 0.8681403125334894, 0.13185968746651058;
    ( 3, 2, 0, 1 ) 0.5, 0.5;
    ( 3, 2, 1, 0 ) 0.5, 0.5;
    ( 3, 2, 1, 1 ) 0.9999999999978856, 2.1144601384723968e-12;
    ( 3, 2, 2, 0 ) 0.5, 0.5;
    ( 3, 2, 2, 1 ) 0.999999999945141, 5.4859001819679606e-11;
    ( 3, 2, 3, 0 ) 0.9999999999628184, 3.718165444747355e-11;
    ( 3, 2, 3, 1 ) 0.5, 0.5;
    ( 3, 2, 4, 0 ) 3.405887823082327e-11, 0.9999999999659411;
    ( 3, 2, 4, 1 ) 0.999999999977803, 2.2196987340049892e-11;
    ( 3, 2, 5, 0 ) 0.5, 0.5;
    ( 3, 2, 5, 1 ) 0.9999999999432077, 5.679239054986515e-11;
    ( 3, 2, 6, 0 ) 0.5, 0.5;
    ( 3, 2, 6, 1 ) 0.9999999999698482, 3.015181873184842e-11;
    ( 3, 2, 7, 0 ) 0.5, 0.5;
    ( 3, 2, 7, 1 ) 3.734602728959116e-13, 0.9999999999996266;
    ( 3, 3, 0, 0 ) 0.29998715130926434, 0.7000128486907357;
    ( 3, 3, 0, 1 ) 0.9999977410452505, 2.258954749497948e-06;
    ( 3, 3, 1, 0 ) 0.35288471774702995, 0.6471152822529701;
    ( 3, 3, 1, 1 ) 0.9999999999510247, 4.897527772716008e-11;
    ( 3, 3, 2, 0 ) 0.020162021115192195, 0.9798379788848078;
    ( 3, 3, 2, 1 ) 0.9999999999629225, 3.7077506602360507e-11;
    ( 3, 3, 3, 0 ) 6.575679009144139e-11, 0.9999999999342432;
    ( 3, 3, 3, 1 ) 0.5752063346439384, 0.4247936653560615;
    ( 3, 3, 4, 0 ) 0.99999972461774, 2.7538225988525087e-07;
    ( 3, 3, 4, 1 ) 0.9999999999456529, 5.434707717965063e-11;
    ( 3, 3, 5, 0 ) 0.9999999444780726, 5.552192745265535e-08;
    ( 3, 3, 5, 1 ) 0.9999999999527623, 4.723766058263395e-11;
    ( 3, 3, 6, 0 ) 0.6003623307247251, 0.3996376692752748;
    ( 3, 3, 6, 1 ) 0.6998696075799381, 0.3001303924200619;
    ( 3, 3, 7, 0 ) 0.7486722444849404, 0.25132775551505954;
    ( 3, 3, 7, 1 ) 0.9999999996667036, 3.332963862670416e-10;
    ( 3, 4, 0, 0 ) 0.2580648223451766, 0.7419351776548234;
    ( 3, 4, 0, 1 ) 0.9999999999549537, 4.5046332240484906e-11;
    ( 3, 4, 1, 0 ) 0.7308523942582974, 0.26914760574170266;
    ( 3, 4, 1, 1 ) 0.9999999999715121, 2.848795524078767e-11;
    ( 3, 4, 2, 0 ) 1.4651583984163464e-06, 0.9999985348416016;
    ( 3, 4, 2, 1 ) 0.997111700504125, 0.0028882994958748876;
    ( 3, 4, 3, 0 ) 0.3262032793998187, 0.6737967206001813;
    ( 3, 4, 3, 1 ) 0.29025781300939774, 0.7097421869906023;
    ( 3, 4, 4, 0 ) 0.653094467597553, 0.34690553240244704;
    ( 3, 4, 4, 1 ) 0.2924496185920336, 0.7075503814079663;
    ( 3, 4, 5, 0 ) 0.639012500742131, 0.360987499257869;
    ( 3, 4, 5, 1 ) 0.7239137017348818, 0.2760862982651182;
    ( 3, 4, 6, 0 ) 0.9999999999411898, 5.881008661766679e-11;
    ( 3, 4, 6, 1 ) 0.4965975137410301, 0.5034024862589699;
    ( 3, 4, 7, 0 ) 0.7790207980972225, 0.22097920190277756;
    ( 3, 4, 7, 1 ) 0.7242809338981807, 0.2757190661018193;
    ( 3, 5, 0, 0 ) 0.9999999999640719, 3.5928077977870625e-11;
    ( 3, 5, 0, 1 ) 0.9999999999814779, 1.852212090058765e-11;
    ( 3, 5, 1, 0 ) 0.999999999979045, 2.0954979182854528e-11;
    ( 3, 5, 1, 1 ) 0.5, 0.5;
    ( 3, 5, 2, 0 ) 0.5, 0.5;
    ( 3, 5, 2, 1 ) 3.9391052404499254e-11, 0.999999999960609;
    ( 3, 5, 3, 0 ) 0.6605676158470609, 0.3394323841529391;
    ( 3, 5, 3, 1 ) 6.523747129039496e-11, 0.9999999999347625;
    ( 3, 5, 4, 0 ) 0.8412864546325319, 0.1587135453674681;
    ( 3, 5, 4, 1 ) 0.999999999969575, 3.0424969041673924e-11;
    ( 3, 5, 5, 0 ) 0.6699487593897338, 0.3300512406102663;
    ( 3, 5, 5, 1 ) 0.3747890798817039, 0.625210920118296;
    ( 3, 5, 6, 0 ) 0.8170021736563298, 0.18299782634367023;
    ( 3, 5, 6, 1 ) 0.26270787841640614, 0.7372921215835938;
    ( 3, 5, 7, 0 ) 0.9218451466997255, 0.07815485330027445;
    ( 3, 5, 7, 1 ) 0.9999999999389373, 6.106273711246926e-11;
    ( 4, 0, 0, 0 ) 0.5, 0.5;
    ( 4, 0, 0, 1 ) 0.5, 0.5;
    ( 4, 0, 1, 0 ) 0.5, 0.5;
    ( 4, 0, 1, 1 ) 0.5, 0.5;
    ( 4, 0, 2, 0 ) 0.5, 0.5;
    ( 4, 0, 2, 1 ) 0.5, 0.5;
    ( 4, 0, 3, 0 ) 0.5, 0.5;
    ( 4, 0, 3, 1 ) 0.9999999999577794, 4.222056472615051e-11;
    ( 4, 0, 4, 0 ) 0.5, 0.5;
    ( 4, 0, 4, 1 ) 0.5, 0.5;
    ( 4, 0, 5, 0 ) 0.5, 0.5;
    ( 4, 0, 5, 1 ) 0.5, 0.5;
    ( 4, 0, 6, 0 ) 0.5, 0.5;
    ( 4, 0, 6, 1 ) 0.5, 0.5;
    ( 4, 0, 7, 0 ) 0.5, 0.5;
    ( 4, 0, 7, 1 ) 0.5, 0.5;
    ( 4, 1, 0, 0 ) 0.6145765771362279, 0.385423422863772;
    ( 4, 1, 0, 1 ) 0.5, 0.5;
    ( 4, 1, 1, 0 ) 6.475013856375791e-12, 0.9999999999935251;
    ( 4, 1, 1, 1 ) 2.4302393212164567e-09, 0.9999999975697608;
    ( 4, 1, 2, 0 ) 0.737003846476442, 0.26299615352355804;
    ( 4, 1, 2, 1 ) 0.9999999999603144, 3.968554443529901e-11;
    ( 4, 1, 3, 0 ) 0.05744841169060961, 0.9425515883093905;
    ( 4, 1, 3, 1 ) 0.9999999999948818, 5.1182532382521214e-12;
    ( 4, 1, 4, 0 ) 1.6256405739166873e-11, 0.9999999999837437;
    ( 4, 1, 4, 1 ) 0.9999999999974284, 2.5716264388725778e-12;
    ( 4, 1, 5, 0 ) 0.9999999999748383, 2.516159594469184e-11;
    ( 4, 1, 5, 1 ) 0.999999999966015, 3.398501655379442e-11;
    ( 4, 1, 6, 0 ) 0.999999999932331, 6.766900767416923e-11;
    ( 4, 1, 6, 1 ) 0.5, 0.5;
    ( 4, 1, 7, 0 ) 0.5, 0.5;
    ( 4, 1, 7, 1 ) 0.9999999999350703, 6.49296958882022e-11;
    ( 4, 2, 0, 0 ) 0.23193612207643258, 0.7680638779235673;
    ( 4, 2, 0, 1 ) 3.0890795775982704e-11, 0.9999999999691092;
    ( 4, 2, 1, 0 ) 4.150608378083754e-11, 0.999999999958494;
    ( 4, 2, 1, 1 ) 1.2572898652561117e-11, 0.9999999999874271;
    ( 4, 2, 2, 0 ) 0.6295269160382163, 0.3704730839617837;
    ( 4, 2, 2, 1 ) 0.9999999999667325, 3.326750097663185e-11;
    ( 4, 2, 3, 0 ) 0.9999943879434402, 5.612056559757403e-06;
    ( 4, 2, 3, 1 ) 3.5552076053785014e-11, 0.999999999964448;
    ( 4, 2, 4, 0 ) 0.9999999987051064, 1.2948936786203075e-09;
    ( 4, 2, 4, 1 ) 0.22360455611881894, 0.7763954438811811;
    ( 4, 2, 5, 0 ) 0.0009080016342164966, 0.9990919983657834;
    ( 4, 2, 5, 1 ) 0.9999999999761666, 2.383344885564541e-11;
    ( 4, 2, 6, 0 ) 0.5, 0.5;
    ( 4, 2, 6, 1 ) 0.4035446552288367, 0.5964553447711634;
    ( 4, 2, 7, 0 ) 0.4804486065058171, 0.519551393494183;
    ( 4, 2, 7, 1 ) 0.9999999999528163, 4.718367296482485e-11;
    ( 4, 3, 0, 0 ) 0.4223221093217194, 0.5776778906782806;
    ( 4, 3, 0, 1 ) 0.38952201552553556, 0.6104779844744646;
    ( 4, 3, 1, 0 ) 0.5605992356243679, 0.43940076437563214;
    ( 4, 3, 1, 1 ) 0.9914558580868266, 0.008544141913173403;
    ( 4, 3, 2, 0 ) 0.174477499595896, 0.825522500404104;
    ( 4, 3, 2, 1 ) 0.9999999754946562, 2.4505343693276556e-08;
    ( 4, 3, 3, 0 ) 0.47635415681342325, 0.5236458431865768;
    ( 4, 3, 3, 1 ) 0.6128707923765563, 0.38712920762344377;
    ( 4, 3, 4, 0 ) 0.2193680995778842, 0.7806319004221158;
    ( 4, 3, 4, 1 ) 0.24711446434967516, 0.7528855356503248;
    ( 4, 3, 5, 0 ) 6.683915873667358e-11, 0.9999999999331608;
    ( 4, 3, 5, 1 ) 0.8871635022627398, 0.11283649773726023;
    ( 4, 3, 6, 0 ) 0.5007092501671826, 0.49929074983281735;
    ( 4, 3, 6, 1 ) 0.2029384260327857, 0.7970615739672142;
    ( 4, 3, 7, 0 ) 0.7281975313688036, 0.27180246863119634;
    ( 4, 3, 7, 1 ) 0.6272705790595038, 0.3727294209404962;
    ( 4, 4, 0, 0 ) 1.7826599722165106e-05, 0.9999821734002777;
    ( 4, 4, 0, 1 ) 0.5437719740964286, 0.4562280259035713;
    ( 4, 4, 1, 0 ) 0.710745246362189, 0.2892547536378109;
    ( 4, 4, 1, 1 ) 0.9999999999479445, 5.205542723518528e-11;
    ( 4, 4, 2, 0 ) 0.8961044531346013, 0.10389554686539859;
    ( 4, 4, 2, 1 ) 0.44713356517823505, 0.5528664348217649;
    ( 4, 4, 3, 0 ) 7.910066613703473e-11, 0.9999999999208994;
    ( 4, 4, 3, 1 ) 0.9999999999629974, 3.7002564434987215e-11;
    ( 4, 4, 4, 0 ) 0.39133168638785576, 0.6086683136121444;
    ( 4, 4, 4, 1 ) 0.4505234711803668, 0.5494765288196332;
    ( 4, 4, 5, 0 ) 0.5057824186893346, 0.49421758131066534;
    ( 4, 4, 5, 1 ) 0.6596513026288268, 0.3403486973711733;
    ( 4, 4, 6, 0 ) 0.9958023854780821, 0.004197614521917942;
    ( 4, 4, 6, 1 ) 0.691899238739592, 0.308100761260408;
    ( 4, 4, 7, 0 ) 0.8038333443897321, 0.19616665561026791;
    ( 4, 4, 7, 1 ) 0.8925514093354138, 0.10744859066458616;
    ( 4, 5, 0, 0 ) 0.508118145591816, 0.49188185440818394;
    ( 4, 5, 0, 1 ) 0.9999999999772384, 2.2761601125018163e-11;
    ( 4, 5, 1, 0 ) 0.9999999999689289, 3.1071072535198426e-11;
    ( 4, 5, 1, 1 ) 0.5, 0.5;
    ( 4, 5, 2, 0 ) 0.6647439013416045, 0.33525609865839545;
    ( 4, 5, 2, 1 ) 0.9999999999731639, 2.6836130669005323e-11;
    ( 4, 5, 3, 0 ) 0.5513854074536015, 0.4486145925463985;
    ( 4, 5, 3, 1 ) 0.9999999999738206, 2.6179396860313827e-11;
    ( 4, 5, 4, 0 ) 0.4372259615588163, 0.5627740384411837;
    ( 4, 5, 4, 1 ) 0.9999999999551369, 4.486316382916586e-11;
    ( 4, 5, 5, 0 ) 0.7575938407512935, 0.24240615924870654;
    ( 4, 5, 5, 1 ) 0.7015339336262703, 0.2984660663737298;
    ( 4, 5, 6, 0 ) 0.836150714063489, 0.16384928593651102;
    ( 4, 5, 6, 1 ) 0.999135146393762, 0.0008648536062380172;
    ( 4, 5, 7, 0 ) 0.8050356118247837, 0.19496438817521633;
    ( 4, 5, 7, 1 ) 0.8027504207459495, 0.19724957925405054;
    ( 5, 0, 0, 0 ) 0.5, 0.5;
    ( 5, 0, 0, 1 ) 0.5, 0.5;
    ( 5, 0, 1, 0 ) 0.5, 0.5;
    ( 5, 0, 1, 1 ) 0.5, 0.5;
    ( 5, 0, 2, 0 ) 0.5, 0.5;
    ( 5, 0, 2, 1 ) 0.5, 0.5;
    ( 5, 0, 3, 0 ) 0.5, 0.5;
    ( 5, 0, 3, 1 ) 0.5, 0.5;
    ( 5, 0, 4, 0 ) 0.5, 0.5;
    ( 5, 0, 4, 1 ) 0.5, 0.5;
    ( 5, 0, 5, 0 ) 0.5, 0.5;
    ( 5, 0, 5, 1 ) 0.5, 0.5;
    ( 5, 0, 6, 0 ) 0.5, 0.5;
    ( 5, 0, 6, 1 ) 0.5, 0.5;
    ( 5, 0, 7, 0 ) 0.5, 0.5;
    ( 5, 0, 7, 1 ) 0.5, 0.5;
    ( 5, 1, 0, 0 ) 3.539461142261061e-11, 0.9999999999646054;
    ( 5, 1, 0, 1 ) 2.3510765884932092e-11, 0.9999999999764893;
    ( 5, 1, 1, 0 ) 0.9999999643147807, 3.5685219411047724e-08;
    ( 5, 1, 1, 1 ) 5.401557355373636e-11, 0.9999999999459843;
    ( 5, 1, 2, 0 ) 0.3862467845167799, 0.61375321548322;
    ( 5, 1, 2, 1 ) 0.99999943795308, 5.620469199468932e-07;
    ( 5, 1, 3, 0 ) 0.5, 0.5;
    ( 5, 1, 3, 1 ) 0.9999999999850573, 1.4942689040964278e-11;
    ( 5, 1, 4, 0 ) 0.5, 0.5;
    ( 5, 1, 4, 1 ) 0.9999999999819329, 1.8067110285686636e-11;
    ( 5, 1, 5, 0 ) 0.5, 0.5;
    ( 5, 1, 5, 1 ) 0.5, 0.5;
    ( 5, 1, 6, 0 ) 0.5, 0.5;
    ( 5, 1, 6, 1 ) 0.9999999999567605, 4.3239510566828215e-11;
    ( 5, 1, 7, 0 ) 0.5, 0.5;
    ( 5, 1, 7, 1 ) 0.9999999999539477, 4.605229152923935e-11;
    ( 5, 2, 0, 0 ) 0.27726924672117775, 0.7227307532788222;
    ( 5, 2, 0, 1 ) 2.028009396154872e-11, 0.99999999997972;
    ( 5, 2, 1, 0 ) 3.8263386066316875e-11, 0.9999999999617366;
    ( 5, 2, 1, 1 ) 0.3155380936322537, 0.6844619063677464;
    ( 5, 2, 2, 0 ) 0.30436611805522323, 0.6956338819447768;
    ( 5, 2, 2, 1 ) 0.9999999999882612, 1.1738733588159537e-11;
    ( 5, 2, 3, 0 ) 2.963854864578438e-11, 0.9999999999703615;
    ( 5, 2, 3, 1 ) 3.865286536789667e-11, 0.999999999961347;
    ( 5, 2, 4, 0 ) 6.335092391077314e-13, 0.9999999999993664;
    ( 5, 2, 4, 1 ) 0.9999999999451965, 5.4803497781500956e-11;
    ( 5, 2, 5, 0 ) 3.1150301687251783e-11, 0.9999999999688498;
    ( 5, 2, 5, 1 ) 0.6769401353809786, 0.3230598646190214;
    ( 5, 2, 6, 0 ) 0.9999999999657619, 3.423812392232794e-11;
    ( 5, 2, 6, 1 ) 0.01581206079064782, 0.9841879392093521;
    ( 5, 2, 7, 0 ) 8.536799122276194e-12, 0.9999999999914633;
    ( 5, 2, 7, 1 ) 0.9999999999662225, 3.377752187777255e-11;
    ( 5, 3, 0, 0 ) 0.3008976201985135, 0.6991023798014865;
    ( 5, 3, 0, 1 ) 0.413412781904244, 0.5865872180957559;
    ( 5, 3, 1, 0 ) 0.05226312518278871, 0.9477368748172113;
    ( 5, 3, 1, 1 ) 4.13240925674921e-11, 0.9999999999586758;
    ( 5, 3, 2, 0 ) 0.048107638572880494, 0.9518923614271195;
    ( 5, 3, 2, 1 ) 0.5934254133055814, 0.4065745866944186;
    ( 5, 3, 3, 0 ) 0.09376743547752113, 0.9062325645224789;
    ( 5, 3, 3, 1 ) 0.2644266738738555, 0.7355733261261445;
    ( 5, 3, 4, 0 ) 0.15986717487606636, 0.8401328251239337;
    ( 5, 3, 4, 1 ) 0.1939172632189689, 0.806082736781031;
    ( 5, 3, 5, 0 ) 0.22102123039945237, 0.7789787696005476;
    ( 5, 3, 5, 1 ) 0.7758601314122923, 0.22413986858770768;
    ( 5, 3, 6, 0 ) 0.6400179411357775, 0.35998205886422247;
    ( 5, 3, 6, 1 ) 0.536620776308127, 0.46337922369187307;
    ( 5, 3, 7, 0 ) 0.8554001265175502, 0.1445998734824498;
    ( 5, 3, 7, 1 ) 0.8876896499195764, 0.11231035008042352;
    ( 5, 4, 0, 0 ) 0.273128502165034, 0.7268714978349661;
    ( 5, 4, 0, 1 ) 0.6223939695384472, 0.3776060304615527;
    ( 5, 4, 1, 0 ) 4.404258829060517e-11, 0.9999999999559573;
    ( 5, 4, 1, 1 ) 0.5140358800319565, 0.48596411996804334;
    ( 5, 4, 2, 0 ) 0.034612455753482985, 0.9653875442465171;
    ( 5, 4, 2, 1 ) 0.6097997967689813, 0.3902002032310186;
    ( 5, 4, 3, 0 ) 0.2662406731406152, 0.7337593268593848;
    ( 5, 4, 3, 1 ) 1.0973150510857938e-06, 0.9999989026849488;
    ( 5, 4, 4, 0 ) 0.3763655790812482, 0.6236344209187518;
    ( 5, 4, 4, 1 ) 0.6941985513770267, 0.30580144862297337;
    ( 5, 4, 5, 0 ) 0.3132741425274216, 0.6867258574725783;
    ( 5, 4, 5, 1 ) 0.7017288332857112, 0.29827116671428877;
    ( 5, 4, 6, 0 ) 0.7282331358682319, 0.2717668641317682;
    ( 5, 4, 6, 1 ) 0.41253078260156567, 0.5874692173984343;
    ( 5, 4, 7, 0 ) 0.7435963244241273, 0.2564036755758727;
    ( 5, 4, 7, 1 ) 0.5750837427456332, 0.42491625725436677;
    ( 5, 5, 0, 0 ) 0.5826636179558141, 0.41733638204418577;
    ( 5, 5, 0, 1 ) 0.5, 0.5;
    ( 5, 5, 1, 0 ) 0.7428823221220779, 0.25711767787792217;
    ( 5, 5, 1, 1 ) 0.00025627976968181003, 0.9997437202303182;
    ( 5, 5, 2, 0 ) 2.6558697284202107e-05, 0.9999734413027158;
    ( 5, 5, 2, 1 ) 0.020078095442757557, 0.9799219045572425;
    ( 5, 5, 3, 0 ) 0.5362334091294754, 0.46376659087052463;
    ( 5, 5, 3, 1 ) 0.14670982181212636, 0.8532901781878737;
    ( 5, 5, 4, 0 ) 0.8859664011388763, 0.11403359886112377;
    ( 5, 5, 4, 1 ) 0.9999999999401226, 5.987742391385243e-11;
    ( 5, 5, 5, 0 ) 0.9999999999264492, 7.355084563197877e-11;
    ( 5, 5, 5, 1 ) 0.10919397405794469, 0.8908060259420553;
    ( 5, 5, 6, 0 ) 0.6395096423008474, 0.3604903576991525;
    ( 5, 5, 6, 1 ) 0.832259126930722, 0.16774087306927798;
    ( 5, 5, 7, 0 ) 0.869449608461902, 0.13055039153809794;
    ( 5, 5, 7, 1 ) 0.7213909813020604, 0.27860901869793964;
    ( 6, 0, 0, 0 ) 0.5, 0.5;
    ( 6, 0, 0, 1 ) 0.9999999999780652, 2.19348946602365e-11;
    ( 6, 0, 1, 0 ) 0.5, 0.5;
    ( 6, 0, 1, 1 ) 0.5, 0.5;
    ( 6, 0, 2, 0 ) 0.5, 0.5;
    ( 6, 0, 2, 1 ) 0.9999999999739517, 2.604827869532255e-11;
    ( 6, 0, 3, 0 ) 0.5, 0.5;
    ( 6, 0, 3, 1 ) 0.5, 0.5;
    ( 6, 0, 4, 0 ) 0.5, 0.5;
    ( 6, 0, 4, 1 ) 2.1915893336907585e-11, 0.9999999999780841;
    ( 6, 0, 5, 0 ) 0.5, 0.5;
    ( 6, 0, 5, 1 ) 0.5, 0.5;
    ( 6, 0, 6, 0 ) 0.5, 0.5;
    ( 6, 0, 6, 1 ) 0.5, 0.5;
    ( 6, 0, 7, 0 ) 0.5, 0.5;
    ( 6, 0, 7, 1 ) 0.5, 0.5;
    ( 6, 1, 0, 0 ) 3.19187938741283e-11, 0.9999999999680812;
    ( 6, 1, 0, 1 ) 0.18349040581411571, 0.8165095941858843;
    ( 6, 1, 1, 0 ) 0.9818568485906042, 0.018143151409395836;
    ( 6, 1, 1, 1 ) 4.1719062745078e-11, 0.9999999999582809;
    ( 6, 1, 2, 0 ) 0.5609172424877463, 0.43908275751225356;
    ( 6, 1, 2, 1 ) 0.9999999999780265, 2.1973501125284415e-11;
    ( 6, 1, 3, 0 ) 0.557764352037971, 0.44223564796202885;
    ( 6, 1, 3, 1 ) 0.058839925074133236, 0.9411600749258667;
    ( 6, 1, 4, 0 ) 0.9999999999538169, 4.618301423405987e-11;
    ( 6, 1, 4, 1 ) 0.9999999999541136, 4.588637022714952e-11;
    ( 6, 1, 5, 0 ) 0.24638614366337783, 0.7536138563366221;
    ( 6, 1, 5, 1 ) 0.32495728255927125, 0.6750427174407287;
    ( 6, 1, 6, 0 ) 0.5, 0.5;
    ( 6, 1, 6, 1 ) 2.6030379006566142e-11, 0.9999999999739696;
    ( 6, 1, 7, 0 ) 0.5, 0.5;
    ( 6, 1, 7, 1 ) 0.9999999999745119, 2.5488081972484485e-11;
    ( 6, 2, 0, 0 ) 0.13145710142813244, 0.8685428985718675;
    ( 6, 2, 0, 1 ) 0.5947816221258528, 0.40521837787414716;
    ( 6, 2, 1, 0 ) 0.05767335843801392, 0.942326641561986;
    ( 6, 2, 1, 1 ) 0.5270347327737714, 0.4729652672262286;
    ( 6, 2, 2, 0 ) 0.25005922576279666, 0.7499407742372033;
    ( 6, 2, 2, 1 ) 3.565377704450823e-11, 0.9999999999643462;
    ( 6, 2, 3, 0 ) 0.48956204705796647, 0.5104379529420335;
    ( 6, 2, 3, 1 ) 4.018416784123499e-11, 0.9999999999598158;
    ( 6, 2, 4, 0 ) 7.188065961873501e-11, 0.9999999999281193;
    ( 6, 2, 4, 1 ) 0.33535580268912185, 0.6646441973108782;
    ( 6, 2, 5, 0 ) 1.922268632252763e-06, 0.9999980777313677;
    ( 6, 2, 5, 1 ) 0.47483332511836723, 0.5251666748816328;
    ( 6, 2, 6, 0 ) 0.9196502901983368, 0.08034970980166314;
    ( 6, 2, 6, 1 ) 0.9999999999497362, 5.026378395584912e-11;
    ( 6, 2, 7, 0 ) 0.999999999942539, 5.746111548643225e-11;
    ( 6, 2, 7, 1 ) 0.999999999927921, 7.207910157581245e-11;
    ( 6, 3, 0, 0 ) 0.16409779012273248, 0.8359022098772675;
    ( 6, 3, 0, 1 ) 0.2394082075182054, 0.7605917924817945;
    ( 6, 3, 1, 0 ) 0.05118315418558742, 0.9488168458144125;
    ( 6, 3, 1, 1 ) 0.18175943715425572, 0.8182405628457443;
    ( 6, 3, 2, 0 ) 0.2870563961734169, 0.7129436038265831;
    ( 6, 3, 2, 1 ) 0.2483850822815247, 0.7516149177184753;
    ( 6, 3, 3, 0 ) 7.520243698026122e-11, 0.9999999999247976;
    ( 6, 3, 3, 1 ) 0.7944727361511217, 0.20552726384887837;
    ( 6, 3, 4, 0 ) 0.29739484440515634, 0.7026051555948437;
    ( 6, 3, 4, 1 ) 0.36512081000187147, 0.6348791899981285;
    ( 6, 3, 5, 0 ) 0.17036545021132118, 0.8296345497886789;
    ( 6, 3, 5, 1 ) 0.5099373834972858, 0.49006261650271415;
    ( 6, 3, 6, 0 ) 0.3585791587692104, 0.6414208412307896;
    ( 6, 3, 6, 1 ) 0.40851772847239876, 0.5914822715276012;
    ( 6, 3, 7, 0 ) 0.3060647618408251, 0.6939352381591748;
    ( 6, 3, 7, 1 ) 0.5931682969603036, 0.40683170303969635;
    ( 6, 4, 0, 0 ) 0.2207280685527935, 0.7792719314472065;
    ( 6, 4, 0, 1 ) 0.9979485278825372, 0.0020514721174628553;
    ( 6, 4, 1, 0 ) 0.533999996791165, 0.4660000032088349;
    ( 6, 4, 1, 1 ) 0.3614144657994192, 0.6385855342005808;
    ( 6, 4, 2, 0 ) 0.2832136553337449, 0.7167863446662552;
    ( 6, 4, 2, 1 ) 0.46489693703729734, 0.5351030629627026;
    ( 6, 4, 3, 0 ) 0.4017993131851254, 0.5982006868148747;
    ( 6, 4, 3, 1 ) 0.5581068322327136, 0.4418931677672864;
    ( 6, 4, 4, 0 ) 0.3005538119593059, 0.6994461880406941;
    ( 6, 4, 4, 1 ) 0.2509312312129515, 0.7490687687870484;
    ( 6, 4, 5, 0 ) 0.5918407922742737, 0.4081592077257264;
    ( 6, 4, 5, 1 ) 0.7439428951034123, 0.25605710489658773;
    ( 6, 4, 6, 0 ) 0.3189236720947487, 0.6810763279052513;
    ( 6, 4, 6, 1 ) 0.25026429246986137, 0.7497357075301386;
    ( 6, 4, 7, 0 ) 0.3681920905764325, 0.6318079094235675;
    ( 6, 4, 7, 1 ) 0.6549930990009014, 0.3450069009990986;
    ( 6, 5, 0, 0 ) 0.4161683161527473, 0.5838316838472527;
    ( 6, 5, 0, 1 ) 0.34172901486357715, 0.6582709851364228;
    ( 6, 5, 1, 0 ) 0.14837980776338003, 0.85162019223662;
    ( 6, 5, 1, 1 ) 0.00175921311861125, 0.9982407868813888;
    ( 6, 5, 2, 0 ) 0.20658580107200547, 0.7934141989279946;
    ( 6, 5, 2, 1 ) 0.503448938016326, 0.4965510619836741;
    ( 6, 5, 3, 0 ) 0.44160215467440916, 0.5583978453255908;
    ( 6, 5, 3, 1 ) 0.48458253222039743, 0.5154174677796025;
    ( 6, 5, 4, 0 ) 0.17063334880292114, 0.8293666511970789;
    ( 6, 5, 4, 1 ) 0.9538091902578373, 0.04619080974216267;
    ( 6, 5, 5, 0 ) 0.6137150779561238, 0.38628492204387627;
    ( 6, 5, 5, 1 ) 0.511410776266862, 0.48858922373313796;
    ( 6, 5, 6, 0 ) 0.5985025161157155, 0.40149748388428447;
    ( 6, 5, 6, 1 ) 0.42957230211158326, 0.5704276978884167;
    ( 6, 5, 7, 0 ) 0.687668816424017, 0.3123311835759829;
    ( 6, 5, 7, 1 ) 0.3970458127318482, 0.6029541872681519;
    ( 7, 0, 0, 0 ) 3.9256557640097844e-11, 0.9999999999607435;
    ( 7, 0, 0, 1 ) 0.5, 0.5;
    ( 7, 0, 1, 0 ) 0.5, 0.5;
    ( 7, 0, 1, 1 ) 0.5, 0.5;
    ( 7, 0, 2, 0 ) 0.5, 0.5;
    ( 7, 0, 2, 1 ) 0.5, 0.5;
    ( 7, 0, 3, 0 ) 0.5, 0.5;
    ( 7, 0, 3, 1 ) 0.5, 0.5;
    ( 7, 0, 4, 0 ) 0.5, 0.5;
    ( 7, 0, 4, 1 ) 0.5, 0.5;
    ( 7, 0, 5, 0 ) 0.5, 0.5;
    ( 7, 0, 5, 1 ) 0.5, 0.5;
    ( 7, 0, 6, 0 ) 0.5, 0.5;
    ( 7, 0, 6, 1 ) 0.5, 0.5;
    ( 7, 0, 7, 0 ) 0.5, 0.5;
    ( 7, 0, 7, 1 ) 5.693139326073424e-11, 0.9999999999430687;
    ( 7, 1, 0, 0 ) 0.0015767403857742553, 0.9984232596142258;
    ( 7, 1, 0, 1 ) 0.9999999999790258, 2.0974184073302495e-11;
    ( 7, 1, 1, 0 ) 0.13106027603919185, 0.8689397239608082;
    ( 7, 1, 1, 1 ) 3.3463285685612505e-11, 0.9999999999665367;
    ( 7, 1, 2, 0 ) 0.00036263108409747614, 0.9996373689159025;
    ( 7, 1, 2, 1 ) 0.5814613214130355, 0.41853867858696453;
    ( 7, 1, 3, 0 ) 3.744696803058304e-11, 0.9999999999625531;
    ( 7, 1, 3, 1 ) 0.9999999999877586, 1.2241452987619515e-11;
    ( 7, 1, 4, 0 ) 0.7100788566806744, 0.2899211433193257;
    ( 7, 1, 4, 1 ) 0.12081106314595691, 0.8791889368540432;
    ( 7, 1, 5, 0 ) 0.9999999999613827, 3.861737582382651e-11;
    ( 7, 1, 5, 1 ) 7.176631746678795e-11, 0.9999999999282336;
    ( 7, 1, 6, 0 ) 0.804535713657302, 0.19546428634269802;
    ( 7, 1, 6, 1 ) 0.9999999999586725, 4.1327494940903706e-11;
    ( 7, 1, 7, 0 ) 0.5, 0.5;
    ( 7, 1, 7, 1 ) 0.5, 0.5;
    ( 7, 2, 0, 0 ) 5.929796683094067e-11, 0.999999999940702;
    ( 7, 2, 0, 1 ) 0.49423131348501825, 0.5057686865149817;
    ( 7, 2, 1, 0 ) 0.07359765340659145, 0.9264023465934086;
    ( 7, 2, 1, 1 ) 0.0007637880612058613, 0.9992362119387942;
    ( 7, 2, 2, 0 ) 0.2757441147686134, 0.7242558852313865;
    ( 7, 2, 2, 1 ) 2.3895407354018294e-11, 0.9999999999761046;
    ( 7, 2, 3, 0 ) 5.359227458479392e-06, 0.9999946407725415;
    ( 7, 2, 3, 1 ) 0.012763479184173716, 0.9872365208158262;
    ( 7, 2, 4, 0 ) 0.4474491619950597, 0.5525508380049403;
    ( 7, 2, 4, 1 ) 0.5951216315073266, 0.4048783684926735;
    ( 7, 2, 5, 0 ) 0.9999999999805886, 1.9411349837847634e-11;
    ( 7, 2, 5, 1 ) 0.3995247927708585, 0.6004752072291415;
    ( 7, 2, 6, 0 ) 4.399864272391597e-11, 0.9999999999560014;
    ( 7, 2, 6, 1 ) 0.26458901144675456, 0.7354109885532455;
    ( 7, 2, 7, 0 ) 0.24788170057913325, 0.7521182994208667;
    ( 7, 2, 7, 1 ) 0.005824434359836939, 0.9941755656401631;
    ( 7, 3, 0, 0 ) 0.1375977771066659, 0.862402222893334;
    ( 7, 3, 0, 1 ) 0.16533434410063225, 0.8346656558993677;
    ( 7, 3, 1, 0 ) 0.24024973089376947, 0.7597502691062306;
    ( 7, 3, 1, 1 ) 0.23995219851698418, 0.7600478014830158;
    ( 7, 3, 2, 0 ) 0.08724285210805321, 0.9127571478919468;
    ( 7, 3, 2, 1 ) 0.10863389403382473, 0.8913661059661753;
    ( 7, 3, 3, 0 ) 0.11000519007924985, 0.8899948099207502;
    ( 7, 3, 3, 1 ) 0.47125903305809425, 0.5287409669419056;
    ( 7, 3, 4, 0 ) 0.26207991250661355, 0.7379200874933864;
    ( 7, 3, 4, 1 ) 0.7264060823653274, 0.27359391763467245;
    ( 7, 3, 5, 0 ) 0.43500221814641854, 0.5649977818535814;
    ( 7, 3, 5, 1 ) 0.4387101091793251, 0.5612898908206748;
    ( 7, 3, 6, 0 ) 0.5204678092984327, 0.4795321907015673;
    ( 7, 3, 6, 1 ) 0.45705458309969277, 0.5429454169003073;
    ( 7, 3, 7, 0 ) 0.621340572572876, 0.378659427427124;
    ( 7, 3, 7, 1 ) 0.4651206228683374, 0.5348793771316626;
    ( 7, 4, 0, 0 ) 6.6579882171013e-11, 0.9999999999334201;
    ( 7, 4, 0, 1 ) 0.698767398225711, 0.30123260177428907;
    ( 7, 4, 1, 0 ) 0.07935179928906136, 0.9206482007109386;
    ( 7, 4, 1, 1 ) 0.3111384111563241, 0.6888615888436759;
    ( 7, 4, 2, 0 ) 0.15053800850749582, 0.8494619914925041;
    ( 7, 4, 2, 1 ) 0.5446195291650141, 0.45538047083498584;
    ( 7, 4, 3, 0 ) 0.6856588579842801, 0.31434114201572;
    ( 7, 4, 3, 1 ) 0.2969436562119517, 0.7030563437880483;
    ( 7, 4, 4, 0 ) 0.05672360827689718, 0.9432763917231028;
    ( 7, 4, 4, 1 ) 0.1266610696252252, 0.8733389303747748;
    ( 7, 4, 5, 0 ) 0.29940525924200423, 0.7005947407579958;
    ( 7, 4, 5, 1 ) 0.38324138781231903, 0.6167586121876809;
    ( 7, 4, 6, 0 ) 0.5014796194794618, 0.49852038052053815;
    ( 7, 4, 6, 1 ) 0.5153892790802721, 0.48461072091972784;
    ( 7, 4, 7, 0 ) 0.5391351483927957, 0.46086485160720425;
    ( 7, 4, 7, 1 ) 0.3944158708795155, 0.6055841291204844;
    ( 7, 5, 0, 0 ) 0.42208977815478527, 0.5779102218452147;
    ( 7, 5, 0, 1 ) 0.9999999999763924, 2.3607612109984113e-11;
    ( 7, 5, 1, 0 ) 0.5833707213373076, 0.4166292786626924;
    ( 7, 5, 1, 1 ) 0.6938544957451568, 0.30614550425484327;
    ( 7, 5, 2, 0 ) 0.47429896387225495, 0.525701036127745;
    ( 7, 5, 2, 1 ) 1.6361501629276766e-06, 0.9999983638498371;
    ( 7, 5, 3, 0 ) 0.7362676080267208, 0.26373239197327936;
    ( 7, 5, 3, 1 ) 0.8531405977047662, 0.14685940229523378;
    ( 7, 5, 4, 0 ) 0.03673651321652677, 0.9632634867834732;
    ( 7, 5, 4, 1 ) 0.4003231000102375, 0.5996768999897625;
    ( 7, 5, 5, 0 ) 0.584864343096185, 0.41513565690381515;
    ( 7, 5, 5, 1 ) 0.39246202828338594, 0.6075379717166141;
    ( 7, 5, 6, 0 ) 0.5132694812977673, 0.4867305187022328;
    ( 7, 5, 6, 1 ) 0.5973132417615014, 0.4026867582384987;
    ( 7, 5, 7, 0 ) 0.5566005523352451, 0.4433994476647548;
    ( 7, 5, 7, 1 ) 0.4812030431465281, 0.5187969568534718;
    ( 8, 0, 0, 0 ) 0.5, 0.5;
    ( 8, 0, 0, 1 ) 0.5, 0.5;
    ( 8, 0, 1, 0 ) 0.5, 0.5;
    ( 8, 0, 1, 1 ) 0.9999999999841837, 1.581645348103475e-11;
    ( 8, 0, 2, 0 ) 1.0191226021840566e-11, 0.9999999999898088;
    ( 8, 0, 2, 1 ) 0.5, 0.5;
    ( 8, 0, 3, 0 ) 0.5, 0.5;
    ( 8, 0, 3, 1 ) 0.5, 0.5;
    ( 8, 0, 4, 0 ) 0.5, 0.5;
    ( 8, 0, 4, 1 ) 0.5, 0.5;
    ( 8, 0, 5, 0 ) 0.5, 0.5;
    ( 8, 0, 5, 1 ) 0.5, 0.5;
    ( 8, 0, 6, 0 ) 0.5, 0.5;
    ( 8, 0, 6, 1 ) 0.5, 0.5;
    ( 8, 0, 7, 0 ) 0.5, 0.5;
    ( 8, 0, 7, 1 ) 0.5, 0.5;
    ( 8, 1, 0, 0 ) 0.15032767977666617, 0.8496723202233338;
    ( 8, 1, 0, 1 ) 0.46119486244006597, 0.538805137559934;
    ( 8, 1, 1, 0 ) 0.457528590360513, 0.542471409639487;
    ( 8, 1, 1, 1 ) 1.5576070047665523e-11, 0.9999999999844239;
    ( 8, 1, 2, 0 ) 3.0559205561174846e-11, 0.9999999999694408;
    ( 8, 1, 2, 1 ) 3.608555167389348e-11, 0.9999999999639145;
    ( 8, 1, 3, 0 ) 3.097623866518352e-11, 0.9999999999690238;
    ( 8, 1, 3, 1 ) 0.6554934390192092, 0.34450656098079085;
    ( 8, 1, 4, 0 ) 2.741231602894405e-11, 0.9999999999725877;
    ( 8, 1, 4, 1 ) 1.9513469529537516e-11, 0.9999999999804866;
    ( 8, 1, 5, 0 ) 0.5, 0.5;
    ( 8, 1, 5, 1 ) 0.5, 0.5;
    ( 8, 1, 6, 0 ) 0.5, 0.5;
    ( 8, 1, 6, 1 ) 0.5, 0.5;
    ( 8, 1, 7, 0 ) 0.9999999968634568, 3.136543298289065e-09;
    ( 8, 1, 7, 1 ) 0.5, 0.5;
    ( 8, 2, 0, 0 ) 0.13857310122592306, 0.861426898774077;
    ( 8, 2, 0, 1 ) 0.40079480668371387, 0.5992051933162862;
    ( 8, 2, 1, 0 ) 4.022001761725644e-11, 0.99999999995978;
    ( 8, 2, 1, 1 ) 0.19733355748563916, 0.8026664425143608;
    ( 8, 2, 2, 0 ) 8.988003337565249e-11, 0.9999999999101199;
    ( 8, 2, 2, 1 ) 0.4855796855068007, 0.5144203144931992;
    ( 8, 2, 3, 0 ) 0.5255106856794202, 0.4744893143205798;
    ( 8, 2, 3, 1 ) 0.12352009800753208, 0.876479901992468;
    ( 8, 2, 4, 0 ) 0.1437336602453134, 0.8562663397546867;
    ( 8, 2, 4, 1 ) 0.20505562304415506, 0.794944376955845;
    ( 8, 2, 5, 0 ) 0.38629907515221745, 0.6137009248477826;
    ( 8, 2, 5, 1 ) 0.43980775491755936, 0.5601922450824406;
    ( 8, 2, 6, 0 ) 0.20960416135590482, 0.7903958386440951;
    ( 8, 2, 6, 1 ) 3.7064186758018444e-11, 0.9999999999629358;
    ( 8, 2, 7, 0 ) 5.654051647627764e-13, 0.9999999999994346;
    ( 8, 2, 7, 1 ) 0.3096887923819986, 0.6903112076180015;
    ( 8, 3, 0, 0 ) 0.1906501511011194, 0.8093498488988806;
    ( 8, 3, 0, 1 ) 0.21218100707982596, 0.7878189929201741;
    ( 8, 3, 1, 0 ) 0.1425414173821604, 0.8574585826178396;
    ( 8, 3, 1, 1 ) 0.25238721987071594, 0.747612780129284;
    ( 8, 3, 2, 0 ) 0.2792009520087253, 0.7207990479912747;
    ( 8, 3, 2, 1 ) 0.21630126506433256, 0.7836987349356676;
    ( 8, 3, 3, 0 ) 0.17576278609106313, 0.8242372139089369;
    ( 8, 3, 3, 1 ) 0.2694425596124563, 0.7305574403875437;
    ( 8, 3, 4, 0 ) 0.37732070354131514, 0.6226792964586849;
    ( 8, 3, 4, 1 ) 0.03383064362499366, 0.9661693563750063;
    ( 8, 3, 5, 0 ) 0.1896850462644627, 0.8103149537355373;
    ( 8, 3, 5, 1 ) 0.2876217845626964, 0.7123782154373036;
    ( 8, 3, 6, 0 ) 0.30596402347895263, 0.6940359765210474;
    ( 8, 3, 6, 1 ) 0.4003611566439056, 0.5996388433560944;
    ( 8, 3, 7, 0 ) 0.6281687304612648, 0.37183126953873524;
    ( 8, 3, 7, 1 ) 0.5230687661328768, 0.4769312338671232;
    ( 8, 4, 0, 0 ) 0.2470690706451153, 0.7529309293548847;
    ( 8, 4, 0, 1 ) 0.4651999946806427, 0.5348000053193573;
    ( 8, 4, 1, 0 ) 0.1777418385995052, 0.8222581614004949;
    ( 8, 4, 1, 1 ) 0.12206515439694166, 0.8779348456030582;
    ( 8, 4, 2, 0 ) 0.12199103096284637, 0.8780089690371536;
    ( 8, 4, 2, 1 ) 0.801623141912817, 0.19837685808718292;
    ( 8, 4, 3, 0 ) 0.35127844639612993, 0.6487215536038701;
    ( 8, 4, 3, 1 ) 0.16569552694965378, 0.8343044730503463;
    ( 8, 4, 4, 0 ) 0.18293919335482178, 0.8170608066451783;
    ( 8, 4, 4, 1 ) 0.3859956624853404, 0.6140043375146595;
    ( 8, 4, 5, 0 ) 0.29761424144297405, 0.7023857585570259;
    ( 8, 4, 5, 1 ) 0.43268164260607267, 0.5673183573939274;
    ( 8, 4, 6, 0 ) 0.3702219075163418, 0.6297780924836582;
    ( 8, 4, 6, 1 ) 0.3629080579261854, 0.6370919420738146;
    ( 8, 4, 7, 0 ) 0.4803545011357331, 0.5196454988642669;
    ( 8, 4, 7, 1 ) 0.454523325790696, 0.545476674209304;
    ( 8, 5, 0, 0 ) 0.6880341660172382, 0.3119658339827618;
    ( 8, 5, 0, 1 ) 0.9957593936149816, 0.004240606385018454;
    ( 8, 5, 1, 0 ) 0.0003426148069400689, 0.99965738519306;
    ( 8, 5, 1, 1 ) 7.42475098833937e-11, 0.9999999999257524;
    ( 8, 5, 2, 0 ) 0.262704204912564, 0.7372957950874359;
    ( 8, 5, 2, 1 ) 0.9999980159806573, 1.984019342593803e-06;
    ( 8, 5, 3, 0 ) 0.33736008758925623, 0.6626399124107438;
    ( 8, 5, 3, 1 ) 0.6905793182383222, 0.30942068176167786;
    ( 8, 5, 4, 0 ) 0.33955400437352423, 0.6604459956264758;
    ( 8, 5, 4, 1 ) 0.5044248919851217, 0.4955751080148782;
    ( 8, 5, 5, 0 ) 0.42233730496052174, 0.5776626950394782;
    ( 8, 5, 5, 1 ) 0.34779070251321503, 0.652209297486785;
    ( 8, 5, 6, 0 ) 0.5389068057107744, 0.4610931942892256;
    ( 8, 5, 6, 1 ) 0.16508663508512958, 0.8349133649148703;
    ( 8, 5, 7, 0 ) 0.479729267893468, 0.520270732106532;
    ( 8, 5, 7, 1 ) 0.49778629504436794, 0.502213704955632;
    ( 9, 0, 0, 0 ) 0.5, 0.5;
    ( 9, 0, 0, 1 ) 0.5, 0.5;
    ( 9, 0, 1, 0 ) 0.5, 0.5;
    ( 9, 0, 1, 1 ) 0.5, 0.5;
    ( 9, 0, 2, 0 ) 0.5, 0.5;
    ( 9, 0, 2, 1 ) 0.5, 0.5;
    ( 9, 0, 3, 0 ) 0.5, 0.5;
    ( 9, 0, 3, 1 ) 0.5, 0.5;
    ( 9, 0, 4, 0 ) 0.5, 0.5;
    ( 9, 0, 4, 1 ) 0.5, 0.5;
    ( 9, 0, 5, 0 ) 0.5, 0.5;
    ( 9, 0, 5, 1 ) 0.5, 0.5;
    ( 9, 0, 6, 0 ) 0.5, 0.5;
    ( 9, 0, 6, 1 ) 0.5, 0.5;
    ( 9, 0, 7, 0 ) 0.5, 0.5;
    ( 9, 0, 7, 1 ) 0.5, 0.5;
    ( 9, 1, 0, 0 ) 0.12041316468219558, 0.8795868353178045;
    ( 9, 1, 0, 1 ) 3.1972865229177206e-11, 0.9999999999680271;
    ( 9, 1, 1, 0 ) 0.09215056083188213, 0.9078494391681178;
    ( 9, 1, 1, 1 ) 1.6752920955626397e-11, 0.9999999999832471;
    ( 9, 1, 2, 0 ) 0.3599317436991423, 0.6400682563008576;
    ( 9, 1, 2, 1 ) 0.39412028236925495, 0.605879717630745;
    ( 9, 1, 3, 0 ) 3.77914208461382e-11, 0.9999999999622086;
    ( 9, 1, 3, 1 ) 0.6967938112758217, 0.3032061887241782;
    ( 9, 1, 4, 0 ) 8.592497798124058e-11, 0.9999999999140751;
    ( 9, 1, 4, 1 ) 2.8047970659376088e-11, 0.999999999971952;
    ( 9, 1, 5, 0 ) 0.8525352364714835, 0.14746476352851645;
    ( 9, 1, 5, 1 ) 0.614576036809144, 0.38542396319085603;
    ( 9, 1, 6, 0 ) 1.6096968072105976e-11, 0.9999999999839031;
    ( 9, 1, 6, 1 ) 0.5730471821435087, 0.4269528178564913;
    ( 9, 1, 7, 0 ) 0.5, 0.5;
    ( 9, 1, 7, 1 ) 0.5, 0.5;
    ( 9, 2, 0, 0 ) 3.3932850517016367e-09, 0.9999999966067149;
    ( 9, 2, 0, 1 ) 0.007915020170747415, 0.9920849798292526;
    ( 9, 2, 1, 0 ) 0.06886709140913809, 0.9311329085908618;
    ( 9, 2, 1, 1 ) 0.2813650723358672, 0.7186349276641327;
    ( 9, 2, 2, 0 ) 0.12070685241345329, 0.8792931475865466;
    ( 9, 2, 2, 1 ) 0.4298021443624003, 0.5701978556375997;
    ( 9, 2, 3, 0 ) 0.17732274861377753, 0.8226772513862225;
    ( 9, 2, 3, 1 ) 0.07419024549947595, 0.925809754500524;
    ( 9, 2, 4, 0 ) 6.302367357596045e-10, 0.9999999993697634;
    ( 9, 2, 4, 1 ) 0.44778730426107094, 0.5522126957389291;
    ( 9, 2, 5, 0 ) 0.2646703725522433, 0.7353296274477567;
    ( 9, 2, 5, 1 ) 0.37945934210356713, 0.6205406578964329;
    ( 9, 2, 6, 0 ) 4.095644411758784e-11, 0.9999999999590437;
    ( 9, 2, 6, 1 ) 2.3130055621162742e-11, 0.99999999997687;
    ( 9, 2, 7, 0 ) 0.5, 0.5;
    ( 9, 2, 7, 1 ) 0.3448530797524422, 0.6551469202475577;
    ( 9, 3, 0, 0 ) 0.08400806821905746, 0.9159919317809425;
    ( 9, 3, 0, 1 ) 0.11385185076475461, 0.8861481492352454;
    ( 9, 3, 1, 0 ) 0.23649853504704185, 0.7635014649529581;
    ( 9, 3, 1, 1 ) 0.2934038930238471, 0.7065961069761529;
    ( 9, 3, 2, 0 ) 0.10733572855799679, 0.8926642714420032;
    ( 9, 3, 2, 1 ) 0.08525444249672677, 0.9147455575032732;
    ( 9, 3, 3, 0 ) 0.14857281117022028, 0.8514271888297797;
    ( 9, 3, 3, 1 ) 0.03242761472522566, 0.9675723852747744;
    ( 9, 3, 4, 0 ) 0.3642204078417169, 0.6357795921582832;
    ( 9, 3, 4, 1 ) 0.13941368002151083, 0.8605863199784891;
    ( 9, 3, 5, 0 ) 0.38729266490681047, 0.6127073350931895;
    ( 9, 3, 5, 1 ) 0.14630442834893342, 0.8536955716510665;
    ( 9, 3, 6, 0 ) 0.5125393195365252, 0.4874606804634748;
    ( 9, 3, 6, 1 ) 0.35401355660140943, 0.6459864433985906;
    ( 9, 3, 7, 0 ) 0.463256039321081, 0.536743960678919;
    ( 9, 3, 7, 1 ) 0.3768408599961075, 0.6231591400038925;
    ( 9, 4, 0, 0 ) 0.026549388891763635, 0.9734506111082364;
    ( 9, 4, 0, 1 ) 0.3532010681724301, 0.64679893182757;
    ( 9, 4, 1, 0 ) 0.08041836519231949, 0.9195816348076805;
    ( 9, 4, 1, 1 ) 0.520713904009956, 0.47928609599004385;
    ( 9, 4, 2, 0 ) 0.1731302664943933, 0.8268697335056067;
    ( 9, 4, 2, 1 ) 0.2826779461021417, 0.7173220538978583;
    ( 9, 4, 3, 0 ) 0.19811695520363168, 0.8018830447963684;
    ( 9, 4, 3, 1 ) 0.13181037561643197, 0.8681896243835681;
    ( 9, 4, 4, 0 ) 0.20854562408210034, 0.7914543759178998;
    ( 9, 4, 4, 1 ) 0.35173341814794834, 0.6482665818520517;
    ( 9, 4, 5, 0 ) 0.35689547758137913, 0.6431045224186209;
    ( 9, 4, 5, 1 ) 0.1813802054469831, 0.8186197945530168;
    ( 9, 4, 6, 0 ) 0.3062152925124147, 0.6937847074875853;
    ( 9, 4, 6, 1 ) 0.17520145896844053, 0.8247985410315596;
    ( 9, 4, 7, 0 ) 0.4882660774882406, 0.5117339225117594;
    ( 9, 4, 7, 1 ) 0.2386523203680942, 0.7613476796319059;
    ( 9, 5, 0, 0 ) 0.1702237175705415, 0.8297762824294586;
    ( 9, 5, 0, 1 ) 0.9999999999659509, 3.404900919705137e-11;
    ( 9, 5, 1, 0 ) 0.42953821089848077, 0.5704617891015192;
    ( 9, 5, 1, 1 ) 0.1854407633983249, 0.8145592366016751;
    ( 9, 5, 2, 0 ) 0.2852922179849748, 0.7147077820150253;
    ( 9, 5, 2, 1 ) 0.5544664638732246, 0.4455335361267753;
    ( 9, 5, 3, 0 ) 0.2795613215066001, 0.7204386784933998;
    ( 9, 5, 3, 1 ) 0.31294298403025006, 0.6870570159697499;
    ( 9, 5, 4, 0 ) 0.3578793937830378, 0.6421206062169622;
    ( 9, 5, 4, 1 ) 0.02217894245243908, 0.9778210575475609;
    ( 9, 5, 5, 0 ) 0.22628957536265018, 0.7737104246373497;
    ( 9, 5, 5, 1 ) 0.181094969490292, 0.818905030509708;
    ( 9, 5, 6, 0 ) 0.5024862320569893, 0.4975137679430107;
    ( 9, 5, 6, 1 ) 0.3175982638766321, 0.682401736123368;
    ( 9, 5, 7, 0 ) 0.4423413678284445, 0.5576586321715555;
    ( 9, 5, 7, 1 ) 0.3456412590244468, 0.6543587409755531;
    ( 10, 0, 0, 0 ) 3.101043996966916e-11, 0.9999999999689896;
    ( 10, 0, 0, 1 ) 0.5, 0.5;
    ( 10, 0, 1, 0 ) 0.5, 0.5;
    ( 10, 0, 1, 1 ) 2.0411751225557018e-11, 0.9999999999795882;
    ( 10, 0, 2, 0 ) 0.5, 0.5;
    ( 10, 0, 2, 1 ) 1.8449825820554906e-11, 0.9999999999815502;
    ( 10, 0, 3, 0 ) 0.5, 0.5;
    ( 10, 0, 3, 1 ) 0.5, 0.5;
    ( 10, 0, 4, 0 ) 0.5, 0.5;
    ( 10, 0, 4, 1 ) 0.5, 0.5;
    ( 10, 0, 5, 0 ) 0.5, 0.5;
    ( 10, 0, 5, 1 ) 1.7593010984375958e-11, 0.999999999982407;
    ( 10, 0, 6, 0 ) 0.5, 0.5;
    ( 10, 0, 6, 1 ) 0.5, 0.5;
    ( 10, 0, 7, 0 ) 0.5, 0.5;
    ( 10, 0, 7, 1 ) 0.5, 0.5;
    ( 10, 1, 0, 0 ) 7.223342488367992e-11, 0.9999999999277667;
    ( 10, 1, 0, 1 ) 0.34716371277482366, 0.6528362872251764;
    ( 10, 1, 1, 0 ) 3.443997913017643e-11, 0.99999999996556;
    ( 10, 1, 1, 1 ) 2.279605142600297e-11, 0.999999999977204;
    ( 10, 1, 2, 0 ) 1.0037908675080161e-08, 0.9999999899620914;
    ( 10, 1, 2, 1 ) 0.00024604218893460567, 0.9997539578110655;
    ( 10, 1, 3, 0 ) 0.29058096057811167, 0.7094190394218883;
    ( 10, 1, 3, 1 ) 1.951678624172214e-11, 0.9999999999804832;
    ( 10, 1, 4, 0 ) 0.3656485859642156, 0.6343514140357844;
    ( 10, 1, 4, 1 ) 3.118758793154242e-11, 0.9999999999688123;
    ( 10, 1, 5, 0 ) 4.297640565832408e-12, 0.9999999999957023;
    ( 10, 1, 5, 1 ) 0.4501509594898714, 0.5498490405101286;
    ( 10, 1, 6, 0 ) 0.5, 0.5;
    ( 10, 1, 6, 1 ) 1.2333429457142252e-11, 0.9999999999876665;
    ( 10, 1, 7, 0 ) 2.6976169973318642e-11, 0.9999999999730238;
    ( 10, 1, 7, 1 ) 0.9999999999657873, 3.4212662107285735e-11;
    ( 10, 2, 0, 0 ) 6.5637641139172e-11, 0.9999999999343623;
    ( 10, 2, 0, 1 ) 0.999999972987265, 2.701273494219111e-08;
    ( 10, 2, 1, 0 ) 0.24580183382027454, 0.7541981661797255;
    ( 10, 2, 1, 1 ) 0.2641005148654836, 0.7358994851345164;
    ( 10, 2, 2, 0 ) 3.205884340243047e-11, 0.9999999999679411;
    ( 10, 2, 2, 1 ) 0.06075249402334383, 0.9392475059766563;
    ( 10, 2, 3, 0 ) 0.14350144014335792, 0.856498559856642;
    ( 10, 2, 3, 1 ) 3.4709235664903215e-11, 0.9999999999652908;
    ( 10, 2, 4, 0 ) 5.8065044752957e-11, 0.999999999941935;
    ( 10, 2, 4, 1 ) 0.5080681458383957, 0.4919318541616044;
    ( 10, 2, 5, 0 ) 7.540743238481881e-11, 0.9999999999245927;
    ( 10, 2, 5, 1 ) 0.13445685091612963, 0.8655431490838704;
    ( 10, 2, 6, 0 ) 1.587416646255694e-11, 0.9999999999841259;
    ( 10, 2, 6, 1 ) 0.9999999999473267, 5.267331905783219e-11;
    ( 10, 2, 7, 0 ) 0.8688262540968777, 0.1311737459031222;
    ( 10, 2, 7, 1 ) 0.5, 0.5;
    ( 10, 3, 0, 0 ) 0.4136021270099592, 0.5863978729900408;
    ( 10, 3, 0, 1 ) 2.1353004534400394e-07, 0.9999997864699546;
    ( 10, 3, 1, 0 ) 0.040700797916045396, 0.9592992020839546;
    ( 10, 3, 1, 1 ) 0.27502917289423595, 0.7249708271057641;
    ( 10, 3, 2, 0 ) 0.2994422451209883, 0.7005577548790116;
    ( 10, 3, 2, 1 ) 0.08542722386428336, 0.9145727761357166;
    ( 10, 3, 3, 0 ) 0.30483176335398665, 0.6951682366460133;
    ( 10, 3, 3, 1 ) 0.06115154427206249, 0.9388484557279375;
    ( 10, 3, 4, 0 ) 0.4163538554745211, 0.583646144525479;
    ( 10, 3, 4, 1 ) 0.15139689197803533, 0.8486031080219646;
    ( 10, 3, 5, 0 ) 0.27794654547965225, 0.7220534545203477;
    ( 10, 3, 5, 1 ) 0.2402939641835654, 0.7597060358164347;
    ( 10, 3, 6, 0 ) 0.20719486456163053, 0.7928051354383695;
    ( 10, 3, 6, 1 ) 0.4413535162827142, 0.5586464837172859;
    ( 10, 3, 7, 0 ) 0.9999883934228299, 1.1606577170183856e-05;
    ( 10, 3, 7, 1 ) 0.19423068696609627, 0.8057693130339038;
    ( 10, 4, 0, 0 ) 0.43358857767995956, 0.5664114223200404;
    ( 10, 4, 0, 1 ) 0.5919005828010437, 0.4080994171989563;
    ( 10, 4, 1, 0 ) 0.023333190385177605, 0.9766668096148224;
    ( 10, 4, 1, 1 ) 1.8025100108378254e-11, 0.9999999999819749;
    ( 10, 4, 2, 0 ) 0.16345928876111163, 0.8365407112388884;
    ( 10, 4, 2, 1 ) 0.7507306320287421, 0.24926936797125787;
    ( 10, 4, 3, 0 ) 0.04243852049502924, 0.9575614795049708;
    ( 10, 4, 3, 1 ) 0.14410584534067386, 0.8558941546593261;
    ( 10, 4, 4, 0 ) 0.3143573110960858, 0.6856426889039142;
    ( 10, 4, 4, 1 ) 0.12271378413953578, 0.8772862158604643;
    ( 10, 4, 5, 0 ) 0.30009567136422305, 0.699904328635777;
    ( 10, 4, 5, 1 ) 0.2576330959225219, 0.7423669040774781;
    ( 10, 4, 6, 0 ) 0.2757133565605415, 0.7242866434394585;
    ( 10, 4, 6, 1 ) 0.3309362579524357, 0.6690637420475644;
    ( 10, 4, 7, 0 ) 0.32116979157317843, 0.6788302084268215;
    ( 10, 4, 7, 1 ) 0.3417625341732248, 0.6582374658267752;
    ( 10, 5, 0, 0 ) 0.5948165371201614, 0.40518346287983864;
    ( 10, 5, 0, 1 ) 0.5, 0.5;
    ( 10, 5, 1, 0 ) 0.7106233225113524, 0.28937667748864765;
    ( 10, 5, 1, 1 ) 0.9240083071384554, 0.07599169286154465;
    ( 10, 5, 2, 0 ) 0.1043501919477392, 0.8956498080522609;
    ( 10, 5, 2, 1 ) 0.11687541761681339, 0.8831245823831866;
    ( 10, 5, 3, 0 ) 0.10014941030688423, 0.8998505896931157;
    ( 10, 5, 3, 1 ) 0.16226700186567244, 0.8377329981343276;
    ( 10, 5, 4, 0 ) 0.4610996191092407, 0.5389003808907593;
    ( 10, 5, 4, 1 ) 0.37716904664680345, 0.6228309533531965;
    ( 10, 5, 5, 0 ) 0.20796549292025462, 0.7920345070797453;
    ( 10, 5, 5, 1 ) 0.31638330572906964, 0.6836166942709303;
    ( 10, 5, 6, 0 ) 0.4002919048319784, 0.5997080951680216;
    ( 10, 5, 6, 1 ) 0.34495976908232096, 0.655040230917679;
    ( 10, 5, 7, 0 ) 0.528632821699829, 0.47136717830017105;
    ( 10, 5, 7, 1 ) 0.2303197698943191, 0.7696802301056809;
    ( 11, 0, 0, 0 ) 0.5, 0.5;
    ( 11, 0, 0, 1 ) 0.5, 0.5;
    ( 11, 0, 1, 0 ) 1.831000977494222e-11, 0.99999999998169;
    ( 11, 0, 1, 1 ) 0.5, 0.5;
    ( 11, 0, 2, 0 ) 0.5, 0.5;
    ( 11, 0, 2, 1 ) 0.5, 0.5;
    ( 11, 0, 3, 0 ) 0.5, 0.5;
    ( 11, 0, 3, 1 ) 0.5, 0.5;
    ( 11, 0, 4, 0 ) 0.5, 0.5;
    ( 11, 0, 4, 1 ) 0.5, 0.5;
    ( 11, 0, 5, 0 ) 0.5, 0.5;
    ( 11, 0, 5, 1 ) 0.5, 0.5;
    ( 11, 0, 6, 0 ) 0.9999999968189105, 3.181089456119521e-09;
    ( 11, 0, 6, 1 ) 0.5, 0.5;
    ( 11, 0, 7, 0 ) 0.5, 0.5;
    ( 11, 0, 7, 1 ) 0.5, 0.5;
    ( 11, 1, 0, 0 ) 4.277299053936555e-11, 0.999999999957227;
    ( 11, 1, 0, 1 ) 2.1882738626399402e-11, 0.9999999999781173;
    ( 11, 1, 1, 0 ) 0.013056827774369338, 0.9869431722256307;
    ( 11, 1, 1, 1 ) 0.13248506581843278, 0.8675149341815672;
    ( 11, 1, 2, 0 ) 5.3765389750985225e-11, 0.9999999999462347;
    ( 11, 1, 2, 1 ) 0.6440471411919265, 0.3559528588080735;
    ( 11, 1, 3, 0 ) 0.6482297799825479, 0.351770220017452;
    ( 11, 1, 3, 1 ) 3.201557654278364e-11, 0.9999999999679845;
    ( 11, 1, 4, 0 ) 0.6824000343156138, 0.31759996568438614;
    ( 11, 1, 4, 1 ) 0.10064188929343783, 0.8993581107065621;
    ( 11, 1, 5, 0 ) 1.486914515679676e-11, 0.9999999999851309;
    ( 11, 1, 5, 1 ) 0.6549390137381593, 0.34506098626184073;
    ( 11, 1, 6, 0 ) 0.5, 0.5;
    ( 11, 1, 6, 1 ) 0.9999999999770383, 2.2961653457688224e-11;
    ( 11, 1, 7, 0 ) 0.5, 0.5;
    ( 11, 1, 7, 1 ) 8.486508512811716e-12, 0.9999999999915135;
    ( 11, 2, 0, 0 ) 0.22150458011337076, 0.7784954198866293;
    ( 11, 2, 0, 1 ) 2.8271509749835782e-11, 0.9999999999717285;
    ( 11, 2, 1, 0 ) 0.06929744144523388, 0.930702558554766;
    ( 11, 2, 1, 1 ) 1.3789041052967913e-11, 0.9999999999862109;
    ( 11, 2, 2, 0 ) 0.31478039074921715, 0.6852196092507827;
    ( 11, 2, 2, 1 ) 2.109455395124136e-11, 0.9999999999789054;
    ( 11, 2, 3, 0 ) 0.24642991420948943, 0.7535700857905107;
    ( 11, 2, 3, 1 ) 0.038129269171983886, 0.9618707308280161;
    ( 11, 2, 4, 0 ) 0.1303098452156953, 0.8696901547843048;
    ( 11, 2, 4, 1 ) 7.547094417187367e-11, 0.999999999924529;
    ( 11, 2, 5, 0 ) 0.45839530353031055, 0.5416046964696895;
    ( 11, 2, 5, 1 ) 0.4591110204020997, 0.5408889795979003;
    ( 11, 2, 6, 0 ) 0.5, 0.5;
    ( 11, 2, 6, 1 ) 3.541055241235137e-11, 0.9999999999645895;
    ( 11, 2, 7, 0 ) 0.5, 0.5;
    ( 11, 2, 7, 1 ) 5.983964173483371e-13, 0.9999999999994016;
    ( 11, 3, 0, 0 ) 0.02020456018491815, 0.9797954398150818;
    ( 11, 3, 0, 1 ) 0.6886821540708966, 0.3113178459291034;
    ( 11, 3, 1, 0 ) 0.17508966791131741, 0.8249103320886826;
    ( 11, 3, 1, 1 ) 0.0896162029183789, 0.9103837970816211;
    ( 11, 3, 2, 0 ) 0.09720155069153379, 0.9027984493084663;
    ( 11, 3, 2, 1 ) 0.04907874803052533, 0.9509212519694747;
    ( 11, 3, 3, 0 ) 0.29146185291056803, 0.708538147089432;
    ( 11, 3, 3, 1 ) 6.641453607177317e-05, 0.9999335854639283;
    ( 11, 3, 4, 0 ) 0.20189000707152446, 0.7981099929284756;
    ( 11, 3, 4, 1 ) 2.421160402304222e-06, 0.9999975788395977;
    ( 11, 3, 5, 0 ) 0.29080016012083404, 0.709199839879166;
    ( 11, 3, 5, 1 ) 0.17141419474485375, 0.8285858052551461;
    ( 11, 3, 6, 0 ) 0.2772585600306756, 0.7227414399693244;
    ( 11, 3, 6, 1 ) 0.8575685698968786, 0.1424314301031214;
    ( 11, 3, 7, 0 ) 0.5446379151274613, 0.45536208487253876;
    ( 11, 3, 7, 1 ) 0.6964220184648262, 0.3035779815351738;
    ( 11, 4, 0, 0 ) 0.36677748875665894, 0.6332225112433411;
    ( 11, 4, 0, 1 ) 0.5, 0.5;
    ( 11, 4, 1, 0 ) 0.42588220501758584, 0.5741177949824143;
    ( 11, 4, 1, 1 ) 0.1375866011606977, 0.8624133988393023;
    ( 11, 4, 2, 0 ) 0.2906354139045702, 0.7093645860954298;
    ( 11, 4, 2, 1 ) 6.06163936589339e-11, 0.9999999999393836;
    ( 11, 4, 3, 0 ) 0.06469569081198134, 0.9353043091880185;
    ( 11, 4, 3, 1 ) 0.35176973138762363, 0.6482302686123764;
    ( 11, 4, 4, 0 ) 0.24881190877551815, 0.7511880912244818;
    ( 11, 4, 4, 1 ) 0.385563692602974, 0.614436307397026;
    ( 11, 4, 5, 0 ) 0.3500586656405059, 0.6499413343594941;
    ( 11, 4, 5, 1 ) 0.13654039913426624, 0.8634596008657337;
    ( 11, 4, 6, 0 ) 0.30161428208096114, 0.6983857179190389;
    ( 11, 4, 6, 1 ) 0.25509004921525713, 0.7449099507847428;
    ( 11, 4, 7, 0 ) 0.5944110277991205, 0.40558897220087947;
    ( 11, 4, 7, 1 ) 0.2817002044378479, 0.7182997955621522;
    ( 11, 5, 0, 0 ) 0.999999999961455, 3.854495513117044e-11;
    ( 11, 5, 0, 1 ) 0.5, 0.5;
    ( 11, 5, 1, 0 ) 0.00016969828465459522, 0.9998303017153454;
    ( 11, 5, 1, 1 ) 0.9999999999492746, 5.0725453075927956e-11;
    ( 11, 5, 2, 0 ) 0.42905090979021854, 0.5709490902097815;
    ( 11, 5, 2, 1 ) 7.738419007523406e-11, 0.9999999999226158;
    ( 11, 5, 3, 0 ) 0.9999991344159019, 8.655840980767023e-07;
    ( 11, 5, 3, 1 ) 6.087711218724531e-11, 0.9999999999391228;
    ( 11, 5, 4, 0 ) 0.5006896685728152, 0.4993103314271849;
    ( 11, 5, 4, 1 ) 0.058875358556750565, 0.9411246414432494;
    ( 11, 5, 5, 0 ) 0.36410893050571336, 0.6358910694942866;
    ( 11, 5, 5, 1 ) 0.3458534936233232, 0.6541465063766768;
    ( 11, 5, 6, 0 ) 0.274984867111527, 0.725015132888473;
    ( 11, 5, 6, 1 ) 0.06717641916743608, 0.9328235808325639;
    ( 11, 5, 7, 0 ) 0.7264110462305385, 0.2735889537694614;
    ( 11, 5, 7, 1 ) 0.3653138854024349, 0.6346861145975652;
    ( 12, 0, 0, 0 ) 0.5, 0.5;
    ( 12, 0, 0, 1 ) 0.5, 0.5;
    ( 12, 0, 1, 0 ) 0.5, 0.5;
    ( 12, 0, 1, 1 ) 0.5, 0.5;
    ( 12, 0, 2, 0 ) 0.5, 0.5;
    ( 12, 0, 2, 1 ) 0.5, 0.5;
    ( 12, 0, 3, 0 ) 0.5, 0.5;
    ( 12, 0, 3, 1 ) 0.5, 0.5;
    ( 12, 0, 4, 0 ) 0.5, 0.5;
    ( 12, 0, 4, 1 ) 0.5, 0.5;
    ( 12, 0, 5, 0 ) 0.5, 0.5;
    ( 12, 0, 5, 1 ) 0.5, 0.5;
    ( 12, 0, 6, 0 ) 0.5, 0.5;
    ( 12, 0, 6, 1 ) 0.5, 0.5;
    ( 12, 0, 7, 0 ) 0.5, 0.5;
    ( 12, 0, 7, 1 ) 0.5, 0.5;
    ( 12, 1, 0, 0 ) 2.6359800208240675e-11, 0.9999999999736402;
    ( 12, 1, 0, 1 ) 0.5348692077024148, 0.4651307922975852;
    ( 12, 1, 1, 0 ) 0.5354374492247953, 0.4645625507752047;
    ( 12, 1, 1, 1 ) 0.2729126070373009, 0.7270873929626991;
    ( 12, 1, 2, 0 ) 0.20462851407047272, 0.7953714859295272;
    ( 12, 1, 2, 1 ) 0.3983325907766916, 0.6016674092233084;
    ( 12, 1, 3, 0 ) 0.7060301142220947, 0.2939698857779053;
    ( 12, 1, 3, 1 ) 5.61692746771318e-11, 0.9999999999438308;
    ( 12, 1, 4, 0 ) 0.6241520024109547, 0.37584799758904525;
    ( 12, 1, 4, 1 ) 0.795999759710891, 0.204000240289109;
    ( 12, 1, 5, 0 ) 0.5, 0.5;
    ( 12, 1, 5, 1 ) 2.2461553202689724e-11, 0.9999999999775384;
    ( 12, 1, 6, 0 ) 3.471334264495004e-11, 0.9999999999652867;
    ( 12, 1, 6, 1 ) 0.5945915513201677, 0.4054084486798322;
    ( 12, 1, 7, 0 ) 0.5, 0.5;
    ( 12, 1, 7, 1 ) 0.5902428935172339, 0.4097571064827661;
    ( 12, 2, 0, 0 ) 0.44172502713089645, 0.5582749728691035;
    ( 12, 2, 0, 1 ) 0.3070242512970182, 0.6929757487029818;
    ( 12, 2, 1, 0 ) 0.47160075166002197, 0.528399248339978;
    ( 12, 2, 1, 1 ) 0.6602177591429644, 0.33978224085703557;
    ( 12, 2, 2, 0 ) 0.3118924100234261, 0.688107589976574;
    ( 12, 2, 2, 1 ) 3.739518612823443e-11, 0.9999999999626048;
    ( 12, 2, 3, 0 ) 0.26343641584393784, 0.7365635841560622;
    ( 12, 2, 3, 1 ) 5.593737713198745e-11, 0.9999999999440626;
    ( 12, 2, 4, 0 ) 0.733548529467096, 0.266451470532904;
    ( 12, 2, 4, 1 ) 0.5373137871671568, 0.4626862128328433;
    ( 12, 2, 5, 0 ) 0.27926159647006443, 0.7207384035299356;
    ( 12, 2, 5, 1 ) 0.05977514322613134, 0.9402248567738687;
    ( 12, 2, 6, 0 ) 0.5, 0.5;
    ( 12, 2, 6, 1 ) 1.8677731315404025e-11, 0.9999999999813223;
    ( 12, 2, 7, 0 ) 0.999999999982755, 1.724498232860808e-11;
    ( 12, 2, 7, 1 ) 6.765753128416369e-11, 0.9999999999323425;
    ( 12, 3, 0, 0 ) 0.15549541792907223, 0.8445045820709278;
    ( 12, 3, 0, 1 ) 0.9999999999990928, 9.072251190667188e-13;
    ( 12, 3, 1, 0 ) 0.26898365152261267, 0.7310163484773873;
    ( 12, 3, 1, 1 ) 0.2796846977515985, 0.7203153022484016;
    ( 12, 3, 2, 0 ) 0.3203902640885309, 0.6796097359114691;
    ( 12, 3, 2, 1 ) 0.3847405141363735, 0.6152594858636264;
    ( 12, 3, 3, 0 ) 0.34793352483275847, 0.6520664751672415;
    ( 12, 3, 3, 1 ) 0.18636067847081364, 0.8136393215291864;
    ( 12, 3, 4, 0 ) 0.454722908833987, 0.5452770911660131;
    ( 12, 3, 4, 1 ) 0.3269116742770408, 0.6730883257229592;
    ( 12, 3, 5, 0 ) 0.4467488767773397, 0.5532511232226602;
    ( 12, 3, 5, 1 ) 0.4795653394737371, 0.520434660526263;
    ( 12, 3, 6, 0 ) 0.1996591872425011, 0.8003408127574989;
    ( 12, 3, 6, 1 ) 0.5646974450763182, 0.43530255492368175;
    ( 12, 3, 7, 0 ) 0.5826370097932696, 0.41736299020673034;
    ( 12, 3, 7, 1 ) 8.277156341905765e-11, 0.9999999999172284;
    ( 12, 4, 0, 0 ) 0.9998663972558925, 0.00013360274410751063;
    ( 12, 4, 0, 1 ) 0.9999999999979131, 2.086835046564908e-12;
    ( 12, 4, 1, 0 ) 0.28052825665323183, 0.7194717433467682;
    ( 12, 4, 1, 1 ) 0.9999999999186685, 8.133153583648446e-11;
    ( 12, 4, 2, 0 ) 0.17405483289321727, 0.8259451671067828;
    ( 12, 4, 2, 1 ) 0.5468883602938475, 0.4531116397061525;
    ( 12, 4, 3, 0 ) 0.5177878232627174, 0.4822121767372825;
    ( 12, 4, 3, 1 ) 0.10791823109279192, 0.8920817689072081;
    ( 12, 4, 4, 0 ) 0.33037636903047, 0.6696236309695299;
    ( 12, 4, 4, 1 ) 0.3848406002530889, 0.6151593997469111;
    ( 12, 4, 5, 0 ) 0.15304085143959162, 0.8469591485604083;
    ( 12, 4, 5, 1 ) 0.013274412073422408, 0.9867255879265775;
    ( 12, 4, 6, 0 ) 0.4082082608634909, 0.5917917391365092;
    ( 12, 4, 6, 1 ) 0.12245533490347606, 0.8775446650965238;
    ( 12, 4, 7, 0 ) 0.7142176647490192, 0.28578233525098073;
    ( 12, 4, 7, 1 ) 0.0512974104118803, 0.9487025895881197;
    ( 12, 5, 0, 0 ) 0.5, 0.5;
    ( 12, 5, 0, 1 ) 0.9999999999806556, 1.934444577216937e-11;
    ( 12, 5, 1, 0 ) 0.12018544144180089, 0.879814558558199;
    ( 12, 5, 1, 1 ) 0.0001521733500805457, 0.9998478266499194;
    ( 12, 5, 2, 0 ) 0.4676899456161695, 0.5323100543838305;
    ( 12, 5, 2, 1 ) 0.0001805994618176843, 0.9998194005381823;
    ( 12, 5, 3, 0 ) 0.5638489318565751, 0.43615106814342486;
    ( 12, 5, 3, 1 ) 0.49959550284165033, 0.5004044971583497;
    ( 12, 5, 4, 0 ) 0.6153428393771372, 0.38465716062286276;
    ( 12, 5, 4, 1 ) 0.41312824835122103, 0.586871751648779;
    ( 12, 5, 5, 0 ) 0.2967534368164726, 0.7032465631835274;
    ( 12, 5, 5, 1 ) 0.21050181545954097, 0.7894981845404591;
    ( 12, 5, 6, 0 ) 0.6033434170639684, 0.39665658293603145;
    ( 12, 5, 6, 1 ) 0.4803350478037705, 0.5196649521962295;
    ( 12, 5, 7, 0 ) 0.4076476228990834, 0.5923523771009166;
    ( 12, 5, 7, 1 ) 0.5239706685370322, 0.4760293314629678;

}
probability ( Veggies ) {
    table 0.227, 0.773 ;
}
